0.114408
-0.0132907
0.212411
-0.124452
0.0481425
0.22351
-0.459207
-0.0276717
-0.179854
0.103369
0.158219
0.577518
0.362121
0.258123
0.407112
0.142814
-0.276614
0.0994925
0.267817
-0.10662
-0.343089
-0.345663
0.535818
0.300259
0.0918022
0.215073
0.0219769
-0.239385
-0.238897
0.0527899
-0.30275
0.0842736
0.0971042
0.572701
-0.140485
-0.356519
-0.655076
-0.516029
0.598047
0.150742
0.00384355
0.0643413
0.213308
-0.246111
-0.00927551
0.40806
0.353962
0.0596903
-0.178321
-0.279697
-0.137366
-0.152908
-0.100864
-0.525096
0.245774
0.00220961
0.167126
-0.434511
0.061792
-0.0722644
0.180184
-0.0420076
-0.28655
0.333033
-0.0468296
-0.145555
0.0779331
-0.59819
-0.178716
-0.294422
0.288722
-0.149641
0.0525642
-0.582265
-0.422029
-0.503269
0.0163134
-0.531056
-0.630908
0.0108968
-0.0675826
0.0600579
-0.455347
-0.579067
0.064223
-0.390255
-0.0367141
0.454067
0.250084
0.2506
0.185382
-0.354732
-0.294789
-0.869213
-0.237475
-0.367947
-0.110462
0.236136
-1.2427
-0.0736511
-0.048853
0.277823
0.390676
-0.283754
0.210769
0.012413
0.581231
0.15287
-0.140694
0.258896
0.427959
0.243331
-0.38066
0.609791
-0.291889
0.356484
-0.42781
0.141344
0.226082
-0.559582
0.859239
0.177648
-0.586959
0.527649
0.164648
0.342778
-0.179243
-0.362634
0.403519
-0.0660895
-0.228992
0.0331584
-1.00937
0.349471
0.159009
-0.813021
-0.261743
-0.14839
0.100143
0.262723
0.469199
0.34352
-0.467255
-0.0914215
-0.764386
0.326992
0.313502
0.366919
-0.171388
0.0234144
0.0703479
-0.4033
-0.231961
-0.769259
-0.0111562
0.88151
-0.204748
-0.167054
0.33119
0.318986
-0.306577
0.00802152
-0.114156
-0.880036
-0.160479
-0.0163301
-0.256618
-0.155482
-0.2257
0.00679463
-0.408805
0.523472
0.662864
0.0382258
0.0794087
-0.178732
0.0365756
0.167403
0.506171
0.133886
0.280191
0.093061
-1.02028
0.0554236
-0.324522
0.295776
-0.384492
-0.079249
-0.396851
0.191405
-0.382525
0.00564643
-1.42759
0.0760714
-0.296168
0.0376419
0.070736
-0.158944
0.497329
0.391357
0.235521
0.401206
0.0355914
0.267525
0.104273
0.618984
-0.602019
-0.181097
-0.543873
0.63849
-0.944961
-0.152286
-0.490479
0.485519
-0.627477
0.160163
-0.0057916
-0.250067
-0.527731
1.03977
0.0279592
0.487541
-0.482155
-0.304119
0.213714
0.0836529
0.11985
0.100401
0.0922687
0.178304
0.581714
0.852853
0.500481
0.422497
-0.0658893
0.646712
-0.539065
0.131908
-0.903963
0.631879
-0.111782
-0.579192
0.0927511
-0.340456
-0.317327
0.772791
0.0592928
-0.751607
0.290263
0.90556
0.830731
0.618189
-0.273476
-0.0187278
0.43176
0.39877
-0.349992
-0.290593
0.0502083
-0.214734
0.380788
0.0336587
-0.0188234
-0.192706
-0.414876
0.529265
-0.845829
-0.194047
0.171846
0.86159
0.196162
0.0287524
1.03238
0.644713
0.00763398
0.399567
-0.0891818
-0.365743
0.18953
-0.310305
-0.0128804
0.115924
0.465239
-0.142935
0.49343
-0.0757181
0.247458
-0.030819
0.152138
0.149892
0.0813339
-0.409883
-0.238018
-0.0336655
0.164642
0.599308
0.577456
0.53896
0.729011
0.862868
0.663709
0.702242
0.864097
0.775461
-0.517273
-0.118829
0.345407
0.0447366
0.0281186
0.171244
0.270496
0.201155
0.146752
0.53197
0.147877
0.284265
0.401844
0.184713
0.14004
0.159781
-0.61199
-0.0929273
0.441861
0.364001
0.0845126
0.752807
0.0474537
0.133084
1.2351
0.335234
0.32623
0.966197
1.05647
0.467342
-0.248549
0.100137
-0.478508
0.154282
-0.142219
0.185261
0.422108
-0.106578
-0.607338
-0.360309
-0.359049
-0.22482
0.209589
0.207733
1.15779
0.807305
1.13691
0.399439
0.807163
0.463285
0.32936
0.227687
0.103906
0.486974
0.311118
0.07921
-0.444807
0.2407
0.684555
0.076137
0.3272
0.261285
0.472709
0.0023837
0.033531
-0.260118
0.619097
0.419834
0.243414
0.339057
0.239727
-0.307469
0.294012
0.520336
0.129145
1.61235
0.851726
0.784338
1.382
0.466378
0.638681
0.749587
-0.0937698
0.29939
0.680213
0.480626
-0.0722404
0.333252
-0.305512
0.453506
-0.403242
0.123359
-0.045845
0.363047
0.437044
-0.0443785
-0.309558
0.550777
-0.0789453
0.389196
0.59842
0.915834
-0.000159284
0.606595
0.3046
-0.0841919
0.274372
0.56903
-0.48821
0.496949
-0.0507191
-0.0342964
-0.279737
0.217204
0.0241289
0.15397
-0.320219
0.578306
-0.0171452
0.18778
-0.353281
-0.122403
-0.993809
-0.460341
-0.541358
-0.0219265
0.350603
1.02155
0.480013
0.496631
0.769677
0.136713
0.905591
0.508929
0.316188
1.2442
0.120364
-0.703516
1.07426
0.187504
0.395588
0.460657
-0.00255256
0.0417687
0.0372209
0.436877
0.21045
0.706039
0.810798
-0.0943854
-0.271931
0.243469
0.307333
0.280881
0.163896
-0.416828
0.964755
0.259864
0.288726
0.544577
1.03358
0.484876
0.512725
-0.763055
-0.463122
0.445809
0.0168511
-0.208625
0.976416
-0.205228
-0.126913
0.686916
-0.340506
0.0322403
-0.205277
-0.289868
0.661028
-0.397515
-0.0729261
0.460556
0.0831347
-0.352596
-0.430794
-0.185051
0.1911
0.34202
0.727053
0.64502
0.499459
0.20415
-0.575104
0.0210701
-0.490556
-0.239672
-0.0579561
-0.618265
0.0207376
-0.143462
-0.165017
0.298701
-0.107035
0.216677
0.360518
-0.250921
-0.165639
0.0194732
0.0789658
-0.529239
0.252237
0.279849
-0.555137
0.0107651
0.00551793
0.521225
-0.566801
0.182525
-0.654657
0.0509615
-0.697702
0.719223
-0.00372883
-0.0406529
0.40727
0.00956808
-0.445525
-0.0895267
0.175865
0.11334
0.0594619
0.721963
-0.298778
0.369326
-0.218503
0.297283
0.0742176
-0.527715
-0.616893
0.517531
0.22513
-0.803079
-0.834164
-0.70936
-0.607764
-0.168481
-0.0870613
-0.522975
0.484299
0.317596
0.29267
-0.388946
0.160413
-0.306019
-0.123045
0.31498
-0.193695
0.194772
-0.255631
0.560719
-0.00501151
-0.0327765
0.214508
-0.924523
0.328864
0.340579
-0.404802
-0.873821
-0.0259258
-0.603612
-0.269224
0.481047
-0.408061
-0.628456
-0.276428
0.0630053
-0.434549
0.0757915
-0.147934
0.731624
0.0830956
-0.136943
-0.400372
0.511213
0.300645
-0.221815
0.5881
0.0796294
0.180004
0.0104585
0.674853
-0.0962779
-0.400451
0.176382
-0.639152
-0.251028
-0.366259
-0.512434
-0.635132
-0.184083
-0.855608
-0.499733
-0.347128
-0.404363
-0.526739
-0.615133
0.344735
-0.676085
-0.702137
-0.305495
0.203558
-0.636738
0.0991381
0.570819
0.0461735
0.503844
-0.105661
-0.815718
0.108535
-0.694624
0.128778
0.820678
0.14116
-0.431052
0.472909
-0.584716
-0.649414
0.137694
-0.325052
0.346112
-0.774085
-0.0962974
-0.281269
-0.427103
-0.494758
-0.538817
0.129499
-1.11225
-0.148333
-0.324716
-0.648957
-0.165894
-0.342897
-0.0846415
-0.163113
0.0665642
0.128613
-0.138638
-0.445578
0.0937506
-0.227785
-0.430242
-0.0165123
-0.533731
-0.158579
0.309391
0.311491
-0.166727
-0.0884478
0.318418
-0.489582
-0.418929
-0.239994
-0.22896
-0.579225
-0.597334
-0.84759
-0.0407729
0.147932
0.138245
-0.109279
-0.548881
-0.0873525
-0.155934
0.170339
0.0110323
0.183603
0.207128
0.421371
-0.367117
0.240353
0.0429223
0.0561955
-0.107491
-0.0296505
-0.0979349
0.883589
-1.38136
-0.286209
0.350906
-0.469196
-0.179144
-0.65237
-1.14238
-0.82166
-0.0756995
0.114526
0.599902
-0.194938
0.134677
-0.484236
-0.175473
-0.223742
-0.250708
0.439726
0.856932
0.360994
-0.580693
-0.418327
-0.0784956
0.329534
-1.2076
0.369196
-0.203762
-0.960476
-0.376582
-0.75701
-0.463095
0.27701
0.0746022
-0.39832
0.269181
-0.460796
-0.282964
-0.0966703
-0.117785
0.0688087
-0.140006
-0.098698
0.489823
0.338043
-0.109851
0.0129458
0.505133
0.0284276
-0.158012
-0.0496182
-0.244598
-0.563428
0.0116601
-0.793004
-0.395342
0.251685
0.0910221
0.041898
0.102633
-0.681881
-0.578893
-0.237194
-0.070276
0.161979
0.0528977
0.0580017
-0.394812
0.09184
0.343762
0.0816051
0.58298
-0.104212
-0.0762645
-0.0288864
-0.449741
0.208082
0.491915
-0.195387
0.110464
0.501277
-0.278413
-0.0596949
-0.0247485
0.0205892
-0.354476
-0.463425
0.247872
-0.321904
0.000626629
0.0473597
-0.388335
0.0698977
0.0458695
-0.112565
-0.179758
