-0.690081
-0.0781026
0.201609
-0.131091
0.162139
-0.230543
0.146923
-0.0882378
-0.080723
-0.240868
0.151846
0.222032
0.185386
0.0450823
-0.15701
-0.0894697
-0.518909
0.188816
-0.070547
-0.300204
-0.066339
-0.348909
-0.246713
-0.158322
-0.282444
0.0176974
-0.260758
0.162442
0.222038
0.245902
-0.440982
-0.392573
-0.380294
-0.157032
-0.295974
-0.240149
-0.234042
0.0066443
0.217715
0.0237961
0.267107
-0.162058
-0.306147
0.613387
0.241343
-0.240675
0.163638
0.243385
0.0661318
0.257324
-0.00701525
-0.110143
0.222903
-0.000970171
0.181128
-0.0952234
-0.34645
0.393432
-0.371065
0.0551331
-0.197185
0.363127
0.121387
-0.317623
-0.00989816
0.131187
0.0725638
0.112421
-0.09614
0.261331
0.709024
-0.659157
-0.647899
0.0506163
-0.166436
-0.2607
0.477903
-0.218203
0.0572426
0.291525
-0.57649
0.408741
-0.0305877
0.168747
-0.182445
0.18179
-0.0262511
-0.517136
0.00486896
0.030265
-0.00860943
0.406704
0.0429428
-0.273121
-0.250536
-0.420286
0.436105
-0.171876
-0.153747
-0.384104
-0.351195
-0.666591
0.312122
-0.259222
-0.605625
-0.257154
0.0457429
0.829655
0.432917
-0.0816604
-0.0211394
0.0320584
-0.134546
-0.418252
0.131384
-0.109105
-0.235093
-0.169959
-0.107893
-0.431486
-1.18177
-0.728604
0.163566
-0.181591
0.504961
-0.0904684
0.864265
0.834219
1.15462
-0.0174201
0.29283
0.147385
0.255861
-0.127641
-0.0720526
-0.0144279
-0.554133
0.635387
0.00512142
-0.185037
0.179621
0.321153
-0.226589
0.167575
0.36503
-0.293298
0.305463
0.311538
-0.0541962
0.00733513
-0.142541
0.79702
-0.0276539
0.008335
0.192969
0.452601
0.52841
0.745961
0.456342
-0.257336
0.803845
0.650195
-0.0802617
-0.441361
0.857628
0.620568
-0.144365
-0.035422
-0.127069
-0.0598324
-0.363835
0.191819
0.498154
-0.669465
-0.67728
-0.335454
-0.669853
0.176428
-0.353637
0.58252
0.080103
0.142465
-0.074178
0.131653
-0.204357
-0.236519
-0.0211437
0.783213
-0.432161
0.739887
-0.276272
-0.1769
0.32151
0.0942465
-0.072057
0.197418
-0.14117
0.0401662
-0.604273
-0.867342
-0.346016
-0.366843
-0.162856
0.186374
1.2633
-0.225183
0.0629828
-0.0154093
0.414469
0.36696
-0.17614
0.11385
0.55015
-0.693227
0.200306
-0.399963
-0.160734
0.119243
0.059143
0.12995
-0.31126
0.252704
0.0757195
0.0785414
-0.400359
-0.0409499
0.100845
0.0468689
-0.030571
-0.174612
-0.495827
-0.357084
0.0951488
0.293269
-0.412432
0.445853
-0.295782
0.387159
0.598142
-0.679147
0.244394
-0.429968
0.289537
0.276969
0.0278288
0.595906
-0.200797
0.977423
-0.875905
-0.141969
0.0774226
0.453891
0.178913
-0.353377
0.261455
-0.347125
-0.0737406
0.0548121
0.501049
-0.198788
0.279293
0.349331
0.538891
0.1785
0.117214
0.139661
-0.301594
-0.125169
-0.237722
-0.681017
-0.476706
-1.13286
-0.678017
0.663164
-0.221786
1.08519
0.214424
0.602841
-0.219607
0.165452
0.00595922
-0.185788
-0.22221
0.220277
-0.0483183
-0.598763
1.11326
0.460341
0.187053
0.335251
0.319707
0.710261
-0.0489611
-0.419977
0.0567375
-0.0823508
-0.441894
-0.660112
0.133005
0.382697
0.080316
-0.810345
-0.0525272
0.664503
-0.221633
-0.586176
0.388698
0.233767
-0.104285
-0.0145435
-0.168983
-0.109933
-0.0469257
0.410087
0.268083
-0.37046
0.197517
-0.085351
0.0377931
-0.586987
0.765445
-0.351099
-0.0610905
-0.57266
-0.153678
-0.48761
-0.65918
-0.646726
-0.712482
-0.0301939
0.00614962
1.10102
1.59087
0.254466
-0.287588
0.165858
0.434094
0.223778
0.177209
-0.0458765
0.357789
0.963233
0.499805
-0.0376046
-0.19757
-0.200409
-0.0324163
-0.580315
-0.789388
-0.59908
0.746543
-0.219934
-0.390178
0.318903
-0.709982
0.405426
0.340025
0.417415
0.312619
1.29272
1.49279
-0.0298388
0.137225
0.121071
0.0695808
-0.0293882
0.422103
0.370843
-0.202373
-0.312393
-0.311665
0.139289
-0.210779
-0.483744
-1.15462
-0.442585
0.603435
-0.141207
0.74765
0.726318
-0.57596
-0.44268
0.194203
-0.150421
-0.164427
-0.416315
0.602908
1.61276
0.820093
-0.2146
-0.369467
-0.0569195
0.261497
0.011766
0.229627
-0.522825
-0.685929
-0.205651
-0.43329
-0.591426
-0.966529
-0.141162
-0.188312
-0.110183
-0.241149
0.467939
-0.159381
-0.0317347
0.292511
-0.01144
-0.642918
-0.498578
-0.442477
-0.391796
-0.808529
-0.496996
-0.59252
-0.104958
0.2403
-0.149766
-0.601935
-0.396817
-0.0635987
-1.13774
-0.797683
-0.579211
-0.707607
-0.389555
0.035937
-0.22239
0.159183
0.487189
0.688393
0.405419
0.68211
-0.674785
-0.288374
-0.778694
-0.392113
-0.444217
-0.680175
-0.503937
-1.56729
-0.605592
-0.470119
-0.152519
0.0909712
0.17164
-0.25685
-0.142292
0.165908
-0.220127
-0.409431
-0.603314
-0.286469
-0.25077
-0.721397
0.465752
-0.0445834
-0.198534
0.323088
0.172447
0.352145
0.89864
0.634433
-0.18043
0.0455219
-0.816977
-1.78879
-0.475421
-0.973964
-0.414973
-0.59612
0.151076
-0.302155
-0.213429
0.113382
0.369246
-0.0231889
0.564908
0.112439
-0.639744
-0.211474
0.0848186
1.27188
-0.332107
0.194931
0.29977
0.614181
0.0723611
0.465261
-0.515736
-0.00995626
-0.758548
-0.847276
-0.476117
0.0989044
-0.306917
0.327367
0.0367905
-0.172172
-0.282066
-0.12301
-0.260653
0.169061
-0.20584
-0.165583
0.358741
0.58793
0.134102
0.35385
0.154396
-0.188371
0.193746
0.431521
0.452464
-0.0142534
0.746455
-0.300379
-0.125179
-1.07379
0.454128
-0.440909
0.387259
0.848167
0.0582174
0.864204
0.798142
0.345929
0.187197
-0.337038
-0.0536199
0.184452
0.0778559
0.0530807
0.00270004
-0.0789186
-0.036629
-0.0867936
0.264927
-0.517372
0.0192403
-0.0838212
-0.30565
0.109741
0.0426024
-1.40725
-0.0179253
-0.314701
0.19065
0.265301
0.225861
-0.146213
0.242293
0.627663
0.710574
0.511688
0.465898
0.525928
-0.375839
0.0322178
-0.600853
-0.397016
-0.0653168
0.0852071
0.618539
1.22602
1.14633
1.03994
1.16458
0.00108491
0.146367
0.178372
0.327765
0.323265
0.580367
0.497419
-0.104435
0.205808
0.892304
1.07743
1.33799
0.532738
0.771564
0.209755
-0.117683
-0.136393
0.0540482
-0.212203
-0.184126
0.292508
-0.456323
-0.112435
-0.101887
0.534425
0.948401
0.0318009
0.464255
1.36947
0.797516
0.0453291
1.23903
0.539314
0.800991
0.115989
1.6544
0.488352
0.729005
1.55047
0.336078
0.374919
0.880536
-0.0954093
0.256563
-0.0680129
0.318445
0.171089
0.217466
-0.0612554
0.160452
0.823536
0.288531
-0.250172
0.418072
-0.0783383
0.101097
-0.317416
0.158292
0.567225
0.525194
1.02269
-0.263855
0.468627
0.501577
0.110026
0.598707
0.395159
0.240631
1.01418
0.298605
0.762391
0.281284
-0.263805
0.0985956
-0.440618
0.327585
0.518298
0.643219
-0.46443
-0.465361
0.448294
0.151722
0.484218
0.386491
1.01873
0.208702
0.285856
0.368418
0.821154
0.512014
1.17445
0.482689
0.397733
1.53724
0.701219
0.519597
0.358623
0.889584
0.259017
0.0558268
0.406698
0.33345
0.0826775
0.0688537
-0.0870996
-0.41059
-0.528882
-0.447565
0.179086
-0.342694
-0.931378
0.519467
-0.100179
0.936323
0.252674
-0.078929
0.865795
0.775804
0.367609
-0.477672
0.737403
0.274697
0.606124
0.46722
0.0965903
0.239937
0.0503342
-0.084017
0.356421
-0.568639
-0.215079
-0.220862
0.025177
0.0908825
-0.46516
-1.04298
0.325454
0.449025
-0.196107
0.0852249
0.0673578
-0.7177
0.736409
0.699229
0.047361
0.588346
0.199211
1.24227
-0.10777
0.0785288
-0.359396
-0.909393
0.273866
0.258533
-0.0969384
-0.697949
-0.0652578
0.187084
0.232085
0.896547
-0.109941
-0.0106371
0.0703102
0.354873
-0.0510528
-0.411262
0.138678
-0.595936
-0.890843
-0.665981
-0.0692265
-0.0949876
-0.297543
-0.38023
0.622315
0.741965
-0.024138
-0.356081
-0.0462183
-0.192897
-0.407834
-0.212553
-0.593773
-0.267124
-0.051619
-0.0455552
-0.389162
0.0387681
-0.0238413
-0.20599
-0.252222
-0.678482
-0.081172
0.00813902
-0.15053
0.552324
0.0901657
0.139077
0.272387
-0.0752097
0.468094
-0.887906
-0.313335
0.037287
-0.0390062
0.505004
-0.464359
0.313667
0.0201123
-0.619421
-0.377082
-0.436195
0.151202
-0.244236
