0.114408
-0.0132907
0.212411
-0.124452
0.0481425
0.22351
-0.459207
-0.0276717
-0.179854
0.103369
0.158219
0.577518
0.362121
0.258123
0.407112
0.142814
-0.276614
0.0994925
0.267817
-0.10662
-0.343089
-0.345663
0.535818
0.300259
0.0918022
0.215073
0.0219769
-0.239385
-0.238897
0.0527899
-0.30275
0.0842736
0.0971042
0.572701
-0.140485
-0.356519
-0.655076
-0.516029
0.598047
0.150742
0.00384355
0.0643413
0.213308
-0.246111
-0.00927551
0.40806
0.353962
0.0596903
-0.178321
-0.279697
-0.137366
-0.152908
-0.100864
-0.525096
0.245774
0.00220961
0.167126
-0.434511
0.061792
-0.0722644
0.180184
-0.0420076
-0.28655
0.333033
-0.0468296
-0.145555
0.0779331
-0.59819
-0.178716
-0.294423
0.28863
-0.150138
0.0520576
-0.582422
-0.422042
-0.50327
0.0163134
-0.531056
-0.630908
0.0108968
-0.0675826
0.0600579
-0.455347
-0.579067
0.064223
-0.390255
-0.0367141
0.454067
0.250084
0.2506
0.185382
-0.354355
-0.293794
-0.867667
-0.236883
-0.366828
-0.110049
0.235447
-1.244
-0.0751673
-0.0515798
0.275377
0.389923
-0.28345
0.21121
0.0128131
0.581231
0.15287
-0.140694
0.258896
0.427959
0.243331
-0.38066
0.609791
-0.291889
0.356484
-0.427829
0.140981
0.225689
-0.558602
0.86024
0.179559
-0.582159
0.530171
0.163705
0.338974
-0.182105
-0.369316
0.395871
-0.0688543
-0.225764
0.0377599
-1.00449
0.352975
0.160958
-0.81247
-0.261698
-0.148396
0.100143
0.262723
0.469199
0.34352
-0.467255
-0.0914215
-0.764363
0.326456
0.314248
0.368709
-0.169909
0.0271851
0.0756518
-0.406584
-0.240502
-0.781203
-0.0226564
0.871844
-0.211155
-0.169773
0.332948
0.323791
-0.301104
0.0128628
-0.109914
-0.879388
-0.16108
-0.0170631
-0.256621
-0.155482
-0.2257
0.00679463
-0.408819
0.523472
0.662927
0.037828
0.0789815
-0.180747
0.0329944
0.174771
0.51362
0.125777
0.268479
0.080091
-1.02787
0.0539159
-0.323152
0.303807
-0.369168
-0.0624547
-0.381026
0.205013
-0.376547
0.00709978
-1.42799
0.0752457
-0.296208
0.0376419
0.070736
-0.158944
0.497329
0.391379
0.236145
0.401631
0.0339181
0.264977
0.109351
0.633204
-0.594392
-0.184429
-0.550828
0.630087
-0.953807
-0.160989
-0.486585
0.500404
-0.607866
0.18464
0.0217215
-0.219961
-0.511243
1.04242
0.0265687
0.485905
-0.482244
-0.304119
0.213714
0.0836529
0.11985
0.100476
0.0925531
0.177552
0.578237
0.850288
0.508377
0.433827
-0.0611833
0.648694
-0.542684
0.130317
-0.901982
0.633743
-0.107692
-0.56784
0.102477
-0.322247
-0.28848
0.807925
0.0851302
-0.744166
0.290397
0.904209
0.830729
0.618189
-0.273476
-0.0187278
0.431761
0.398953
-0.352262
-0.293974
0.0488018
-0.215498
0.38264
0.0395653
-0.0135786
-0.194354
-0.416418
0.535279
-0.834553
-0.184731
0.179347
0.872214
0.20434
0.0488997
1.06419
0.683261
0.033706
0.414176
-0.0864063
-0.364577
0.189529
-0.310305
-0.0128804
0.115924
0.465246
-0.14261
0.493412
-0.0786347
0.247498
-0.0305264
0.156845
0.154035
0.0783403
-0.419471
-0.246941
-0.0307782
0.175218
0.610114
0.586449
0.548602
0.736141
0.881096
0.692311
0.737396
0.884719
0.786018
-0.512037
-0.118055
0.345407
0.0447366
0.0281186
0.171244
0.270496
0.201402
0.148916
0.533272
0.149827
0.289199
0.405508
0.188316
0.136707
0.150463
-0.611428
-0.0840791
0.455066
0.371111
0.0892218
0.760033
0.0534053
0.143005
1.25541
0.357295
0.340653
0.972235
1.05721
0.467676
-0.248549
0.100137
-0.478508
0.154282
-0.142219
0.18595
0.425504
-0.100314
-0.599148
-0.350448
-0.350641
-0.217031
0.210299
0.206414
1.15924
0.809075
1.14414
0.397624
0.807859
0.464267
0.327728
0.233285
0.115927
0.498638
0.316193
0.0768052
-0.447322
0.239231
0.683599
0.076137
0.3272
0.261285
0.472709
0.00356417
0.0378271
-0.251428
0.629135
0.437329
0.259557
0.351993
0.242485
-0.306188
0.294214
0.522955
0.130714
1.61022
0.856159
0.788018
1.38505
0.471532
0.645255
0.754288
-0.0932481
0.297821
0.676505
0.478126
-0.0741937
0.333252
-0.305512
0.453506
-0.403242
0.123998
-0.0434728
0.373762
0.449653
-0.0208233
-0.286041
0.562665
-0.0786873
0.389844
0.599932
0.923045
0.00484866
0.609002
0.311983
-0.0719655
0.276039
0.56919
-0.480152
0.49878
-0.0521675
-0.0328862
-0.281046
0.216537
0.0241986
0.15397
-0.320219
0.578306
-0.0171452
0.187845
-0.348902
-0.110846
-0.979785
-0.443241
-0.516872
-0.00111745
0.35632
1.02472
0.489158
0.510998
0.786218
0.151916
0.926045
0.524239
0.321405
1.24086
0.1276
-0.701692
1.07587
0.19299
0.395888
0.460595
-0.0025521
0.0417687
0.0372209
0.436877
0.21045
0.706211
0.816797
-0.0840057
-0.257548
0.260101
0.325715
0.296165
0.173716
-0.416089
0.971295
0.273254
0.300268
0.555209
1.05158
0.499494
0.520657
-0.763099
-0.459231
0.453385
0.0226452
-0.20329
0.977705
-0.205314
-0.126913
0.686916
-0.340506
0.0322403
-0.205277
-0.289604
0.666797
-0.384901
-0.0587104
0.477413
0.097794
-0.342169
-0.423138
-0.180697
0.198737
0.34986
0.731272
0.648986
0.50776
0.212362
-0.570792
0.0229044
-0.481691
-0.234777
-0.0500129
-0.612287
0.0232237
-0.143553
-0.165017
0.298701
-0.107035
0.216677
0.360518
-0.249841
-0.160583
0.0313492
0.0945634
-0.508655
0.274455
0.296656
-0.545205
0.0192383
0.0112246
0.526665
-0.56476
0.188752
-0.648325
0.0562271
-0.694891
0.725897
0.00829102
-0.0339183
0.413162
0.0125842
-0.444228
-0.0896744
0.175865
0.11334
0.0594619
0.721963
-0.298616
0.368635
-0.211781
0.307414
0.0891673
-0.507972
-0.592887
0.535195
0.235529
-0.797466
-0.832326
-0.706619
-0.606054
-0.163243
-0.0829372
-0.515013
0.491015
0.322241
0.29745
-0.387601
0.161205
-0.302719
-0.121914
0.314888
-0.193695
0.194772
-0.255631
0.560719
-0.00482051
-0.0326909
0.22192
-0.915495
0.340738
0.355906
-0.389709
-0.861004
-0.0198033
-0.601626
-0.266831
0.482836
-0.408728
-0.627233
-0.27533
0.0716125
-0.426089
0.0736062
-0.14829
0.732299
0.0831949
-0.134175
-0.399105
0.511136
0.300645
-0.221815
0.5881
0.0796294
0.180011
0.00818654
0.675502
-0.0893574
-0.392322
0.183228
-0.627235
-0.239105
-0.357538
-0.504141
-0.62914
-0.181042
-0.85363
-0.500118
-0.348019
-0.402834
-0.525681
-0.617884
0.34402
-0.674742
-0.7027
-0.303686
0.203599
-0.63679
0.0992472
0.570819
0.0461735
0.503844
-0.105661
-0.818025
0.106957
-0.693431
0.133549
0.826415
0.150231
-0.423219
0.484745
-0.576143
-0.647962
0.135039
-0.329782
0.336877
-0.788537
-0.102951
-0.278809
-0.42644
-0.493949
-0.540264
0.129054
-1.11045
-0.149
-0.324808
-0.648946
-0.165894
-0.342897
-0.0846415
-0.163113
0.0665643
0.128872
-0.138549
-0.445449
0.096719
-0.222241
-0.419908
-0.00914473
-0.532167
-0.163298
0.301414
0.3013
-0.184096
-0.101633
0.320776
-0.482738
-0.414335
-0.237986
-0.22924
-0.578586
-0.597602
-0.848051
-0.0408352
0.147932
0.138245
-0.109279
-0.548881
-0.0873593
-0.155943
0.171053
0.013498
0.18819
0.212493
0.426461
-0.360428
0.245761
0.0446215
0.0536598
-0.116132
-0.0384292
-0.103661
0.882822
-1.371
-0.27852
0.356356
-0.464651
-0.17711
-0.652345
-1.14275
-0.821628
-0.0756995
0.114526
0.599902
-0.194938
0.134677
-0.484236
-0.175473
-0.222687
-0.248504
0.44283
0.863005
0.373544
-0.568745
-0.413321
-0.0767343
0.332075
-1.20611
0.36813
-0.204852
-0.957779
-0.372315
-0.753791
-0.459646
0.278348
0.0745419
-0.398369
0.269181
-0.460796
-0.282964
-0.0966703
-0.117785
0.0688087
-0.140006
-0.098698
0.489823
0.338043
-0.109851
0.0129381
0.505287
0.0286568
-0.157887
-0.0496205
-0.244485
-0.562467
0.0140046
-0.795475
-0.399407
0.252193
0.0911431
0.0421144
0.103301
-0.681412
-0.578873
-0.237191
-0.070276
0.161979
0.0528977
0.0580017
-0.394812
0.09184
0.343762
0.0816051
0.58298
-0.104212
-0.0762645
-0.0288807
-0.449523
0.208203
0.491915
-0.195387
0.110464
0.501277
-0.278413
-0.0597119
-0.0247677
0.0205892
-0.354476
-0.463425
0.247872
-0.321904
0.000626632
0.0473597
-0.388335
0.0698977
0.0458695
-0.112565
-0.179758
