0.500492
-0.178091
0.24412
0.127815
-0.287203
-0.55888
-0.128347
-0.0219055
0.409104
-0.591586
0.132538
0.25514
-0.517038
-0.0961166
-0.199023
-0.0553437
0.189861
-0.204113
-0.332517
-0.576217
-0.160849
-0.36569
-0.130171
0.690136
-0.0295102
0.326046
0.0249359
-0.127718
0.00625447
0.252209
-0.377656
0.0463321
0.301481
-0.205259
0.241747
-0.0383298
0.19619
0.136553
-0.523016
1.18766
-0.177993
-0.199225
-0.864186
-0.413001
0.0711801
0.0612939
0.161221
0.662148
-0.15122
0.428437
-0.427263
0.0167887
-0.546113
-0.183269
0.465534
0.021361
0.138488
0.0856359
0.24662
0.0671429
0.467339
0.122894
-0.149677
0.230225
-0.185801
-0.173162
0.232207
-0.163345
0.355813
-0.915171
-0.221328
-0.905307
-0.268636
0.145646
-0.0399483
0.442199
-0.385934
-0.285943
0.172973
-0.209966
-0.405999
-0.00174347
-0.52482
-0.42853
0.11199
0.303842
0.641406
0.213578
-0.0610288
0.0744269
-0.49597
0.139175
0.55078
-0.38826
0.330263
-0.0821699
-0.327
-0.0926256
-0.317977
0.376386
-0.190576
-1.12566
-0.142093
-0.864129
-0.528923
-0.582845
-0.771821
-0.425556
-0.0966102
-0.0725561
-0.293604
0.0391401
0.0419563
0.501162
-0.0298675
-0.258418
-0.23646
-0.527395
0.0900386
0.335623
0.0812421
0.241056
-0.216421
0.138582
-0.105159
-0.864543
-0.0745752
0.409971
-0.927351
0.820961
-0.638841
-0.643519
0.995696
0.109066
0.486759
-0.186125
0.0342729
-0.0892999
-0.127002
0.512239
-0.213371
-0.223111
0.0853925
0.271022
-0.373157
-0.0782186
-0.610182
-0.724026
-0.6057
-0.713559
-0.318786
0.334296
0.319249
-0.0687099
-0.160644
0.509215
-0.0849105
0.484788
0.519976
-0.3194
0.0823942
-0.496456
0.361354
-0.25442
-0.366116
-0.262811
0.179213
0.132642
0.0966232
-0.275615
-0.701027
-0.435462
-0.322686
-0.421155
0.0053214
0.578981
-0.844154
-0.294999
-0.158214
-0.490367
-0.662963
-0.125086
-0.450692
-0.419002
0.602708
-0.481166
0.498508
-0.253092
0.564707
-0.304481
-0.448187
0.42685
-0.45804
-0.666322
0.151535
-0.431307
-0.240743
-0.359018
-0.072683
0.201159
-0.402201
-0.271928
0.573814
0.391706
-0.500103
-0.103391
0.214686
0.563074
-0.154626
0.559736
0.357007
-0.344128
-0.257796
-0.0271988
-0.473559
-0.433426
-1.2028
0.168819
0.540032
-0.264061
-1.21336
-0.809256
-0.0194943
-0.0666907
-0.13431
0.274995
0.271681
0.35826
-0.0701061
-0.374635
-0.72428
-0.485317
-1.33949
0.0810727
-0.478484
-0.880011
-0.25641
-0.437547
-0.105628
0.243034
-0.388761
0.335145
-0.0576672
-0.439416
-0.450098
-0.679277
-0.525316
0.254446
-0.530503
-0.451155
-0.17203
-0.0638842
0.367342
-0.124903
-0.37456
-0.137554
-0.0796419
-0.438929
-0.240281
-0.447476
-0.493396
-0.375769
0.474542
0.416856
-0.190508
0.144231
-0.918697
-0.312237
0.0289765
-0.6604
0.568784
0.424978
0.264981
0.211156
-0.148982
-0.332999
-0.750345
-1.37334
0.189779
-0.0845057
-0.027964
0.0194904
-0.0632038
0.0609607
-0.780786
0.0232112
-0.0992975
-0.111007
0.812944
0.544298
0.0548827
0.946395
-0.784607
-0.588933
-0.51319
-0.113827
0.011083
0.870768
0.531453
-5.29291e-05
-0.311295
-0.0381442
-0.141347
-0.705278
-0.13082
-0.480813
-0.105249
0.318849
0.452804
0.160392
-0.395693
0.0580799
-0.015533
0.084961
0.0313224
0.0633671
-0.162624
-0.165918
0.294518
0.0478477
0.531887
-0.0359798
-1.64509
0.287845
0.143363
-0.524432
-0.12015
0.0176583
0.310849
0.738883
0.399921
-0.722965
-1.03102
-0.454354
-0.34453
0.0853006
0.0192056
0.152392
-0.438154
0.139666
-0.821284
-0.285452
0.366135
-0.42823
-0.171838
0.0187769
-0.571549
1.20533
-0.379904
-0.754398
-1.76076
-1.89268
-1.06251
-0.127462
-0.584976
0.306808
-0.114968
0.72924
0.0970484
0.46045
0.133727
0.0654373
0.759192
0.392929
0.363281
0.189359
0.151375
-0.300271
-0.319111
0.348283
0.0375266
0.721741
0.338792
-0.220287
-0.361502
0.0308257
0.592238
-0.612134
-0.272337
-0.39958
-0.813911
-0.483122
-0.988842
0.993024
-0.929783
-0.282209
0.149569
0.80668
0.748741
0.660579
0.806253
-0.247044
-0.0193712
-0.216222
0.152458
0.193627
0.540483
0.530066
0.137412
1.319
-0.345702
0.472649
0.104781
-0.112422
0.849028
-0.831397
-0.130198
-0.481237
-0.189423
0.307207
0.000183161
0.109034
-0.0124516
0.371289
0.942052
1.15857
0.741007
0.909606
0.195653
-0.00601512
-0.15945
0.178988
-0.143224
0.591614
-0.460218
1.06507
-0.172669
-0.0310045
0.568022
0.862773
1.06334
0.424562
0.678294
-0.409738
-1.24367
-0.817236
0.510845
0.50087
-0.145885
0.377001
-0.830059
0.809294
0.415727
0.194147
0.0440869
0.266078
0.128411
-0.000231958
-0.178364
0.261407
-0.00884605
-0.582092
-0.537091
0.93924
-0.0500379
0.2127
0.753119
0.343389
0.444274
0.681527
-0.261319
1.26375
0.450167
0.116646
0.148377
0.625982
0.580441
0.50941
0.851112
0.896479
0.788516
0.238186
0.288203
0.234711
0.246606
0.43945
0.096128
0.0116787
0.14971
-0.905644
0.413038
0.443848
0.954359
0.956796
0.790092
0.672335
-0.249238
0.237561
0.174473
-0.0187609
0.441985
0.357431
0.298669
0.401182
-0.0893369
0.501163
-0.00892225
0.66084
-0.00886844
-0.0966644
-0.672633
0.853557
0.163758
0.0232654
0.453447
-0.0961805
0.748402
-0.0851566
0.248871
0.469674
0.175872
0.242317
0.135424
0.356286
-0.259888
0.513335
0.401709
-0.383112
-0.067716
-0.372692
0.856869
0.35363
0.554019
0.439433
0.334733
-0.409814
-0.0159129
-0.394377
0.264558
0.632867
-0.267307
0.22007
0.0931466
0.137169
0.432543
0.71084
0.66051
-0.659253
-0.220898
0.0257572
0.721423
0.635822
0.29171
0.896164
0.295427
0.178096
0.684457
-0.205666
0.476851
-0.361691
-0.238382
-0.343132
0.888283
0.540779
0.315311
-0.435289
-0.176256
-0.597137
-0.0538045
0.0978744
-0.0757272
-0.0460451
0.431257
-0.352318
0.28489
0.354962
0.202822
0.333688
-0.315894
0.40471
0.317456
0.00172145
0.764154
-0.393269
-0.610804
-0.10955
0.3371
0.408412
0.728305
0.718073
-0.0592178
0.106104
0.18432
0.136117
-0.152552
-0.595265
0.0492296
0.368646
-0.217339
0.0640778
-0.188685
-0.833967
0.0895364
0.692478
1.02893
-0.205817
-0.730351
0.216198
-0.625489
-0.031404
-0.139972
0.315255
0.491598
0.41247
-0.454098
-0.410676
-1.2242
0.446003
0.730572
-0.255728
0.402601
0.185115
-0.0682684
-0.387641
-0.0200568
0.375096
-0.0742346
0.119683
-0.112516
0.512072
0.30095
0.358913
-0.315451
0.0283702
-0.170102
0.548747
0.352287
0.192357
0.39295
-0.226572
-0.281338
0.0643822
0.638116
-0.65365
0.322448
-0.272811
0.23731
0.484282
0.266076
0.334515
0.362411
-0.134596
-0.113443
0.165073
0.390787
0.303259
-0.108073
0.142291
-0.5059
0.275493
-0.675234
0.202298
0.482671
0.708291
-0.424793
0.587992
-0.443248
-0.0775611
0.0866992
0.187406
0.0540705
-0.714354
-0.120907
-0.664807
-0.0440612
0.376074
0.419242
0.0745135
-0.173831
-0.39084
0.511528
0.0822461
-0.120693
0.0279889
0.205256
-0.451648
0.156474
-0.440404
-0.65455
0.405097
-0.0822305
0.38115
-0.498613
0.708105
-0.189168
-0.0969557
-0.399665
-0.684199
-0.281014
0.174969
0.33149
-0.905822
-0.766237
-0.371273
-0.43595
-0.829874
-0.0558364
0.533231
0.125909
0.44139
0.00664427
0.28644
0.0394404
-0.217942
-0.498543
-0.174481
-0.607587
-0.299751
-1.0192
-1.20638
-1.68185
-0.732958
-0.464413
-0.769174
0.407464
0.344774
-0.314705
-0.414973
-0.0551552
-1.13153
-0.20921
-0.388168
0.316315
-0.549582
-0.0280353
0.131364
-0.370192
-0.120015
-0.174502
0.436166
-0.12601
0.201048
-0.656607
0.320442
0.0104592
-0.117953
0.126819
-0.00320973
-0.781733
-0.426997
-0.0632542
-0.653294
-0.76386
-0.450532
-1.24944
-0.713229
-0.791944
-0.0472184
0.226671
0.0611134
0.829395
-0.140611
0.102128
0.0458879
0.0101527
0.217373
0.349365
-0.240957
-0.00211067
-0.254585
0.0168744
0.143856
-0.147498
-0.431849
-0.265823
-0.089776
0.38707
-0.0958388
-0.189847
0.032817
-0.25842
0.129562
0.415211
-0.0900195
0.172408
-0.00135349
0.254076
-0.701592
-0.195422
-0.316724
-0.325724
-0.12903
0.116341
-0.150251
