0.294031
0.43118
-0.153177
0.334636
0.303503
-0.120904
-0.0918294
0.196264
0.141682
0.514577
0.29805
0.170102
-0.584503
-0.392754
-0.416457
0.349971
-0.188627
0.0325231
0.270318
-0.108627
-0.0660339
0.125442
-0.742265
0.149175
0.228753
-0.0920754
-0.258798
-0.333074
-0.939332
-0.11938
-0.176399
-0.166406
0.143122
0.131365
0.243097
0.0613799
-0.277679
0.0145601
-0.47756
0.346005
-0.445597
0.10083
-0.373019
0.205618
0.201921
0.181168
-0.146815
-0.141324
-0.157785
0.662043
-0.0608833
-0.0942886
0.3896
-0.50913
0.0102053
0.0825203
0.047444
-0.0710651
0.229189
0.0504847
-0.0554682
-0.534842
-0.329206
0.575569
0.202816
-0.127115
-0.378397
0.3422
0.140761
-0.346589
-0.263191
-0.319555
-0.984434
0.186977
-0.198291
-0.228057
0.390146
-0.437697
-0.137293
-0.27734
-0.131644
0.518888
-0.478011
-0.230763
0.18841
0.506696
-0.0798305
0.109983
-0.173312
-0.14162
-0.225641
0.653333
0.232335
0.401633
-0.0310855
1.1065
1.16804
-0.159111
0.64463
0.478396
0.356703
0.735109
0.25941
-0.790853
-0.71173
-0.442497
-0.572197
0.132022
0.218709
0.181417
0.383477
0.0540973
0.146604
-0.146094
0.442605
0.0535064
0.140811
0.337676
-0.0135709
0.185158
0.202279
0.116792
0.71364
0.853619
0.905886
0.108542
0.0556283
1.03618
0.439886
-0.0574355
-0.182853
-0.31463
-0.222937
-0.279423
-0.155932
-0.395067
0.367552
0.00738697
0.0562452
-0.0847935
0.48501
0.212021
-0.474409
0.000634565
0.0186264
0.324295
0.121836
-0.274426
-0.0488377
-0.333814
0.00610306
0.590309
0.18654
0.532011
0.754636
-0.414561
0.749516
0.615413
0.494624
1.38503
0.150198
0.0249727
-0.994879
-0.30487
0.612747
0.457754
0.126795
-0.120553
0.213531
-0.21957
-0.554857
0.310118
0.416927
0.158688
-0.0737569
0.605462
0.172612
0.115224
0.917101
0.902738
0.375756
0.902806
-0.0544969
0.714777
0.378578
0.592429
0.311924
-0.0811938
0.164968
-0.576092
0.204155
-0.32419
0.19863
0.275542
0.201376
-0.344442
-0.102087
0.16141
0.183184
0.371491
-0.0436111
0.0683707
1.21235
0.656908
0.042757
0.956947
0.523826
-0.135588
0.32563
1.05588
-0.308787
1.04408
0.166525
-0.0322284
0.784403
-0.0286235
0.246228
0.300777
-0.852139
-0.807688
-0.431186
-0.227117
0.133262
-0.207923
0.602037
0.156913
0.193985
0.197403
0.464165
0.141903
-0.248679
0.536891
1.16285
-0.168069
0.703048
0.316165
0.46986
-0.30621
1.19951
0.195946
0.953979
0.140656
-0.371506
0.295986
0.00048524
-0.181536
0.610822
0.0594011
-1.11261
-0.869804
0.144302
-0.500903
-0.630554
0.277804
0.237646
0.576568
1.19545
-0.203219
0.557491
0.654216
0.278145
0.0304304
-0.136117
0.403317
0.43209
0.623653
1.02236
0.58464
0.801676
0.417478
0.837391
0.0648029
0.34326
-0.122987
0.246264
0.554757
-0.433289
-1.14458
0.364525
0.0275947
0.307654
-0.165292
-0.068408
0.180266
-0.43451
-0.242489
0.424025
-1.06995
-0.334358
0.292509
-0.748234
0.37684
-0.671766
-0.872767
-0.898384
-1.54687
0.383144
-0.172479
0.394826
-0.269727
1.25337
0.647117
0.0162335
-0.574124
-0.716792
-0.603494
-0.148796
-0.482207
-0.278149
0.10287
0.157821
-0.276247
-0.880092
-0.0725532
0.170361
-0.411455
-0.151798
-0.474273
-0.034892
-0.316707
-0.612524
-0.48008
-0.360272
-0.49893
-0.630241
0.461677
0.916958
0.370042
0.816831
0.693003
0.266609
0.501959
0.131006
-0.683705
-0.600418
0.480254
0.423012
-0.27831
0.0307124
-0.51058
-0.231035
-0.187389
-0.392619
-0.467381
-0.0459108
-0.827152
-0.272363
-0.790094
0.164141
-1.02773
-0.066797
-0.3104
-0.207929
-0.252385
0.243192
0.548097
-0.111569
-0.00293724
0.0882417
1.05206
0.667215
-0.11387
-0.308099
-0.0639651
-0.165942
-0.382049
0.489918
-0.0242199
-0.152665
-0.248096
-1.16939
-0.263006
-1.69499
-0.0856934
0.146337
-0.00996863
-0.368697
0.755334
-0.436518
0.105786
0.173687
-0.520324
0.431954
0.286118
-0.0187355
-0.495436
0.354805
0.322173
-0.276558
0.0923167
-0.130885
0.505412
0.0490034
0.500407
0.0855677
0.25604
0.137279
-0.42341
-0.312354
0.705813
0.412256
0.192269
-0.607884
-0.0942759
-0.593769
0.019088
-0.137966
-0.239703
-1.26944
-0.204148
-0.532622
0.268527
0.548963
-0.544492
-0.233968
0.554372
-0.298004
-0.0977461
0.167506
-0.331617
-0.249036
0.113074
0.076236
-0.560976
0.513978
0.538356
-0.386223
-0.648767
-0.491235
-0.493297
0.12547
0.418306
-0.463655
-0.160563
-0.37121
0.0556108
0.392606
-0.947122
0.387913
-0.188963
0.196775
0.125828
-0.0749148
0.352538
0.565124
0.316624
0.0113881
0.290862
0.524069
-0.0405597
0.0295329
0.278793
0.723328
0.660725
0.385227
0.311369
0.1752
0.370647
0.581844
-0.34837
0.227597
-0.0631087
-0.884944
0.0704905
-0.0660419
0.380769
-0.270944
0.143896
0.665052
0.102088
0.320784
-0.107303
0.52396
0.9432
0.293736
0.434461
-0.126365
0.0622666
0.260036
0.465588
0.494612
0.703502
-0.244478
-0.121996
-0.0426366
0.0746907
0.0753521
-0.734741
-0.0767522
0.00531421
-0.0883329
-0.673284
-0.345991
0.611739
0.0287946
0.581012
0.0739041
0.564207
0.912186
-0.0401062
-0.375841
0.346715
0.00854194
0.0246095
0.121457
-0.0642541
-0.0318758
0.854725
0.204379
0.447936
0.368781
-0.777735
-0.0675473
-0.65812
0.239775
-0.833661
-0.384148
-0.458216
-0.909969
-0.120072
0.249215
-0.382268
0.873072
0.0516568
-0.137283
0.376991
0.902836
0.290957
0.202553
0.58793
-0.144148
0.202126
0.149822
-0.126088
-0.390096
0.06745
0.999814
1.29277
0.456132
0.0157105
0.956327
-0.253181
0.198321
-0.234338
0.273996
-0.117401
-0.234318
0.212837
-0.637362
0.604631
0.203017
0.415341
0.0898514
0.487994
0.0518838
0.113891
-0.0951374
0.315428
-0.443477
-0.103367
-0.609442
0.323481
-0.38648
0.805051
1.52102
0.80556
1.44271
0.399999
-0.00683594
-0.608175
0.45877
-0.451108
0.410424
0.479729
0.139696
0.826565
0.333174
-0.12577
0.0728476
0.26194
0.86773
0.128854
-0.291569
-0.301471
0.382782
0.309373
-0.136124
-0.31843
0.0697224
-0.0835699
-0.28558
0.209142
-0.381553
0.486659
-0.130437
0.777659
0.285866
0.102317
0.501178
-0.0982005
-0.0641916
-0.447457
-0.573816
0.0873091
0.263774
-0.163357
0.0634483
0.791215
-0.238013
0.304595
0.224343
-0.295652
0.262745
0.130079
-0.0469103
-0.437429
-0.386378
-0.0161519
-0.100844
0.0446848
-0.324482
0.277924
0.386617
0.309967
0.366657
0.0376242
-0.0110958
0.11336
0.54967
-0.534929
0.257711
0.450963
0.3312
0.346057
0.004809
-0.437146
-0.0473567
-0.481922
-0.15634
0.73029
0.564987
0.576888
-0.423153
0.69279
-0.0725849
-0.144743
-0.462471
0.966114
0.144746
0.801538
-0.0197525
0.649888
-0.315957
-0.314761
-0.622737
1.06606
-0.460717
0.128816
0.0402763
-0.37593
-0.356287
-0.381378
0.853214
-0.383024
-0.179164
-0.459061
0.271441
0.457361
0.874385
0.574941
0.318233
-0.102486
-0.15897
0.495933
-0.498975
-0.341866
0.179859
0.136031
0.501303
0.192313
0.899883
0.920297
-0.665965
-0.223147
1.10742
0.333963
0.164882
0.61819
0.0900102
0.0522619
0.21479
-0.88864
0.47946
0.0901826
0.853433
0.243514
0.344529
-0.190951
0.156112
-0.000698549
0.282585
0.0927824
0.343463
0.0810231
0.0211835
0.171874
0.130618
0.195129
1.11163
1.16279
0.70682
0.264914
0.456799
0.0733867
-0.0872442
1.21682
-0.119625
-0.0869864
0.41617
1.26407
0.538552
0.139716
0.209863
-0.312029
-0.190929
0.107996
-0.128703
0.273556
0.272232
0.106636
-0.286638
0.304426
0.343313
0.165269
-0.355977
0.0362143
-0.534295
0.0497769
0.27324
1.01658
0.128104
-0.00094971
0.470822
-0.530004
0.740179
0.221732
0.333317
0.215204
0.49231
0.171859
0.729823
0.163733
0.168305
-5.95305e-05
-0.366221
0.0243817
-0.450382
0.510602
-0.16721
-0.0172443
-0.436744
-0.403023
-0.0176657
0.474002
-0.206869
-0.680222
-0.177724
0.216269
0.209105
0.411368
-0.0131577
-0.201323
-0.450996
-0.531461
-0.0593852
-0.570716
0.0181783
0.392942
0.177768
0.0400652
-0.21403
-0.353471
-0.0254415
-0.110287
