0.00791613
-0.0519521
0.360013
0.379869
-0.168545
0.0331332
0.239391
-0.287852
0.130408
-0.166477
0.204077
-0.031214
-0.0774196
-0.18364
0.404223
-0.461805
0.123283
-0.366842
-0.00800071
0.119161
0.486268
0.0904851
-0.0468166
-0.139518
0.00536738
0.108638
0.216865
0.0239302
-0.241477
0.214229
-0.10933
0.435167
-0.0368098
-0.129713
-0.311937
-0.266058
-0.0515497
0.401718
0.0711508
0.153936
0.136844
-0.0122802
-0.325168
-0.622195
-0.02135
-0.218753
-0.348818
-0.122545
0.0870756
-0.0620184
-0.176386
0.575509
0.257051
0.44572
-5.92065e-05
0.352044
-0.527671
0.559083
-0.336799
-0.0999265
0.403004
-0.235224
0.12608
-0.546097
-0.1727
-0.139284
-0.306666
-0.0078778
0.266375
-0.0637038
0.102005
-0.614314
0.00876157
0.647129
0.142545
0.475489
-0.00477939
0.810986
0.564118
0.253456
0.167531
-0.19349
-0.00473147
0.266167
-0.41145
-0.52264
0.022936
0.661615
0.224795
0.112183
0.110088
-0.302999
0.0522002
0.162384
0.438522
0.131449
0.290878
-0.560763
0.0206552
0.0589406
0.508819
0.687539
0.0830513
0.0851934
-0.206512
0.232246
-0.286679
-0.169717
0.0462704
-0.420831
0.253084
-0.0738747
-0.663555
0.508524
-0.507424
0.141667
0.14391
0.0223538
-0.000369198
-0.444998
-0.574142
-0.35355
-0.552873
-0.823566
-0.663468
-0.0590608
-0.615007
-0.0144065
-0.0297289
-0.339932
-0.0409708
0.340165
-0.388227
0.0180915
-0.710234
0.253319
0.450733
-0.189458
0.1664
-0.277392
-0.20739
-0.325031
0.0986298
0.113696
0.0097165
-0.21572
-0.578075
-0.0663332
-0.368275
-0.0659499
-0.721072
0.770544
0.796951
0.141861
-0.364461
-0.0821051
0.247778
0.258003
-0.0884163
0.726103
-0.993558
-0.523911
0.629618
0.456077
0.264129
0.363825
0.084632
0.473512
-0.312933
-0.0712337
-0.29935
0.0604577
0.0471071
0.215655
-0.559348
-0.717542
0.0905952
-0.20238
-0.7623
0.693929
0.670506
-0.564352
0.319865
0.130801
0.116598
0.140776
-0.380659
0.376676
0.527329
-0.113045
0.374452
0.381079
0.857927
0.499848
0.535833
0.100766
-0.374795
0.190183
-0.3165
-0.188803
0.427662
-0.80137
-0.20541
-0.223696
0.420804
0.44677
0.7848
0.0920315
0.490942
0.696261
0.162568
1.11999
-0.17048
-0.489463
-0.0131095
0.248507
-0.312306
-0.338717
0.293705
0.460868
-0.361741
0.185788
-0.571622
-0.114135
0.0868812
0.0736801
0.199371
-0.0439202
-0.351726
-0.325732
0.462279
0.0162562
-0.176207
0.384912
-0.366853
-0.0376696
-0.950252
0.545957
0.383435
-0.156503
0.412531
0.221744
-0.0718792
-0.701069
-0.138272
-0.330869
-0.810005
-0.0171814
0.366206
0.550763
-0.169411
0.0454662
0.083352
-0.184012
0.624443
0.396706
-0.668086
-0.363204
-0.148965
0.960555
0.246444
-0.785122
-0.210317
0.749311
0.539078
-1.84542
-0.178068
0.142336
-0.749319
0.399059
-1.0584
-0.487179
-0.215848
-0.770036
0.344745
-0.651586
-0.609926
-0.607609
-0.309491
0.431504
-0.238753
0.0413046
0.221933
0.62094
0.108751
-0.562106
-0.690267
0.341057
0.0261787
0.682193
0.269305
0.818574
0.851905
-1.01766
-1.12262
-1.83515
-1.25395
-1.32754
0.129936
-0.566211
-0.420705
-0.515923
-0.65753
-0.91246
-0.0823471
0.824201
0.238566
-0.0440549
0.0322638
0.00661877
-0.275942
-0.134994
0.359721
0.142949
0.135968
0.00761114
0.034953
0.100985
0.942302
0.44317
1.05931
-0.240361
-0.355157
-0.0784948
-0.683571
-0.4957
-0.729256
-0.958726
-0.722975
0.164395
0.346153
-0.255464
-0.794148
0.0734653
0.694674
0.291516
-0.287919
-0.578026
-0.423773
0.306233
0.545869
0.437107
-0.0506252
0.875885
0.553156
-0.243035
1.06455
1.1929
0.672673
0.350812
-0.631485
1.04281
0.921148
0.124224
0.647101
0.67212
-0.113303
0.212916
0.283715
-0.752273
-0.72675
-0.482809
-0.12785
0.0761406
-0.134479
-0.230306
0.129795
-0.295216
0.733334
-0.131011
0.927452
0.701387
0.410328
0.0440016
0.78325
0.849562
1.02898
-0.291225
-0.00528628
0.854901
-0.193937
0.867411
-0.596716
0.727873
0.203461
-0.491436
1.11898
-0.462647
-0.418204
-0.723709
-0.36178
-0.129251
0.0757099
0.172151
0.517063
0.275665
0.0633719
0.407061
-0.393661
0.0637832
0.51005
0.398911
0.70675
0.563923
0.0694362
0.12342
0.0781598
0.555656
-0.701408
0.691474
0.533099
0.413049
0.237179
0.160606
0.859236
-0.222298
-0.365706
-0.116731
-0.00127807
-0.468622
0.0420069
-0.181559
-0.376955
0.0353599
-0.256735
-0.601443
-0.677495
0.19723
-0.359491
0.559433
0.366068
0.0109293
0.415206
-0.246926
-0.484195
-0.00580531
0.883495
0.0148858
0.22886
0.470515
0.824912
0.712219
0.439497
0.748877
0.590006
-0.413182
-0.376101
0.0406477
-0.490467
0.212183
-0.0576727
-0.0113719
-0.00679104
-0.549297
-0.686439
0.55791
0.902838
-0.184523
0.54792
0.924299
0.640457
-0.0750696
0.42477
0.667466
0.653504
0.115426
-0.310834
-0.173238
-0.067
-0.504694
-0.157049
0.411367
-0.775868
-0.473922
-0.475764
-0.0935612
0.342983
0.00629998
0.132592
-0.259495
-0.577056
-0.225813
-0.328987
0.305374
0.228453
-0.0729237
-0.0872606
0.351027
0.293629
0.709407
-0.102167
0.0423654
-0.490885
0.0538356
0.961831
-0.367715
-0.119807
-0.465426
-0.242573
-0.290324
0.1487
-0.500831
-0.0808391
0.135757
0.275591
0.0259497
-0.244507
-0.592307
-0.767482
0.5326
0.0445335
-0.977705
-0.101409
-0.215026
-0.649568
0.204463
-0.360289
0.204436
-0.253708
-0.151147
0.0414701
-0.357037
-0.276909
0.0764045
-0.319456
0.0737183
-0.921295
-0.659211
-0.759505
-0.964637
-0.472192
-0.106667
0.00607392
0.104212
-0.1615
-0.211362
-0.303199
0.0229203
-0.783236
0.516439
-0.758087
-0.807749
-0.643218
-0.716095
-0.202688
-0.0701774
-0.236746
-0.103539
-0.145779
0.264145
0.313024
0.145691
-0.554484
-0.0255985
-1.45034
-1.18453
-0.166475
-0.0402405
-0.107187
0.0553186
0.197729
-0.179331
-0.427775
0.131769
0.322426
0.224674
-0.798034
-0.699733
-0.604388
-0.888471
-0.272895
-1.26429
-0.625271
-0.137566
0.504752
0.909783
0.142672
-0.547422
0.0496725
0.252055
-0.500283
-0.222118
0.0749985
0.629314
-0.78387
-0.454818
-0.0556112
0.115984
-0.235945
0.321611
-0.125038
0.161724
0.16675
0.74471
-0.491523
0.135505
0.154168
0.0611154
0.717662
-0.223678
-0.11146
-0.536042
0.04599
0.519447
0.833118
-0.0660358
0.911658
-0.537579
0.440465
0.140359
0.122509
0.354991
-0.0659367
-0.188646
0.312352
-0.128494
-0.0812205
0.743324
0.0862406
0.590712
0.248938
0.624977
-0.107145
0.108162
-0.405515
-1.22032
0.137037
-0.154884
-0.216637
-0.194096
-0.289199
-0.471309
0.45939
-0.942363
-0.6986
0.131386
-0.739719
-1.4761
-0.50492
-0.259465
-0.705739
-1.02179
-0.374013
0.0736293
-0.272287
-0.0455463
-0.163474
0.263387
-0.248201
0.661638
-0.00511549
0.158979
1.33982
0.420698
0.708342
0.2145
-0.21326
-0.457734
0.322292
0.457265
-0.28123
-0.0531829
0.544857
-0.134477
-0.969386
-0.576464
-0.317478
-0.363963
0.293879
-0.523099
0.39553
0.24767
0.0872319
-0.00764122
0.246838
0.0614981
0.293206
0.578602
0.335505
-0.298602
0.53942
0.379001
0.213062
0.181531
0.282514
-0.643278
0.344383
0.20193
-0.0207245
0.0432526
-0.137208
-0.192671
-0.210978
0.421007
0.177807
0.216346
-0.224107
-0.511082
-0.663896
-0.326976
-0.214234
-0.307668
0.185158
0.182499
0.109384
0.34746
-0.200537
-0.111409
0.54288
0.676633
0.3859
0.415397
0.0181604
-0.0996026
1.00812
0.140961
-0.0363847
0.425009
0.599878
0.213928
-0.0144112
0.133253
0.31864
0.478529
-0.075893
0.0279966
-0.174166
0.21542
-0.270047
0.518531
-0.328698
-0.0682204
-0.134291
0.283178
0.0993221
0.0242213
0.38121
0.205584
0.983442
-0.266367
1.0423
1.23611
1.33373
1.2097
0.195184
0.476248
0.482065
-0.0724275
0.339129
-0.047995
-0.274665
-0.171341
-0.358054
-0.445964
0.152022
0.0939937
0.591473
-0.121841
0.309547
-0.190618
-0.153602
-0.0340465
0.221787
-0.108398
0.112386
0.143254
-0.445865
-0.0073231
-0.0849625
0.155647
-0.0443357
0.0990285
-0.226672
-0.147624
-0.102542
0.256285
0.386931
-0.150196
-0.282915
0.342472
-0.136265
0.347267
-0.122852
-0.18833
