-0.690081
-0.0781026
0.201609
-0.131091
0.162139
-0.230543
0.146923
-0.0882378
-0.080723
-0.240868
0.151846
0.222032
0.185386
0.0450823
-0.15701
-0.0894697
-0.518909
0.188816
-0.070547
-0.300204
-0.066339
-0.348909
-0.246713
-0.158322
-0.282444
0.0176974
-0.260758
0.162442
0.222038
0.245902
-0.440982
-0.392573
-0.380294
-0.157032
-0.295974
-0.240149
-0.234042
0.0066443
0.217715
0.0237961
0.267107
-0.162058
-0.306147
0.613387
0.241343
-0.240675
0.163638
0.243385
0.0661318
0.257324
-0.00701525
-0.110143
0.222903
-0.000970171
0.181128
-0.0952234
-0.34645
0.393432
-0.371065
0.0551331
-0.197185
0.363127
0.121387
-0.317623
-0.00989816
0.131187
0.0725638
0.112421
-0.0961403
0.261493
0.71025
-0.6574
-0.647473
0.0506767
-0.166438
-0.2607
0.477903
-0.218203
0.0572426
0.291525
-0.57649
0.408741
-0.0305877
0.168747
-0.182445
0.18179
-0.0262511
-0.517136
0.00486896
0.030265
-0.00860943
0.409152
0.0488308
-0.272154
-0.250469
-0.420138
0.435467
-0.173815
-0.15395
-0.380187
-0.348889
-0.664617
0.313194
-0.260951
-0.609786
-0.260919
0.0457429
0.829655
0.432917
-0.0816604
-0.0211394
0.0320584
-0.134546
-0.418252
0.131384
-0.109105
-0.235088
-0.168917
-0.105858
-0.422342
-1.16963
-0.723799
0.164068
-0.179928
0.501484
-0.0973406
0.85285
0.818288
1.14044
-0.0198375
0.289632
0.143834
0.250778
-0.130685
-0.0736047
-0.0170493
-0.555042
0.635318
0.00512142
-0.185037
0.179621
0.321153
-0.226589
0.167575
0.364741
-0.292009
0.312225
0.324071
-0.0419904
0.00731229
-0.143686
0.800031
-0.0344299
-0.00790083
0.17439
0.436225
0.513976
0.735207
0.446443
-0.27222
0.794798
0.641143
-0.0842459
-0.443306
0.854974
0.620408
-0.144368
-0.035422
-0.127069
-0.0598324
-0.363454
0.191819
0.497675
-0.667371
-0.667337
-0.326445
-0.66279
0.173869
-0.353284
0.573604
0.0653772
0.124617
-0.091331
0.120559
-0.212652
-0.23991
-0.0302913
0.767875
-0.445026
0.730191
-0.277716
-0.17894
0.318977
0.0931892
-0.072242
0.197418
-0.14117
0.0401662
-0.604273
-0.867324
-0.345775
-0.363324
-0.156992
0.193095
1.27007
-0.22775
0.0461326
-0.0352279
0.396582
0.345986
-0.193498
0.109337
0.550673
-0.689026
0.196624
-0.404098
-0.173981
0.109196
0.0604017
0.127356
-0.314871
0.251721
0.0753123
0.0785414
-0.400359
-0.0409499
0.100845
0.0469273
-0.0296697
-0.171646
-0.493856
-0.357761
0.0931605
0.2769
-0.442204
0.412252
-0.329303
0.360739
0.584803
-0.678917
0.248046
-0.424994
0.292331
0.276373
0.022578
0.592952
-0.19816
0.976901
-0.875552
-0.142129
0.0774226
0.453892
0.178913
-0.353377
0.261455
-0.347144
-0.0737557
0.0560809
0.504418
-0.196953
0.270723
0.333376
0.522081
0.159727
0.096041
0.126613
-0.31909
-0.120892
-0.218959
-0.668333
-0.471086
-1.13292
-0.683894
0.658547
-0.216426
1.09042
0.216949
0.602959
-0.219608
0.165452
0.00595922
-0.185788
-0.222209
0.220237
-0.0483806
-0.597966
1.11949
0.463438
0.181928
0.327671
0.3114
0.693853
-0.0702161
-0.440699
0.0329645
-0.0851324
-0.42836
-0.652594
0.133665
0.381789
0.0786922
-0.815238
-0.0511573
0.663024
-0.218645
-0.586061
0.388698
0.233767
-0.104285
-0.0145435
-0.168983
-0.109953
-0.0469965
0.411449
0.275081
-0.364786
0.189839
-0.0873301
0.0371522
-0.585814
0.752844
-0.37722
-0.0733034
-0.573347
-0.145826
-0.488065
-0.660831
-0.645619
-0.706785
-0.0285677
0.00707918
1.10213
1.5936
0.254523
-0.287588
0.165858
0.434094
0.223778
0.177209
-0.0458793
0.35764
0.968433
0.505104
-0.0344597
-0.201173
-0.202545
-0.0370065
-0.579933
-0.805986
-0.61404
0.738734
-0.228768
-0.392676
0.314481
-0.708567
0.406801
0.345036
0.421892
0.315362
1.29748
1.49877
-0.0286813
0.137978
0.121071
0.0695808
-0.0293882
0.422103
0.370833
-0.20241
-0.30587
-0.306728
0.143673
-0.214886
-0.482121
-1.16037
-0.442876
0.595087
-0.14225
0.743684
0.709587
-0.589429
-0.459448
0.188474
-0.151325
-0.159373
-0.410741
0.610462
1.62073
0.82488
-0.212641
-0.36787
-0.0569195
0.261497
0.011766
0.229627
-0.522832
-0.685912
-0.199219
-0.428689
-0.583686
-0.964657
-0.141105
-0.20153
-0.115928
-0.244186
0.465135
-0.160798
-0.0458763
0.272325
-0.0266207
-0.652413
-0.511568
-0.43891
-0.386579
-0.799685
-0.485589
-0.589883
-0.104474
0.240296
-0.149766
-0.601935
-0.396817
-0.0635987
-1.13775
-0.797613
-0.572884
-0.703336
-0.38158
0.0356665
-0.230122
0.144699
0.467453
0.672452
0.401161
0.677369
-0.691269
-0.312673
-0.792322
-0.407158
-0.462235
-0.682918
-0.496601
-1.55958
-0.596409
-0.46739
-0.152558
0.0909711
0.17164
-0.25685
-0.142292
0.165908
-0.220142
-0.4093
-0.600223
-0.280079
-0.247373
-0.724875
0.456876
-0.0540788
-0.211075
0.310151
0.16706
0.348271
0.889119
0.620079
-0.193638
0.0263249
-0.839773
-1.79747
-0.466104
-0.96629
-0.408767
-0.593039
0.151044
-0.302155
-0.213429
0.113382
0.369246
-0.0231889
0.564542
0.112532
-0.637028
-0.206626
0.0892036
1.27189
-0.338576
0.199422
0.295491
0.608641
0.0822129
0.473967
-0.525321
-0.0196151
-0.766678
-0.857311
-0.499241
0.0856621
-0.303724
0.334017
0.0408213
-0.169316
-0.282093
-0.12301
-0.260653
0.169061
-0.20584
-0.165583
0.35963
0.587841
0.135854
0.355157
0.156181
-0.181732
0.194586
0.441949
0.45607
-0.0125734
0.767443
-0.288265
-0.123211
-1.07998
0.450482
-0.4429
0.370416
0.838895
0.0573936
0.862619
0.801091
0.346738
0.187163
-0.337038
-0.0536188
0.184452
0.0778559
0.0529674
0.00524682
-0.0774118
-0.0364616
-0.0893228
0.2642
-0.507359
0.024622
-0.0810885
-0.308644
0.119766
0.0562858
-1.40453
-0.0215379
-0.316038
0.192174
0.257364
0.213233
-0.153169
0.239023
0.626639
0.711186
0.510068
0.465883
0.525928
-0.375839
0.0322178
-0.600853
-0.397357
-0.0637782
0.0888037
0.618299
1.22233
1.14099
1.0396
1.16306
-0.00720893
0.134218
0.181202
0.338752
0.327142
0.567145
0.496158
-0.108498
0.196746
0.886982
1.07202
1.33241
0.531377
0.771184
0.208532
-0.117698
-0.136393
0.0540482
-0.212203
-0.184126
0.292498
-0.455895
-0.113786
-0.105898
0.522327
0.940578
0.022144
0.462598
1.36365
0.786004
0.0396804
1.24127
0.540231
0.791649
0.108715
1.64269
0.472291
0.720262
1.54853
0.335342
0.370911
0.879565
-0.0959869
0.256538
-0.0680078
0.318445
0.171089
0.217466
-0.0612554
0.160792
0.81957
0.286864
-0.254744
0.416501
-0.0889591
0.0940089
-0.316757
0.149032
0.553166
0.516926
1.00884
-0.270999
0.460746
0.487887
0.0965601
0.58801
0.395036
0.237371
1.00866
0.297816
0.762105
0.281241
-0.263804
0.0985956
-0.440618
0.327585
0.518298
0.643218
-0.463609
-0.46275
0.452573
0.156773
0.481954
0.375929
1.00372
0.203906
0.279763
0.3556
0.807938
0.492379
1.15314
0.466572
0.385395
1.5309
0.697373
0.51484
0.355837
0.888883
0.2586
0.0557983
0.406698
0.33345
0.0826775
0.0688537
-0.0870951
-0.410584
-0.529055
-0.447569
0.180107
-0.33861
-0.929604
0.516956
-0.106575
0.925408
0.238885
-0.0876961
0.863397
0.770146
0.359331
-0.481752
0.734035
0.271202
0.605304
0.466164
0.0955381
0.239108
0.0495515
-0.084017
0.356421
-0.568639
-0.215079
-0.220862
0.025177
0.0908825
-0.465289
-1.04299
0.325169
0.449472
-0.195828
0.0811829
0.0600497
-0.724524
0.733268
0.701327
0.0493026
0.585652
0.196341
1.24069
-0.108167
0.0786244
-0.358982
-0.90913
0.273799
0.258528
-0.0969384
-0.697949
-0.0652578
0.187084
0.232085
0.896547
-0.109941
-0.0106371
0.0703102
0.354873
-0.0510534
-0.411292
0.138636
-0.595958
-0.890844
-0.665959
-0.0689896
-0.092895
-0.296092
-0.379791
0.622621
0.742009
-0.0239957
-0.35578
-0.0460147
-0.192896
-0.407834
-0.212553
-0.593773
-0.267124
-0.051619
-0.0455552
-0.389162
0.0387681
-0.0238413
-0.20599
-0.252222
-0.678482
-0.081173
0.00810045
-0.150551
0.552324
0.0901657
0.139077
0.272387
-0.0752097
0.468094
-0.887906
-0.313335
0.037287
-0.0390062
0.505004
-0.464359
0.313667
0.0201123
-0.619421
-0.377082
-0.436195
0.151202
-0.244236
