0.00236613
-0.22222
0.0190523
0.110725
0.116133
0.0876122
0.147311
0.363737
0.00813277
-0.21782
-0.17151
0.122749
0.145253
0.0973585
-0.583443
-0.716264
0.214519
0.284814
0.130623
-0.0274652
-0.199968
0.0426646
0.283058
0.0466616
-0.318708
0.0685481
-0.110019
-0.373559
-0.0816957
-0.560871
0.0796472
-0.8313
0.0527626
0.130955
0.304061
-0.137286
-0.172262
-0.127492
0.21656
-0.0949535
-0.045218
0.37423
-0.0798708
-0.175167
0.203426
-0.0348205
-0.278309
0.185733
0.108683
0.255295
0.124126
0.122306
-0.0745603
-0.441434
-0.484313
-0.31356
-0.00373388
-0.465303
-0.101389
-0.526773
-0.213494
0.526733
0.0880807
0.0271153
-0.247892
-0.151748
0.103514
0.39403
0.269218
0.143186
0.864847
-0.250579
-0.364893
-0.454303
-0.583546
-0.436679
0.533086
-0.45563
0.111483
0.206695
0.490906
0.12906
0.504413
0.111712
0.168017
-0.300533
-0.614816
0.525384
0.104265
-0.11534
-0.455551
0.344286
-0.190843
-0.116422
0.481556
1.6546
1.13309
1.40339
0.664775
0.562752
0.563134
1.34455
0.703769
-0.421644
-0.235189
-0.112669
-0.866489
-0.581213
-0.278122
-0.282369
-0.461002
-0.147121
0.325176
-0.448387
0.136458
0.382412
0.100732
0.213051
-0.154581
0.335127
0.600187
0.978067
1.35244
0.618766
1.01383
0.815995
0.468714
0.572248
0.288766
0.0496093
-0.0595983
-0.0409261
0.0276308
0.539993
0.455974
-0.0227786
-1.00671
0.0254946
0.173447
-0.581566
-0.608792
-0.218127
-0.157425
0.172269
-0.44701
0.209453
0.22753
0.53228
0.696767
0.328942
0.206733
0.51159
0.919342
-0.233078
-0.196277
0.499378
-0.279094
-0.155549
0.458958
-0.127437
0.296706
-0.160636
-0.195218
0.207504
0.286568
-0.732533
0.294194
-0.17019
0.141465
0.0221741
-0.203577
0.586149
-0.152902
0.631438
0.713919
0.154507
0.374722
-0.436249
-0.214695
0.443031
0.342852
0.575571
0.559138
-0.455488
-0.197492
-0.0382769
0.370506
-0.120132
-0.229543
-0.275255
-0.199819
-0.379385
-0.408227
-0.414704
-0.00411038
-0.522412
-0.102823
0.371483
-0.0215525
-0.0269522
-0.204702
-0.364763
0.294093
0.547187
-0.122512
0.390719
-0.705597
0.0618427
-0.0398345
-0.237279
-0.161704
0.499408
0.0811705
0.0917961
-0.0524018
0.686881
-0.244171
-0.0168263
-0.609676
-0.257868
-0.436026
-0.412984
-0.451961
-0.224935
0.270441
0.00592333
-0.537033
-0.200198
-0.769318
-0.0912652
-0.100226
-0.554757
-0.258301
-0.717431
-0.895063
-1.43859
-0.63361
-0.743238
-1.01428
0.0233862
-0.468316
0.443294
0.247082
0.129983
0.171091
-0.368102
-0.495063
-0.949725
0.180124
-0.353569
-0.089818
0.520776
-0.00303519
-0.0962336
-0.0698622
-0.478345
0.377546
-0.733894
-1.08362
-1.48596
-1.00343
-1.25429
-1.33674
-1.48072
-1.04325
-1.23311
-0.385887
0.86438
0.337553
0.0731765
0.47272
0.742623
0.202769
-0.457333
-0.23158
-0.790952
-0.320732
-0.140701
-0.398037
0.00756743
0.219943
0.200574
-0.145957
0.128768
-0.475584
-0.171904
-0.899298
-1.34907
-1.14061
-1.03439
-0.258133
-0.62612
0.735007
-0.373079
0.517598
0.00856597
1.04118
0.867077
0.451403
-0.855875
-0.8344
-1.0447
-0.374583
-0.264386
-0.647473
-0.0516208
0.0714138
-0.068177
0.155476
0.419078
0.0785192
0.608639
-0.58765
-0.580537
-0.737283
-0.57082
-0.189182
-0.499977
0.22264
0.554511
0.901665
0.120083
1.21931
-0.0724445
0.0767673
0.339572
0.225794
-0.700448
-0.659162
0.0552688
-0.208865
-0.166554
-0.677258
-0.0590874
0.0983418
0.335595
0.0420987
-0.0158663
-0.160041
-0.0332599
-0.0174831
0.853936
0.380717
0.57887
0.486351
0.486264
0.401795
-0.0496102
0.19574
0.639859
0.819998
0.0340352
0.277986
-0.571874
-0.34314
-0.942331
-0.75535
0.349458
0.702644
0.427411
-0.560291
0.0130537
0.0780255
-0.0929349
0.370863
-0.813183
-0.0272627
-0.457912
-0.354954
0.432422
-0.0225475
0.95699
0.0962736
0.503739
0.457401
0.267148
0.328659
0.252003
-0.19917
-0.0587623
-0.219814
-0.826014
-0.492874
-0.479111
0.0906053
0.137588
0.674752
0.324768
-0.701909
0.00693126
-0.337644
-0.0152408
0.431075
0.299185
-0.17127
0.136016
-0.0143342
0.151962
0.678361
0.216284
0.468912
0.0663891
0.100402
0.442574
0.206549
-1.15172
0.0942875
-0.221807
-0.936781
0.0201161
0.00503679
-0.37945
0.0394791
0.408635
-0.560108
-0.154529
0.0312851
-0.382661
-0.00422665
-0.0552027
0.20016
-0.185473
0.166271
-0.0624157
0.107656
-0.110883
0.0158666
0.314749
-0.854481
-0.236837
-0.170172
-0.477121
-0.663701
0.701776
-0.644998
-0.297676
0.597617
-0.0196151
0.158198
-0.735963
-0.0244973
0.332493
-0.120338
0.272548
0.0350038
-0.418154
0.134711
-0.2078
-0.0459286
0.22658
0.413405
-0.406337
-0.487386
-0.206085
-0.0925699
1.12102
0.929181
-0.512629
-0.37759
0.0823433
-0.130477
-0.195161
-0.195026
-0.780995
-0.451653
-0.119659
0.609049
-0.34952
-0.671868
-0.334616
-0.0791089
-0.581027
0.217049
-0.0447972
0.148169
0.0690562
-0.128355
-0.0841905
0.0268516
-0.111633
-0.704385
-0.0930679
-1.05793
0.172854
-0.118524
0.156217
-1.135
-0.430415
-0.951975
-0.292965
-0.515743
0.178793
0.217162
-0.813752
0.154285
0.0434765
0.164223
0.272156
0.449594
0.289605
-0.550518
0.321665
0.360879
0.21751
0.217393
0.410352
-0.334328
-0.210585
-0.523498
0.0545407
0.0504588
0.00497221
0.311732
-0.319955
0.1763
-0.395606
-0.288295
0.267593
-0.675549
0.737413
0.818212
0.571185
0.062147
-0.516793
0.434873
-0.192627
0.185034
-0.608645
-0.432766
0.417986
0.46378
-0.375756
0.024687
0.131108
0.263133
-0.447487
-0.601607
0.282155
-0.20337
0.221081
0.131217
0.266411
1.03487
-0.403263
0.0970914
-0.603783
0.159876
-0.593183
-0.100383
-0.370403
0.359867
-0.032191
-0.0544691
0.186833
-0.0128142
-0.302231
0.106535
-0.414426
-0.387461
-0.246535
0.273605
0.0756674
0.0823374
0.184144
-0.940568
-0.172008
0.0975976
0.135294
-0.39696
0.362121
0.234307
-0.385768
0.141564
0.706963
0.730395
-0.0759671
0.425527
0.381658
0.202833
0.671652
-0.107832
0.126488
-0.0684809
-0.048134
-0.319991
0.239926
0.121304
0.426564
-0.215061
-0.483061
-0.170324
-0.171374
0.336621
0.406774
0.0239412
-1.15364
0.18646
0.0322687
-0.245299
-0.279435
0.505422
-0.102925
0.939936
-0.489281
-0.117446
0.0530667
-0.0511299
-0.189539
-0.254653
-0.593814
-0.594617
0.150312
-0.335875
0.11628
-0.401471
0.286926
-0.0573993
0.0275207
0.0338005
-0.495316
-0.321564
-0.203756
-0.325967
0.0172915
0.20914
0.103655
-0.0528122
-0.11033
-0.283369
-0.486211
0.598037
0.732716
-0.530985
-0.497103
-0.0828229
-0.284762
0.515946
0.286501
-0.00928945
0.0202593
-0.208041
0.311013
0.204717
0.189177
-0.0595862
0.496562
-0.151337
0.400983
0.29486
0.284658
0.328965
-0.108826
0.103891
0.753864
0.458191
0.179639
-0.0679134
0.551132
0.122226
0.054815
-0.165121
-0.224574
0.348741
0.414914
0.0537435
-0.0489703
0.61823
-0.254683
0.0130354
0.0137567
0.478972
0.0510905
0.206746
-0.0933104
-0.219133
0.151189
-0.469953
-0.328329
0.201975
0.118641
-0.199573
-0.10037
0.288506
-0.620461
0.210448
0.0626971
-0.820336
-0.372303
0.708201
-0.532518
0.600048
0.164416
0.313281
0.436632
0.49556
0.873508
0.146227
-0.391571
0.275971
-0.061233
-0.379559
0.208205
-0.0518782
0.466543
-0.0708973
0.685594
0.306327
0.741283
0.445647
0.520401
0.367533
0.198472
-0.548229
0.329877
-0.232345
0.0966581
-0.0765705
-0.331056
-0.275801
-0.524162
-0.351117
-0.0111508
-0.385571
0.0862128
-0.37331
0.356939
0.0400136
0.109271
0.22773
-0.511162
0.123257
0.132298
-0.19994
0.385192
-0.38668
-0.287545
0.482994
0.238792
0.155192
0.0243996
-0.176804
-0.403447
0.457744
0.315406
0.0796395
-0.0320827
-0.326999
-0.178918
0.333529
0.404375
0.2269
-0.0566539
0.00118901
-0.220428
-0.722163
-0.391084
-0.518717
-0.196622
0.196982
-0.369913
-0.0328967
0.108367
0.403225
-0.0806484
0.0457794
0.0747348
0.599868
-0.452271
0.022508
0.175783
0.336118
0.355667
0.415441
-0.230073
0.0631123
0.270923
-0.00805098
-0.45559
0.250482
-0.285189
0.78388
0.182866
-0.4222
-0.459683
