-0.460116
-0.143828
-0.0265304
0.187874
-0.41615
0.273028
0.113625
0.226013
0.0752767
0.158917
-0.229229
0.0117312
0.532219
0.0394375
0.214432
0.533557
-0.134431
-0.0636019
-0.536635
-0.212567
-0.0989725
0.0731157
0.104383
-0.391233
-0.0140834
0.114364
-0.116353
-0.400735
-0.064405
-0.185604
-0.175851
-0.143487
-0.152577
0.0164361
-0.21738
0.0944496
-0.214904
-0.388381
-0.170902
0.281439
0.153983
-0.516778
-0.0774371
0.150262
0.484357
-0.113584
-0.185371
0.247064
0.000737928
0.396411
0.00619857
-0.217934
0.468733
-0.114818
0.0801373
0.0836677
0.258911
-0.44466
-0.176225
0.40749
-0.434492
0.143926
0.1821
-0.893144
-0.235815
-0.586159
-0.210482
0.270725
-0.214178
-0.126927
-0.327233
-0.725091
-0.0127355
0.573623
0.0202809
-0.215086
0.136468
0.026763
-0.323049
0.0459329
-0.0599079
0.742565
-0.0295387
0.627639
0.487199
0.0569989
-0.334908
0.126836
-0.429543
-0.232732
0.0061936
-0.448945
-0.16442
-0.212176
0.0563524
0.325623
0.586909
0.51484
0.469816
-0.0408733
-0.0727586
-0.246297
0.649025
-0.241821
-0.18199
0.170147
0.073096
-0.0931612
0.0318218
-0.0383369
-0.191191
0.810579
0.28074
-0.222792
0.220681
0.635985
-0.222473
0.274215
0.462899
-0.0564308
-0.259819
-0.236134
-0.457885
0.283193
0.133039
-0.103778
0.051535
-0.675719
-0.765745
-0.166236
-0.0209423
-0.0673681
0.16977
-0.0672641
0.261488
-0.0269958
-0.0515367
-0.472367
0.261476
0.443321
0.541726
-0.424989
0.275457
0.224555
-0.0464306
0.384572
0.110185
1.02372
-0.050735
-0.108081
-0.163939
0.290507
-0.469473
-0.381589
-0.389668
-0.0751829
0.237211
-0.23058
0.249432
-0.441353
0.131153
0.00332176
0.493279
0.0920302
0.062163
0.26124
-0.556261
0.117497
0.284173
0.160619
-0.302115
0.119255
-0.569355
0.0181838
0.780317
-0.289071
0.206963
0.58805
-0.502208
0.134662
-0.453336
-0.502894
-0.974755
-0.533151
0.114814
-0.0216543
-0.0098232
-0.178103
-0.845503
-0.681913
0.0645837
-0.369397
-0.371538
-0.368906
-0.0204367
0.23293
0.109504
-0.0656696
-0.115599
-0.0509194
0.572894
-0.257355
-0.0805845
0.595125
-0.565226
-0.0446931
-0.296507
-0.185568
-0.48044
0.124443
-0.896365
-0.820813
-0.518089
-0.777773
-0.87686
-0.261553
0.0257524
-0.749063
-0.504521
-0.124741
-0.288208
-0.406015
-0.0275264
-0.126284
0.127253
0.277642
-0.450632
0.0185438
0.490863
0.0317472
0.0174162
0.0457275
-0.442285
-0.753384
0.346809
-0.411463
0.222721
0.186376
-0.577225
-0.734477
-1.42205
-0.83903
-0.410737
-0.0891375
-0.573095
-0.407371
-0.403617
-0.208597
0.0225316
0.0217137
0.216327
0.121734
-0.647386
0.0371193
0.161087
0.243297
0.0437366
0.126188
-0.00123391
0.410232
0.369962
-0.19757
-0.948404
-0.581252
-0.668755
0.586121
0.268411
0.172077
-0.239255
0.298578
0.0871546
-0.89587
-0.904373
-0.877954
-0.0494769
-0.00346306
0.761636
0.328986
0.122958
-0.0165313
0.12626
0.236092
0.212994
-0.143885
0.209246
0.0614203
0.176639
-0.34055
0.253744
0.085027
0.448438
0.932878
0.8719
0.773037
0.720511
0.776345
1.2729
0.140401
0.0625452
0.0966216
0.568443
0.475047
0.963661
-0.275329
-0.230358
-0.501826
0.274294
-0.10783
0.170376
-0.28573
0.412848
0.526831
0.516734
0.256804
0.0914856
0.0814087
-0.357999
0.0921872
0.70746
0.0429258
0.0641056
0.443199
0.258828
0.606355
0.254055
-0.366349
0.306759
0.697598
0.575261
-0.198949
0.101676
-0.186722
-0.417803
-0.43829
0.0359331
-0.197527
-0.0883508
-0.143705
0.427787
0.5217
0.330214
0.211803
-0.637726
0.24176
0.00177688
0.12612
0.150004
-0.0230172
0.655394
1.06743
0.688332
-0.108598
-0.0948308
0.859325
0.131525
-0.141998
-0.256161
0.284954
-0.0938816
-0.230092
0.239135
0.196582
-0.486427
-0.128201
-0.0279057
0.310005
0.122106
-0.418933
0.24768
-0.0924996
0.532673
0.273616
-0.893009
-0.0355643
-0.731794
-0.497898
-0.209687
-0.050876
0.0493008
-0.232868
0.306406
0.385914
0.0619946
0.508845
0.487037
0.300361
0.52172
-0.0433666
0.108838
-0.487339
-0.198937
0.0718118
-0.0416285
0.200914
0.431376
-0.484007
-0.622927
-0.399129
-0.165879
-0.144397
-0.0507453
0.14048
0.260652
0.159229
0.210109
-0.332477
-0.261659
0.309632
-0.517336
-0.234118
-0.31779
0.330175
-0.310932
-0.11479
1.00723
0.364586
0.380861
0.500775
0.505029
-0.29386
-0.0127345
0.186547
-0.144087
0.139383
-0.111127
-0.192856
0.117961
0.136221
-0.142165
-0.328762
-0.108746
-0.15456
0.195116
0.299503
-0.666632
-0.906752
-0.699524
0.467326
0.352177
0.682145
0.364343
0.440206
0.664658
0.666619
0.138327
-0.00704349
0.553735
-0.0921906
-0.373708
0.0594373
0.31724
-0.419669
0.4348
-0.0788593
-0.198224
0.382049
-0.140741
-0.116833
-0.0619055
0.0906852
-0.31975
0.506842
-0.0374834
0.167857
0.046521
0.138178
-0.557738
0.681793
0.465364
0.713038
0.148138
0.41012
-0.184905
0.597882
0.0777906
-0.0643346
-0.269934
-0.0266726
-0.179496
-0.17647
-0.23745
-0.0404945
-0.134127
-1.00206
-0.641962
-0.0500432
0.177009
0.192568
-0.402178
-0.642414
0.274753
-0.067084
0.394818
-0.151081
0.196705
0.35591
-0.23782
0.559237
0.141878
-0.438644
0.39648
-0.0596847
0.625693
0.112959
-0.0997228
-0.23103
-0.046955
0.234088
-0.862007
0.76188
0.406717
-0.0582547
0.00748852
0.358059
-0.187569
-1.02368
-0.62905
-0.108515
0.838792
-0.56846
-0.16244
-0.501566
-0.513496
0.142115
0.320794
0.108673
0.284952
0.145449
-0.174478
0.261106
-0.426659
-0.140133
-0.168126
0.0159789
0.0464421
-0.17384
0.0771322
0.370835
0.0918803
0.489903
-0.0991757
-0.293009
-0.0902214
-0.225464
0.583805
0.064317
-0.123527
-1.20191
-0.24171
0.163579
0.232222
0.636558
-0.351812
0.624318
0.374286
0.838309
0.0823593
-0.0807956
0.0209035
0.659967
0.101435
-0.433743
0.171498
0.132056
-0.210053
-0.505048
-0.220351
0.0685642
-0.053729
-0.294349
0.509894
0.1858
-0.0364807
-0.172865
-0.339486
0.21716
0.237183
0.458935
-0.328129
0.511056
0.15302
0.0950065
0.428685
-0.00941278
0.310104
0.0840884
0.129871
0.248385
0.183355
0.232227
-0.298414
-0.589075
-0.41556
0.188797
0.0668888
-0.289059
0.4178
0.0299608
-0.447212
0.196719
0.343399
0.293641
0.0658448
0.240342
0.416534
0.546599
-0.158899
0.232139
-0.305245
-0.190964
-0.60275
-0.563061
0.161941
0.0542767
-0.118569
-0.127911
0.282785
0.0334894
0.208012
-0.445845
0.123281
-0.605517
-0.185969
-0.443297
-0.166739
0.704926
-0.323836
0.311494
-0.12254
-0.499497
-0.979297
0.280511
-0.133535
-0.544408
0.902327
-0.383213
-0.141759
-0.3603
-0.51706
0.456545
-0.262559
0.210134
-0.109777
-0.134563
0.220775
0.12741
-0.152357
-0.405389
-0.0533662
0.353019
-0.956254
-0.589802
0.593214
0.304195
-0.236665
0.11299
0.328742
-0.111849
0.579514
0.835352
0.308224
0.607229
-0.454139
0.0211663
-0.0195762
-0.343125
-0.431176
-0.0497557
-0.806305
0.0352734
-0.431384
0.122632
-0.205848
-0.108318
-0.162381
0.0244722
0.119193
-0.146374
-0.0041844
-0.235759
-0.0666998
-0.200909
0.0775138
0.08016
0.432448
0.441591
0.2435
0.0114163
0.563638
0.300306
-0.378992
-0.476319
0.0899517
0.142686
-0.295757
-0.117882
-0.004862
-0.774578
0.109591
0.34274
0.0292577
0.852535
0.208745
0.0591056
0.396814
0.487712
-0.211992
0.255105
0.428574
-0.48105
-0.570118
0.321102
0.287339
-0.985112
0.452964
0.486846
0.522394
0.490725
-0.519417
0.696915
0.085006
0.38419
-0.3554
-0.147054
0.251799
0.0908689
-0.314661
-0.0516942
0.131698
0.335264
-0.327324
0.188133
0.116171
-0.560003
0.0856394
-0.066204
0.0832159
0.458371
0.215791
0.235252
0.243313
0.0466539
-0.304687
0.392332
0.688848
0.319636
-0.256286
0.0223214
0.422688
0.396125
-0.311743
-0.209291
-0.199602
0.395966
-0.0744424
-0.0296123
0.409708
0.0865549
0.162011
-0.183606
-0.490778
-0.113719
0.109722
-0.397638
0.174391
-0.531354
-0.336569
0.103971
0.0976648
-0.246005
0.0772103
-0.290678
-0.129857
-0.28615
-0.0663711
-0.413744
-0.461813
0.320958
-0.119694
0.0709796
-0.16783
0.0311227
-0.165989
0.0962008
