0.00386171
-0.507171
-0.455919
0.170321
0.34409
-0.38024
0.1472
-0.193951
-0.445222
-0.121113
-0.351199
-0.146826
0.556786
0.905112
-0.105829
-0.0530748
0.124762
-0.184079
0.0317265
0.392427
-0.15779
-0.251402
-0.0208031
0.168055
0.147043
-0.131437
0.265218
-0.0075329
-0.241625
-0.188123
0.285279
-0.476139
-0.0172513
0.0168874
-0.0143786
-0.474092
0.248849
0.0614288
0.318363
-0.229405
0.149675
-0.00185022
-0.239148
-0.14098
0.188123
0.0769359
-0.312154
0.214326
0.0444383
0.09647
-0.408796
-0.104767
0.480336
-0.268909
0.206317
0.337262
-0.37001
0.141247
0.105185
0.285961
-0.459435
0.170499
-0.0278651
0.82261
0.0446134
0.247784
-0.629649
-0.282939
0.202999
-0.155112
0.0509163
-0.156439
-0.112742
0.211829
-0.56937
0.4896
-0.463277
-0.00940006
-0.0876785
-0.321172
0.413108
-0.494286
0.100777
-0.424885
-0.0961308
0.200232
0.208921
0.0771059
-0.424432
-0.137179
-0.215971
0.146352
0.161461
-0.498323
-0.302198
-0.0724427
-0.117054
0.264072
0.0297488
-0.123682
-0.299711
0.00439074
-0.233907
-0.0619508
-0.140495
0.0406741
0.184786
0.507782
-0.0979289
-0.0645124
-0.246264
0.367539
-0.166724
-0.349586
-0.191901
-0.0439271
-0.10389
-0.290517
-0.341396
-0.279647
-0.537195
-0.119816
-0.730559
-0.242505
-0.432861
-0.209774
-0.23646
-0.36903
-0.06703
-0.515238
0.0206071
0.0447145
0.000375007
0.047842
0.0473035
-0.0390796
-0.0620524
0.405903
-0.346872
0.181711
0.00321677
0.216915
0.64118
0.124474
0.448549
0.326549
-0.313042
-0.393105
-0.0630011
0.209252
-0.249675
-0.72284
-0.762871
0.319421
-0.943637
-0.183325
-0.813047
0.429224
-0.246542
-0.842121
-0.0850005
-1.58493
-0.336893
0.158795
0.14905
-0.276496
0.405243
0.145995
-0.268995
-0.388357
-0.143806
-0.46169
0.437749
0.357231
0.946424
-0.291201
0.200869
-0.283338
0.101265
0.167149
0.471063
-0.27112
-0.29226
-1.40929
-0.925419
-0.314843
0.0331816
-0.128986
0.493016
0.506829
0.169664
-0.192098
-0.514431
-0.178597
0.00833911
0.0393613
0.304405
0.650816
0.738764
0.184535
0.431344
0.658166
0.0250881
0.326985
0.566687
0.0750813
-0.268766
-0.250837
0.262196
-0.138508
-0.208923
-0.841374
0.0427994
-0.323326
0.508284
0.731102
0.0978267
-0.157336
0.419328
-0.0346098
0.44724
-0.534193
-0.254841
0.267486
0.128193
0.190114
0.182394
0.457691
0.772298
-0.389597
0.25015
0.376953
1.17295
1.0138
0.356654
-0.188499
0.441034
0.0755333
0.271371
-0.329623
-0.883949
-0.0889359
-0.0541002
-0.231939
0.415885
-0.630603
0.312216
0.655683
-0.030134
-0.374371
-0.407591
0.0733728
0.0685842
-0.34536
0.195714
0.0576026
-0.148336
0.511056
-0.0175568
0.0330715
0.413214
0.594173
0.323245
0.596289
0.311126
-0.614542
0.243949
-0.102417
-0.0723948
1.5162
0.170446
0.0741743
0.754076
0.770337
-0.114254
0.566179
-0.029716
-0.144329
-0.461442
0.297187
0.334099
0.137678
0.318326
-0.406946
0.147566
0.249615
-0.40666
-0.555389
0.224098
0.366418
0.236237
0.159602
0.95473
1.1823
0.0936821
0.571788
0.242113
0.766171
0.638134
-0.0452496
0.612721
0.537931
-0.375052
0.864318
-0.39463
-0.0678191
0.443544
-0.0805353
-0.452776
-0.0581415
-0.366319
0.172844
0.65117
0.700823
-0.0880443
0.446584
-1.0454
0.221613
0.491905
0.797839
-0.140558
-0.176202
-1.56756
-0.0685424
-0.95911
-0.148694
1.34216
0.343712
0.24083
0.320608
0.299534
-0.056443
-0.668244
-0.368163
-0.242773
0.605285
0.0421578
-0.178096
0.5758
0.680376
0.783281
0.37858
0.344798
0.86237
0.763602
0.491382
-0.220339
0.817389
-0.0369009
-0.783388
-1.72729
-0.160062
0.156891
0.32392
-0.0690083
-0.0228645
0.150478
0.0543749
0.401421
-0.184979
-0.78216
-0.0466737
-0.296321
0.18086
0.585216
0.530874
-0.0988452
-0.967114
0.242465
-0.489286
0.168799
0.0889521
0.483097
-0.56229
-0.0392712
-0.260396
-0.646043
-1.98407
-1.7224
0.299834
0.749477
0.472642
-0.270146
-0.354421
0.28656
-0.28869
-0.511384
-0.466743
-0.829647
0.0320669
-0.210833
-0.386531
0.0851042
-0.368994
-0.00422594
-0.5107
0.202149
0.00113116
-0.659676
-0.76664
-0.67969
-0.395184
0.188944
-0.446521
-1.19718
-2.06862
0.184296
-0.741483
-0.317658
0.022806
0.111401
1.12014
0.329366
0.0413544
0.0821933
0.207702
-0.221213
-0.409079
0.679499
0.67548
-0.0790022
0.13988
0.330056
-0.603591
0.00838223
0.0301457
-0.582615
0.366626
-0.652931
-0.597403
0.672644
-0.695295
-1.58352
-0.447731
0.221459
0.295239
-0.259898
0.458182
0.709653
0.0122072
-0.039312
0.288861
0.594724
-0.424218
0.0203426
0.0349673
0.685397
-0.527646
-0.526061
-0.282923
-0.227914
0.164952
0.303262
-0.293178
-0.376894
0.670755
-0.503496
-0.305046
0.398491
-2.02973
-1.62877
-0.0227922
0.268326
0.469304
0.131674
0.153308
0.342696
0.284362
0.308196
0.456023
0.508266
-0.425314
0.0139084
-0.222817
0.0764018
-0.287515
0.149068
-0.130771
-0.139273
0.186865
0.168036
0.127617
-0.26483
-0.36434
-0.447797
-0.740552
-0.828709
-0.638138
-0.564
-0.537169
0.685777
0.618517
0.0290828
-0.197241
0.473892
0.532334
0.908473
-0.4254
0.208814
0.401729
0.242495
0.401211
-0.249485
-0.128479
-0.118703
0.284316
0.0937082
-0.271338
-0.0211037
-0.257957
-1.36675
0.382182
-0.541518
-0.34253
-0.442824
-0.573093
-0.403137
-0.000804555
0.731676
0.0257705
-0.152597
1.15852
-0.057768
-0.451488
-0.0722724
-0.0907251
-0.575148
-0.547383
0.402373
-0.306485
0.250221
0.418439
0.400621
0.100389
-0.227757
-0.27108
-0.283251
-0.744615
-0.486482
-1.18207
-0.423732
-0.413862
-0.0821706
-0.129046
-0.358793
0.126476
0.627605
-0.338273
-0.2317
0.151396
-0.799291
-0.109803
-0.236453
-0.0329182
0.132908
0.184965
0.414718
0.0856319
0.326736
0.0916936
0.0153881
-0.479891
-0.192109
-0.579123
-0.310788
-0.333403
-0.473845
-0.258154
0.327811
-0.339268
0.193357
0.164037
-0.561748
0.471485
0.0543635
0.740508
-1.16632
-0.211196
-1.11467
-0.556636
-0.687545
-0.446223
-0.0929353
0.55155
-0.0376475
-0.0502971
-0.182612
0.0788888
0.248464
-0.120552
0.413978
0.270276
-0.186439
-0.198589
-0.582868
-0.264627
0.487602
-0.462173
-0.137568
0.259855
-0.270405
0.194148
-0.702169
0.649383
-0.235051
-0.077063
0.382101
-0.394074
-0.0676887
-0.807499
-0.653955
0.186615
-0.366037
-0.388915
-0.133737
-0.322174
0.143401
-0.478559
-0.856592
-0.0796589
-0.332735
0.204218
0.133108
0.125961
0.0695965
-0.173508
0.207078
-0.0757269
-0.157923
-0.185389
0.119498
0.623867
0.0882552
0.0116051
-0.335376
0.23216
-0.191181
-0.0380999
0.441557
-0.0716583
0.0434212
-0.00921795
-0.366139
-0.11341
0.0506164
-0.250807
0.106015
-0.311962
-0.259357
0.528786
1.06771
0.487509
-0.462043
0.364483
-0.644689
0.141315
-0.904329
0.33961
0.682119
0.247727
0.631591
-0.228556
0.0191453
0.120619
0.371662
0.0716509
-0.154707
0.0739603
0.393804
0.600475
-0.0811426
-0.191729
0.0398775
0.0656004
-0.199374
-0.13267
-0.0828073
0.019381
0.723618
0.258625
-0.136109
0.090787
0.00985419
0.312319
0.170995
-0.670935
0.236974
0.0454947
-0.0275713
0.493524
-0.268975
-0.66671
-0.579362
-0.196537
0.000339695
-0.19448
0.143375
-0.308447
0.197349
0.175857
-0.161828
-0.377303
0.130779
-0.102144
-0.199364
0.221766
0.43442
-0.292729
-0.065088
0.317062
-0.634561
-0.112062
1.01884
-0.316951
-0.285535
0.28685
-0.46047
0.251197
0.666297
-0.00670754
-0.349053
-0.381416
-0.335101
-0.33309
-0.461009
0.477897
0.300671
0.213661
-0.051
-0.143478
0.341841
-0.0772933
-0.519851
0.174889
-0.362063
-0.00693043
0.274158
0.229652
-0.309086
-0.347314
-0.218206
-0.812379
-0.212126
0.253111
0.131222
-0.716648
0.183056
0.823457
0.0949907
-0.317998
-0.62169
0.0581722
0.0159091
-0.236368
0.784777
-0.472343
-0.607777
-0.0934972
-0.590763
-0.306109
-0.525643
0.313588
0.282495
-0.00425032
0.213825
0.0682043
0.0588228
-0.326488
0.228982
0.358327
0.0317442
0.0651842
-0.101231
0.151543
-0.4931
-0.429635
0.0275483
0.394607
-0.265808
0.195879
-0.222196
-0.264178
-0.363184
-0.368576
