-0.0365897
-0.326045
0.205287
-0.322557
0.00998084
0.223451
0.0100818
-0.157991
0.13876
0.0602098
0.637403
0.111516
0.306338
0.235213
-0.0382602
-0.10104
-0.206146
0.392526
-0.280753
-0.80171
-0.231822
-0.15647
-0.604586
0.0151104
-0.268387
-0.00394994
-0.0554041
-0.203836
-0.0221215
0.257474
0.113074
-0.224782
0.420692
0.24177
-0.104371
0.196093
0.331158
0.00492786
-0.0864983
0.322139
-0.393706
-0.0395696
0.144159
0.452247
0.644035
-0.0345814
-0.150691
-0.109886
-0.286359
-0.83149
-0.327697
0.236347
0.33141
-0.397671
-0.291525
0.470871
0.0476216
-0.0485713
0.425452
-0.598092
0.170385
-0.00424655
0.152337
-0.435253
0.167383
0.156947
-0.279136
0.282206
0.417477
0.0999726
0.189423
0.2009
0.273712
-0.0593796
0.411583
-0.215302
0.0852509
-0.420141
-0.258668
0.33511
-0.0460168
0.396459
0.330648
0.135171
0.0397826
0.0177026
0.038075
-0.555897
0.297043
-0.0731002
0.267475
0.342494
-0.15305
0.0688538
0.67535
0.552203
1.20344
-0.262791
1.10729
0.855652
1.19355
0.24694
-0.359585
0.256285
-0.490028
-0.287195
-0.689786
-0.421233
-0.35593
-0.0626578
-0.315738
-0.29669
-0.21129
0.275327
-0.115016
0.375884
-0.0709497
0.015021
-0.0673429
-0.0793369
0.0165289
0.337681
-0.146006
0.0668061
-0.618509
0.025665
0.617611
0.111558
0.717284
0.536148
0.249966
0.428809
-0.0847641
-0.52591
0.613211
-0.130085
-1.29852
-0.574572
-0.636973
-0.294762
-0.0465723
-0.0798173
0.355164
0.282727
0.632868
0.243806
-0.248124
-0.286763
-0.627091
-0.124057
0.291125
-1.03676
0.785675
-1.43614
-0.108519
-0.153946
0.434652
-0.76105
-0.35911
0.262159
-0.539001
-1.12761
0.230025
0.713031
0.0437355
-0.597709
-0.216532
-0.0807642
-0.148814
-0.249071
0.664463
-0.779835
0.12382
0.0838534
0.153133
0.999233
0.177124
0.20249
0.467567
0.654727
-0.0951514
-0.460802
-0.253551
0.586094
0.251446
-0.00707121
0.48005
0.118153
0.389341
-0.736635
0.143833
0.00136139
-0.465501
-0.665871
0.0243452
-0.0290954
-0.226412
0.245882
0.23427
0.387644
0.101442
0.180771
0.201452
0.28284
0.553846
0.496339
0.213177
-0.0753768
0.759482
0.686735
-0.128462
-0.254072
-0.0428691
0.7819
-0.0928489
0.930094
-0.0055819
0.285164
0.979913
-0.251728
-0.468904
-0.873652
-0.00803682
0.193384
-0.0545977
0.175973
-0.514501
0.0654976
-0.0870799
0.15306
-0.233122
0.443251
0.725764
0.72336
0.283986
0.522442
-1.1162
-0.162932
0.355374
0.89052
0.486212
0.924632
0.221443
-0.0838931
-0.898357
-0.556191
0.280197
-1.32621
-1.51525
-0.83186
-0.116724
-0.469366
0.0248644
-0.118911
0.119183
-0.539382
0.526966
0.117513
0.0671955
0.423618
0.530945
0.470269
-0.262078
0.961007
0.538772
0.40587
-0.626619
0.485185
0.884055
0.188808
0.122684
-0.0330545
-0.498776
-0.0386604
0.710407
0.0485859
-0.803589
0.138547
-0.384565
0.0189703
0.315417
0.752418
0.176155
0.430249
0.356279
0.478114
0.0302351
-0.0734446
0.38879
0.469713
0.190875
-1.02843
-1.00206
-0.793362
-1.19217
0.989484
0.684661
0.337749
-0.141938
0.421356
0.596855
0.370445
0.152604
-0.542936
-0.181337
0.170714
0.138337
-0.203972
0.366143
-0.219435
0.209943
-0.671515
-0.201733
-0.722686
-0.204411
0.0219578
-1.14251
-0.765746
-1.82726
-1.36733
-1.82003
-1.72167
-0.105588
0.814971
0.414565
0.104315
-0.13939
-0.272768
-0.107495
-0.467406
-0.30986
-0.49754
-0.14314
0.472234
0.0515598
0.232299
0.450086
-0.30372
-0.0312897
-0.554376
-1.07254
-0.743321
-1.39264
-2.43306
-2.26607
-2.49532
-1.20619
-1.11863
-0.593779
-0.33007
-0.877923
0.102249
0.717104
-0.388969
0.486733
-0.529607
-1.33646
-0.773636
-0.633703
-0.0296416
-0.284309
0.60891
0.396905
-0.0129953
-0.517961
0.0132923
0.119353
-0.031263
-1.41468
-1.76806
-1.94843
-1.59907
-1.21685
-1.15391
-0.484399
0.405563
-0.209229
-0.0373302
0.224605
0.127733
0.136591
-0.403223
-0.172812
-0.270321
0.0702285
0.19764
0.223546
-0.163282
0.453432
0.356946
0.514906
0.389793
-0.594994
0.106782
-0.522671
-0.513144
-0.422239
-1.36988
-1.04365
0.23552
-0.10379
0.515078
0.918037
0.180134
0.109578
-0.420386
0.11044
0.236716
-0.548033
0.399345
0.889817
-0.447596
0.497174
0.84867
0.393675
0.670383
0.00491209
-0.276323
0.318813
-0.00890622
0.200871
-0.202859
0.00267508
0.155532
-0.188299
-0.0865687
-0.0314554
0.117941
-0.235864
0.561318
-0.238533
0.232614
-0.606949
0.402929
0.0949136
0.852253
-0.371272
0.435682
-1.05861
0.315469
0.870022
0.164402
0.451507
0.718355
0.0828533
0.347651
0.285305
0.45701
-0.0431232
0.0800692
-0.184038
0.710279
0.317291
0.822304
0.516373
0.624924
0.848854
0.077391
-0.331171
0.783434
0.656076
0.289554
0.0372007
-0.0997078
0.299861
0.300782
0.49863
0.643797
-0.573725
-0.340547
0.168672
0.0600489
0.767801
0.788677
0.0873088
-0.108684
-0.0799426
0.487338
0.263908
0.000962696
0.469896
0.176173
-0.38999
0.096417
-0.152504
-0.350487
0.478393
0.138592
0.544562
0.199499
-0.20771
-0.21379
0.255639
0.425291
0.00534833
0.547832
-0.132885
-0.346652
-0.510314
0.164359
0.303653
0.215025
0.707237
-0.165847
-0.716674
-0.231431
0.464696
-0.764151
0.0350324
0.803526
-0.372096
-0.342816
-0.452444
-0.044657
-1.00524
0.0415432
0.0483278
0.0233408
-0.144163
0.197951
-0.433401
0.42167
0.304593
0.585151
0.228181
0.400771
0.234172
0.396284
0.656701
0.559295
0.409482
-0.156618
0.363708
-0.638486
0.916752
0.434775
0.438132
-0.0678572
0.209493
-0.0111109
-0.0162834
-0.0220683
-0.126002
-0.241721
-0.216164
0.441786
-0.380671
0.747893
-0.352824
-0.28188
0.212581
-0.384383
0.326918
0.517981
0.249007
0.905382
0.718925
0.856834
-0.271527
-0.0503489
0.228907
0.341702
-0.0107325
0.448556
0.746063
-0.716416
-0.56145
0.444896
0.212058
-0.0775111
0.698524
1.03442
0.507049
-0.0543431
0.467879
-1.04014
0.509214
0.0251842
0.449335
0.0112877
0.216555
-0.326386
-0.299918
0.717886
0.599773
0.501705
-0.238703
0.0172468
-0.208697
0.305322
-0.102124
0.801776
-0.323454
-0.174312
0.803002
0.440439
0.131389
-0.463947
-0.099984
-0.603374
0.400429
0.01969
-0.180245
-0.352478
0.28687
-0.0243778
-0.178058
-0.200023
0.228097
-0.176654
0.191848
0.357016
0.213119
0.391606
0.188877
-0.205382
-0.0279109
-0.104723
0.129323
-0.0536313
0.753303
0.991113
0.345893
0.5445
-0.302172
0.20475
0.0758948
-0.342808
-0.724658
-0.371136
0.498097
0.164491
-0.654612
0.672617
-0.203412
-0.399399
-0.523749
-0.250135
0.399211
0.13602
0.476543
0.366288
-0.155836
0.436443
0.303568
0.380981
-0.352279
-0.394805
0.0767176
0.73268
0.573745
0.611429
0.133899
0.215134
0.424884
0.950844
0.136634
0.10159
-0.0634093
-0.0256761
0.0784417
-0.726367
0.119924
-0.496385
-0.712762
-0.182301
0.0692899
-0.0915526
0.197663
0.198053
-0.334052
0.0707265
-0.254952
-0.000100681
-0.0829029
-0.238889
-0.219413
-0.260545
-0.390894
0.0509939
0.150942
0.578812
-0.103602
0.24938
-0.0807611
-0.157813
0.621053
-0.504705
-0.26038
-0.366379
-0.635364
-0.603891
-0.128933
-0.150942
-0.459758
-0.216993
0.0516724
0.0486836
0.388028
0.015366
0.0511133
0.0101551
0.162656
0.388078
-0.204873
0.545362
-0.344119
-0.431576
-0.382422
-0.26412
-0.114497
0.10322
-0.641116
-0.364515
0.138807
0.524191
0.00650185
-0.815695
-0.955408
-0.579169
-0.0159969
0.145886
-0.393265
-0.0196588
-0.103412
0.641537
0.439692
0.00723652
0.41395
-0.158337
0.635451
-0.212242
-0.242082
0.310184
0.226285
0.000778248
0.527137
0.0322203
0.408294
0.470454
-0.0472574
0.387155
-0.945517
-1.17657
-0.0362201
-0.703559
-0.491646
0.0177079
-0.330509
0.105918
-0.147567
0.00222753
-0.334881
0.226292
-0.255982
0.130696
-0.213441
0.0494586
0.196318
-0.250704
0.160375
-0.134414
-0.214416
-0.263187
0.119437
0.326635
0.524868
-0.090738
-0.259353
-0.0566142
-0.465192
-0.109985
0.227892
0.63785
-0.653613
-0.0956814
-0.134534
0.200408
0.0427231
0.118704
0.0388668
-0.399617
-0.275513
0.234519
