0.294031
0.43118
-0.153177
0.334636
0.303503
-0.120904
-0.0918294
0.196264
0.141682
0.514577
0.29805
0.170102
-0.584503
-0.392754
-0.416457
0.349971
-0.188627
0.0325231
0.270318
-0.108627
-0.0660339
0.125442
-0.742265
0.149175
0.228753
-0.0920754
-0.258798
-0.333074
-0.939332
-0.11938
-0.176399
-0.166406
0.143122
0.131365
0.243097
0.0613799
-0.277679
0.0145601
-0.47756
0.346005
-0.445597
0.10083
-0.373019
0.205618
0.201921
0.181168
-0.146815
-0.141324
-0.157785
0.662043
-0.0608833
-0.0942886
0.3896
-0.50913
0.0102053
0.0825203
0.047444
-0.0710651
0.229189
0.0504847
-0.0554682
-0.534842
-0.329206
0.575569
0.202816
-0.127115
-0.378397
0.3422
0.140761
-0.346592
-0.262892
-0.317672
-0.982249
0.187672
-0.198265
-0.228053
0.390146
-0.437697
-0.137293
-0.27734
-0.131644
0.518888
-0.478011
-0.230763
0.18841
0.506696
-0.0798305
0.109983
-0.173312
-0.14162
-0.225641
0.653469
0.232491
0.398857
-0.0323295
1.10326
1.16633
-0.159769
0.64608
0.481876
0.360239
0.735211
0.258302
-0.793063
-0.713739
-0.442508
-0.572197
0.132022
0.218709
0.181417
0.383477
0.0540973
0.146604
-0.146094
0.442605
0.0535064
0.140782
0.336969
-0.0140997
0.185562
0.203854
0.116345
0.711527
0.85487
0.911222
0.116581
0.0681686
1.05085
0.455403
-0.0445162
-0.170407
-0.306322
-0.220607
-0.280967
-0.157003
-0.395008
0.367333
0.00731244
0.0562452
-0.0847935
0.48501
0.212021
-0.474409
0.000634565
0.0185139
0.323357
0.121189
-0.273586
-0.0480417
-0.336464
0.00508658
0.596565
0.199248
0.548008
0.770432
-0.399782
0.765024
0.631824
0.508082
1.38887
0.146581
0.0180134
-0.999174
-0.305935
0.612498
0.457482
0.126795
-0.120553
0.213531
-0.21957
-0.555044
0.310118
0.416787
0.160115
-0.0700043
0.608837
0.175812
0.127249
0.92499
0.912693
0.383807
0.915146
-0.0425166
0.724739
0.384862
0.602058
0.325858
-0.0707335
0.168236
-0.575507
0.200613
-0.327021
0.19846
0.275201
0.201351
-0.344442
-0.102087
0.16141
0.183184
0.371507
-0.0432399
0.0698846
1.21572
0.660021
0.0515355
0.97323
0.53726
-0.128642
0.329908
1.05743
-0.304823
1.04745
0.174158
-0.0285791
0.789325
-0.0263393
0.255136
0.308365
-0.85315
-0.811079
-0.431431
-0.227287
0.133207
-0.207923
0.602037
0.156913
0.193985
0.197455
0.467272
0.146155
-0.245181
0.541738
1.1749
-0.148271
0.717993
0.313917
0.46262
-0.309335
1.19471
0.187838
0.950692
0.140068
-0.366479
0.298345
0.00994836
-0.165247
0.618984
0.0568975
-1.1104
-0.869477
0.144302
-0.500904
-0.630554
0.277804
0.237645
0.576518
1.20041
-0.19655
0.561081
0.662118
0.292109
0.0462709
-0.12635
0.400555
0.427977
0.621327
1.01565
0.577223
0.801344
0.425296
0.844804
0.0675363
0.34423
-0.112126
0.25441
0.557382
-0.432356
-1.14424
0.364525
0.0275947
0.307654
-0.165292
-0.0684108
0.180137
-0.432189
-0.237364
0.428579
-1.05805
-0.32256
0.293978
-0.756396
0.362684
-0.681211
-0.885707
-0.904858
-1.54993
0.384493
-0.164618
0.393902
-0.275147
1.24857
0.648469
0.0210474
-0.576239
-0.716442
-0.603427
-0.148796
-0.482207
-0.278149
0.10287
0.157821
-0.276361
-0.878326
-0.0736279
0.176827
-0.398497
-0.141524
-0.482094
-0.0488261
-0.328573
-0.625678
-0.487737
-0.362698
-0.501394
-0.629621
0.464862
0.909167
0.364027
0.804456
0.686324
0.264427
0.498333
0.131295
-0.683671
-0.600418
0.480254
0.423012
-0.27831
0.0307124
-0.510705
-0.22914
-0.187269
-0.387852
-0.461944
-0.0382962
-0.835605
-0.276378
-0.795742
0.160373
-1.02557
-0.0632134
-0.3082
-0.202938
-0.252385
0.230944
0.538791
-0.120157
-0.00980731
0.0871026
1.05194
0.667493
-0.113684
-0.307978
-0.0639651
-0.165942
-0.382049
0.489918
-0.0243631
-0.151585
-0.246608
-1.16623
-0.258513
-1.69155
-0.0811005
0.159476
0.00760061
-0.349501
0.772725
-0.429963
0.109294
0.173848
-0.520496
0.428972
0.282782
-0.0228647
-0.49546
0.359326
0.321218
-0.276882
0.092644
-0.130634
0.505412
0.0490034
0.500407
0.0855677
0.255979
0.13936
-0.422725
-0.311186
0.711584
0.420252
0.200427
-0.592693
-0.0636019
-0.566445
0.0397561
-0.12815
-0.228842
-1.2588
-0.197339
-0.53402
0.27195
0.550198
-0.540441
-0.230566
0.553679
-0.298761
-0.0976401
0.1675
-0.331617
-0.249036
0.113074
0.076236
-0.560996
0.512719
0.538574
-0.386997
-0.644176
-0.486106
-0.48628
0.144899
0.447443
-0.44531
-0.15459
-0.369647
0.0589035
0.397515
-0.935656
0.396353
-0.182383
0.201296
0.134129
-0.0724045
0.352973
0.565575
0.316653
0.0113878
0.290862
0.524069
-0.0405597
0.0295329
0.278746
0.719766
0.658799
0.387352
0.310164
0.173443
0.369548
0.590018
-0.335578
0.2224
-0.0740965
-0.892362
0.0729474
-0.0529091
0.397037
-0.253963
0.149844
0.668958
0.106436
0.317635
-0.106671
0.524419
0.943229
0.293736
0.434461
-0.126365
0.0622666
0.260036
0.465421
0.490437
0.699954
-0.241391
-0.11892
-0.0467875
0.0732316
0.0759603
-0.73226
-0.0827158
-0.000443491
-0.0839571
-0.664143
-0.336805
0.621844
0.0443588
0.587822
0.0872181
0.563769
0.909458
-0.0425071
-0.376911
0.346744
0.00854194
0.0246095
0.121457
-0.0642541
-0.0318758
0.851063
0.201144
0.445602
0.371288
-0.776545
-0.072219
-0.668281
0.236611
-0.83377
-0.386786
-0.462052
-0.908701
-0.120067
0.24811
-0.377559
0.879503
0.0590178
-0.123765
0.378093
0.900044
0.291536
0.200922
0.587759
-0.144148
0.202126
0.149822
-0.126088
-0.389949
0.0698971
0.998606
1.29116
0.460462
0.0164114
0.95023
-0.262734
0.194014
-0.236149
0.269976
-0.124603
-0.239138
0.212533
-0.635908
0.603731
0.207224
0.422627
0.0977296
0.491432
0.0531562
0.112961
-0.0979859
0.315196
-0.443477
-0.103367
-0.609442
0.323481
-0.386118
0.805092
1.51895
0.804236
1.44632
0.402513
-0.00878897
-0.616326
0.451341
-0.457345
0.404781
0.479754
0.145672
0.82635
0.326686
-0.130196
0.0762705
0.267274
0.87268
0.133857
-0.29185
-0.303364
0.37989
0.30918
-0.136124
-0.31843
0.0697224
-0.0835699
-0.285572
0.214646
-0.378554
0.483369
-0.128439
0.777576
0.280208
0.0964541
0.495466
-0.0971979
-0.0555627
-0.432845
-0.56347
0.0841302
0.260345
-0.168022
0.0650684
0.800121
-0.227481
0.309674
0.225532
-0.296471
0.261907
0.130096
-0.0468894
-0.437429
-0.386378
-0.0161519
-0.100844
0.0514242
-0.319833
0.275467
0.384338
0.311946
0.366938
0.0337167
-0.0107245
0.118602
0.558065
-0.524851
0.260406
0.450325
0.327858
0.347754
0.0131955
-0.426801
-0.0378226
-0.477091
-0.153406
0.730594
0.565251
0.576918
-0.423151
0.69279
-0.0725849
-0.144743
-0.462471
0.966115
0.144453
0.798231
-0.0234782
0.649955
-0.314949
-0.315918
-0.623322
1.07318
-0.449874
0.137767
0.0442452
-0.376635
-0.351776
-0.373332
0.861022
-0.376092
-0.173826
-0.454533
0.274594
0.458762
0.87458
0.574961
0.318233
-0.102486
-0.15897
0.495933
-0.49894
-0.341819
0.18072
0.139216
0.504602
0.193256
0.902755
0.92859
-0.657586
-0.217259
1.1092
0.326337
0.158283
0.621153
0.0990919
0.059716
0.219136
-0.886826
0.480441
0.0923134
0.855499
0.244682
0.344698
-0.190951
0.156112
-0.000698549
0.282585
0.0927824
0.343463
0.0810231
0.0223679
0.174494
0.134176
0.198678
1.11634
1.16618
0.708547
0.266193
0.458276
0.0727778
-0.0880058
1.21825
-0.116734
-0.0858533
0.41608
1.26345
0.539242
0.141405
0.210716
-0.311971
-0.190929
0.107996
-0.128703
0.273556
0.272232
0.106636
-0.286638
0.304426
0.343313
0.165269
-0.355971
0.0362665
-0.534226
0.049812
0.273242
1.01665
0.12866
0.000250786
0.472038
-0.528864
0.74116
0.221714
0.333329
0.215187
0.492298
0.171859
0.729823
0.163733
0.168305
-5.95305e-05
-0.366221
0.0243817
-0.450382
0.510602
-0.16721
-0.0172443
-0.436744
-0.403023
-0.0176641
0.474062
-0.206835
-0.680222
-0.177724
0.216269
0.209105
0.411368
-0.0131576
-0.201323
-0.450996
-0.531461
-0.0593852
-0.570716
0.0181783
0.392942
0.177768
0.0400652
-0.21403
-0.353471
-0.0254415
-0.110287
