-0.460116
-0.143828
-0.0265304
0.187874
-0.41615
0.273028
0.113625
0.226013
0.0752767
0.158917
-0.229229
0.0117312
0.532219
0.0394375
0.214432
0.533557
-0.134431
-0.0636019
-0.536635
-0.212567
-0.0989725
0.0731157
0.104383
-0.391233
-0.0140834
0.114364
-0.116353
-0.400735
-0.064405
-0.185604
-0.175851
-0.143487
-0.152577
0.0164361
-0.21738
0.0944496
-0.214904
-0.388381
-0.170902
0.281439
0.153983
-0.516778
-0.0774371
0.150262
0.484357
-0.113584
-0.185371
0.247064
0.000737928
0.396411
0.00619857
-0.217934
0.468733
-0.114818
0.0801373
0.0836677
0.258911
-0.44466
-0.176225
0.40749
-0.434492
0.143926
0.1821
-0.893144
-0.235815
-0.586159
-0.210482
0.270725
-0.214178
-0.126933
-0.32716
-0.724454
-0.0119791
0.573861
0.020296
-0.215086
0.136468
0.026763
-0.323049
0.0459329
-0.0599079
0.742565
-0.0295387
0.627639
0.487199
0.0569989
-0.334908
0.126836
-0.429543
-0.232732
0.0061936
-0.448939
-0.164458
-0.213012
0.0560177
0.324917
0.58665
0.515576
0.471435
-0.0390164
-0.0710691
-0.245295
0.649381
-0.241951
-0.182132
0.170033
0.073096
-0.0931612
0.0318218
-0.0383369
-0.191191
0.810579
0.28074
-0.222792
0.220681
0.635985
-0.222463
0.274338
0.462947
-0.0563155
-0.259862
-0.237561
-0.460031
0.281211
0.131567
-0.104366
0.0522917
-0.673527
-0.763594
-0.164324
-0.020301
-0.0678989
0.169387
-0.0678463
0.261214
-0.0270231
-0.0516132
-0.47239
0.261476
0.443321
0.541726
-0.424989
0.275457
0.224555
-0.0464615
0.384536
0.110048
1.02369
-0.051001
-0.109742
-0.165819
0.288744
-0.471023
-0.381875
-0.388133
-0.0732847
0.238699
-0.229198
0.249964
-0.442909
0.130108
0.00254803
0.493156
0.0918665
0.0617336
0.260856
-0.556261
0.117497
0.284173
0.160619
-0.302118
0.119255
-0.569422
0.0175018
0.779152
-0.291101
0.204457
0.585248
-0.504415
0.132226
-0.456328
-0.504391
-0.973819
-0.532185
0.115778
-0.0195566
-0.00707876
-0.177033
-0.845472
-0.681564
0.064183
-0.370003
-0.372048
-0.369318
-0.0204337
0.23293
0.109504
-0.0656696
-0.115599
-0.0509201
0.57284
-0.256414
-0.0816016
0.593388
-0.56704
-0.0472004
-0.298165
-0.186168
-0.481659
0.120262
-0.900883
-0.825842
-0.518998
-0.776437
-0.874485
-0.25913
0.0273027
-0.747732
-0.50474
-0.125526
-0.28856
-0.406304
-0.02752
-0.126284
0.127253
0.277642
-0.450632
0.0185494
0.490864
0.0317049
0.0158598
0.0448016
-0.441985
-0.753708
0.345379
-0.412987
0.218407
0.181261
-0.583362
-0.740343
-1.4257
-0.840088
-0.411188
-0.0873596
-0.571071
-0.406066
-0.403203
-0.209126
0.0226549
0.021564
0.216327
0.121734
-0.647386
0.0371193
0.161097
0.243598
0.0431625
0.12467
-0.00236709
0.409973
0.37012
-0.198218
-0.95126
-0.586096
-0.673736
0.579756
0.260446
0.164738
-0.244867
0.295966
0.0842045
-0.895291
-0.903337
-0.875132
-0.0484349
-0.00321989
0.762093
0.32923
0.122958
-0.0165313
0.12626
0.236092
0.213043
-0.143302
0.210392
0.0599495
0.175892
-0.340172
0.254592
0.0846528
0.444151
0.925601
0.864527
0.766105
0.713569
0.768751
1.26671
0.134883
0.0567252
0.0970419
0.570616
0.478278
0.965537
-0.274981
-0.229594
-0.501723
0.274294
-0.10783
0.170376
-0.28573
0.412848
0.527226
0.518907
0.258045
0.0934364
0.0829483
-0.358109
0.090685
0.701787
0.0356011
0.0584327
0.440151
0.255405
0.599529
0.244822
-0.372593
0.3015
0.695519
0.577278
-0.197255
0.10175
-0.187086
-0.417784
-0.438304
0.0359331
-0.197527
-0.0883508
-0.143705
0.427787
0.522219
0.332459
0.213891
-0.634004
0.244157
0.00131814
0.121177
0.142111
-0.0310616
0.649144
1.06329
0.684783
-0.115423
-0.103926
0.852984
0.125766
-0.145388
-0.256974
0.285309
-0.0958526
-0.231504
0.23892
0.196433
-0.486524
-0.128201
-0.0279057
0.310005
0.122106
-0.418294
0.249839
-0.0903116
0.534916
0.275913
-0.893915
-0.0418088
-0.73987
-0.504356
-0.213053
-0.0522984
0.0474632
-0.237243
0.301983
0.380822
0.0566686
0.504647
0.485749
0.298424
0.518989
-0.0465537
0.10881
-0.487511
-0.199075
0.0718118
-0.0416285
0.200914
0.431376
-0.483749
-0.622596
-0.398284
-0.164268
-0.141992
-0.0540294
0.133772
0.253055
0.153907
0.207168
-0.333602
-0.262623
0.310339
-0.517112
-0.236311
-0.322641
0.326932
-0.312507
-0.11769
1.00493
0.362143
0.381032
0.500796
0.505089
-0.29386
-0.0127345
0.186547
-0.144087
0.139391
-0.111202
-0.191604
0.119767
0.136216
-0.14448
-0.33386
-0.114346
-0.158172
0.194408
0.299934
-0.664082
-0.904948
-0.698841
0.467397
0.349376
0.678136
0.363181
0.438766
0.663017
0.665338
0.13904
-0.00702846
0.553736
-0.0921906
-0.373708
0.0594373
0.31724
-0.419642
0.434688
-0.0781739
-0.197073
0.380814
-0.142896
-0.119705
-0.063612
0.0891873
-0.319023
0.509107
-0.0355958
0.169277
0.0483343
0.138622
-0.560663
0.676859
0.463109
0.711815
0.146523
0.409731
-0.183453
0.597885
0.0777906
-0.0643346
-0.269934
-0.0266726
-0.179496
-0.17648
-0.237453
-0.0390666
-0.133042
-1.00266
-0.644764
-0.0525053
0.17697
0.193819
-0.399861
-0.640862
0.275215
-0.066556
0.395625
-0.152208
0.193677
0.352865
-0.238768
0.559968
0.14175
-0.436818
0.397552
-0.059683
0.625693
0.112959
-0.0997228
-0.23103
-0.046955
0.234205
-0.861768
0.763062
0.408014
-0.0579938
0.00590989
0.356551
-0.186039
-1.02056
-0.625889
-0.107579
0.83806
-0.567732
-0.162206
-0.503607
-0.515239
0.142144
0.320625
0.110305
0.286719
0.147506
-0.174143
0.261157
-0.426659
-0.140133
-0.168126
0.0159789
0.0462104
-0.173345
0.0777698
0.371516
0.0931483
0.490278
-0.100237
-0.293547
-0.0888254
-0.222602
0.58543
0.0631151
-0.124215
-1.2014
-0.242911
0.161707
0.231422
0.634608
-0.352528
0.624812
0.376116
0.838907
0.0823834
-0.0807363
0.0209035
0.659967
0.101435
-0.433743
0.171289
0.132314
-0.209575
-0.505032
-0.220369
0.0678246
-0.0560947
-0.297271
0.508533
0.185596
-0.0368534
-0.173113
-0.339423
0.217945
0.234334
0.455426
-0.329613
0.509814
0.152404
0.0955935
0.429702
-0.00913934
0.310129
0.0841383
0.129871
0.248385
0.183355
0.232227
-0.298421
-0.588679
-0.415371
0.188456
0.0664496
-0.289322
0.41676
0.0279119
-0.449475
0.194207
0.340852
0.291571
0.0644878
0.238153
0.411292
0.542172
-0.159491
0.232352
-0.305814
-0.191386
-0.602958
-0.562923
0.161963
0.0542789
-0.118531
-0.127911
0.282785
0.0334894
0.208012
-0.445483
0.123384
-0.605833
-0.186266
-0.443182
-0.166353
0.704996
-0.324633
0.308039
-0.127478
-0.504154
-0.982641
0.274902
-0.139308
-0.547384
0.90422
-0.382267
-0.142218
-0.360909
-0.517447
0.456601
-0.262516
0.210138
-0.109773
-0.134563
0.220775
0.12741
-0.152357
-0.405389
-0.0534429
0.352886
-0.956424
-0.589947
0.593421
0.304827
-0.236031
0.111244
0.324701
-0.117084
0.574148
0.827483
0.301116
0.605532
-0.452368
0.0231863
-0.019128
-0.343434
-0.431648
-0.0499686
-0.806293
0.035276
-0.431384
0.122632
-0.205848
-0.108318
-0.162374
0.0244817
0.119234
-0.146
-0.00375566
-0.235446
-0.0665814
-0.2002
0.0783674
0.080566
0.432489
0.440996
0.23991
0.00555188
0.559498
0.300667
-0.376929
-0.47414
0.0908448
0.142826
-0.295878
-0.118009
-0.00489309
-0.774578
0.109591
0.34274
0.0292577
0.852535
0.208745
0.0591056
0.396921
0.487987
-0.211671
0.255533
0.429454
-0.48
-0.569486
0.321239
0.287479
-0.984973
0.450418
0.483736
0.521155
0.491113
-0.518237
0.698464
0.0851122
0.384171
-0.355449
-0.147053
0.251799
0.0908689
-0.314661
-0.0516942
0.131698
0.335264
-0.327324
0.188133
0.116171
-0.560003
0.0856335
-0.0663775
0.0829737
0.458242
0.215788
0.235259
0.243378
0.046841
-0.307208
0.388975
0.688346
0.31962
-0.256377
0.0223026
0.422678
0.396129
-0.311743
-0.209291
-0.199602
0.395966
-0.0744424
-0.0296123
0.409708
0.0865549
0.162011
-0.183606
-0.490778
-0.113719
0.109716
-0.39786
0.174267
-0.531354
-0.336569
0.103971
0.0976648
-0.246005
0.0772052
-0.290684
-0.129857
-0.28615
-0.0663711
-0.413744
-0.461813
0.320958
-0.119694
0.0709796
-0.16783
0.0311227
-0.165989
0.0962008
