0.500492
-0.178091
0.24412
0.127815
-0.287203
-0.55888
-0.128347
-0.0219055
0.409104
-0.591586
0.132538
0.25514
-0.517038
-0.0961166
-0.199023
-0.0553437
0.189861
-0.204113
-0.332517
-0.576217
-0.160849
-0.36569
-0.130171
0.690136
-0.0295102
0.326046
0.0249359
-0.127718
0.00625447
0.252209
-0.377656
0.0463321
0.301481
-0.205259
0.241747
-0.0383298
0.19619
0.136553
-0.523016
1.18766
-0.177993
-0.199225
-0.864186
-0.413001
0.0711801
0.0612939
0.161221
0.662148
-0.15122
0.428437
-0.427263
0.0167887
-0.546113
-0.183269
0.465534
0.021361
0.138488
0.0856359
0.24662
0.0671429
0.467339
0.122894
-0.149677
0.230225
-0.185801
-0.173162
0.232207
-0.163345
0.355813
-0.91533
-0.221093
-0.898583
-0.259566
0.148634
-0.0397086
0.4422
-0.385934
-0.285943
0.172973
-0.209966
-0.405999
-0.00174347
-0.52482
-0.42853
0.11199
0.303842
0.641406
0.213578
-0.0610288
0.0744269
-0.49597
0.138931
0.549837
-0.39403
0.327653
-0.0881893
-0.330075
-0.0909198
-0.308674
0.390193
-0.17634
-1.11998
-0.141671
-0.865747
-0.529581
-0.582809
-0.771821
-0.425556
-0.0966102
-0.0725561
-0.293604
0.0391401
0.0419563
0.501162
-0.0298675
-0.258418
-0.236452
-0.527306
0.0898706
0.335006
0.0805475
0.235687
-0.223671
0.130035
-0.105809
-0.85574
-0.0559938
0.437805
-0.90408
0.838958
-0.624146
-0.633718
0.999743
0.110008
0.487097
-0.185554
0.0334339
-0.0894867
-0.127002
0.512239
-0.213371
-0.223111
0.0853925
0.271022
-0.373196
-0.0784353
-0.610889
-0.724766
-0.606064
-0.717626
-0.32749
0.325397
0.319089
-0.0555031
-0.138005
0.526076
-0.069893
0.500427
0.535238
-0.313023
0.0813871
-0.49962
0.360031
-0.253358
-0.367923
-0.264324
0.179213
0.132642
0.0966232
-0.275615
-0.700974
-0.435462
-0.322761
-0.421664
0.00399466
0.577532
-0.846214
-0.300124
-0.165127
-0.490677
-0.660471
-0.113709
-0.437151
-0.409805
0.612989
-0.465843
0.513315
-0.246515
0.565592
-0.303686
-0.449415
0.424387
-0.459905
-0.667973
0.151531
-0.431307
-0.240743
-0.359018
-0.072683
0.20116
-0.402213
-0.271435
0.573031
0.390573
-0.502915
-0.10783
0.216693
0.570989
-0.144059
0.563501
0.365
-0.337861
-0.246362
-0.01632
-0.462869
-0.427872
-1.20871
0.162227
0.533975
-0.268843
-1.2148
-0.810238
-0.0195029
-0.0666907
-0.13431
0.274995
0.271681
0.358263
-0.070562
-0.374755
-0.723885
-0.485436
-1.33958
0.0886967
-0.467229
-0.873953
-0.261192
-0.442731
-0.111299
0.243043
-0.377954
0.346782
-0.0496476
-0.439616
-0.458872
-0.688503
-0.533279
0.247036
-0.53115
-0.451353
-0.172031
-0.0638842
0.367342
-0.124903
-0.37456
-0.137576
-0.080853
-0.440296
-0.239611
-0.447165
-0.487192
-0.363736
0.483856
0.412377
-0.196166
0.138437
-0.925773
-0.315431
0.0355331
-0.648381
0.57404
0.41679
0.24852
0.199827
-0.15885
-0.340962
-0.75106
-1.37352
0.189778
-0.0845057
-0.027964
0.0194904
-0.0632021
0.060916
-0.781604
0.0207694
-0.101033
-0.107591
0.820034
0.55433
0.0543277
0.935358
-0.789466
-0.592775
-0.512954
-0.11557
0.0100345
0.86951
0.524162
-0.0146344
-0.32783
-0.0489486
-0.14799
-0.711377
-0.131366
-0.480803
-0.105249
0.318849
0.452804
0.160392
-0.395693
0.0580716
-0.0163011
0.0836097
0.0338175
0.0721483
-0.15486
-0.164509
0.284943
0.044333
0.525749
-0.0366269
-1.64405
0.287694
0.138551
-0.536004
-0.135191
0.00864713
0.302023
0.730908
0.38898
-0.730512
-1.03111
-0.454352
-0.34453
0.0853006
0.0192056
0.152392
-0.438154
0.139713
-0.821952
-0.289435
0.369187
-0.419101
-0.165417
0.0101542
-0.579175
1.20291
-0.380082
-0.752726
-1.76392
-1.89557
-1.07266
-0.140187
-0.601884
0.299149
-0.12485
0.720116
0.08254
0.454241
0.132987
0.0650433
0.758936
0.392929
0.363281
0.189359
0.151375
-0.300213
-0.320282
0.343197
0.040754
0.731531
0.339284
-0.226106
-0.366394
0.0314124
0.594231
-0.614372
-0.284503
-0.412605
-0.826091
-0.495389
-0.992988
0.987653
-0.937335
-0.293434
0.142526
0.794672
0.747937
0.659881
0.805689
-0.247044
-0.0193712
-0.216222
0.152458
0.193656
0.540228
0.525465
0.141861
1.32734
-0.346797
0.47091
0.100864
-0.109704
0.847803
-0.834607
-0.139172
-0.47998
-0.183942
0.308446
0.00652257
0.117859
-0.0121573
0.36646
0.938928
1.14839
0.739619
0.909397
0.195637
-0.00601512
-0.15945
0.178988
-0.143224
0.591623
-0.465023
1.06394
-0.169876
-0.0226906
0.567735
0.865116
1.06413
0.428726
0.676089
-0.411374
-1.23877
-0.81205
0.51695
0.512241
-0.131657
0.388649
-0.831835
0.809916
0.41309
0.190258
0.045624
0.266076
0.12841
-0.000231958
-0.178364
0.261407
-0.00884605
-0.582083
-0.544178
0.941727
-0.0428028
0.212582
0.750417
0.34549
0.44884
0.687584
-0.264806
1.26256
0.454371
0.123282
0.163267
0.64557
0.593488
0.509168
0.846322
0.889975
0.783458
0.238036
0.294478
0.234711
0.246605
0.43945
0.096128
0.0116787
0.14971
-0.905757
0.409805
0.449744
0.959962
0.955631
0.781732
0.675133
-0.247643
0.241046
0.175632
-0.0173469
0.445323
0.363992
0.314373
0.418099
-0.0769634
0.502439
-0.0109037
0.652075
-0.0129578
-0.0911247
-0.666392
0.853559
0.163758
0.0232654
0.453447
-0.0961805
0.748402
-0.0838179
0.252662
0.475393
0.180406
0.244513
0.132019
0.354152
-0.256409
0.52145
0.411112
-0.383651
-0.0688337
-0.366016
0.866971
0.361569
0.564066
0.446741
0.333728
-0.411059
-0.0138586
-0.384502
0.266784
0.632778
-0.267307
0.22007
0.0931466
0.137169
0.432597
0.723055
0.668746
-0.654684
-0.219694
0.025074
0.720388
0.63982
0.298639
0.906193
0.304443
0.182156
0.692428
-0.19075
0.498488
-0.34653
-0.230841
-0.346511
0.886015
0.544712
0.321063
-0.434034
-0.176567
-0.597245
-0.0538045
0.0978744
-0.0757272
-0.0460451
0.431237
-0.343908
0.292897
0.358504
0.200597
0.328182
-0.317605
0.410914
0.323473
0.0112601
0.772445
-0.381923
-0.593104
-0.0900986
0.352498
0.414482
0.725059
0.716949
-0.0568529
0.107267
0.184183
0.135654
-0.153182
-0.595356
0.0492296
0.368646
-0.217339
0.0640778
-0.188686
-0.823656
0.10195
0.698149
1.03164
-0.207819
-0.736064
0.218339
-0.620487
-0.024313
-0.129822
0.32659
0.508129
0.423843
-0.449185
-0.412902
-1.22499
0.44843
0.733076
-0.255183
0.401154
0.184889
-0.0685044
-0.387644
-0.0197664
0.375096
-0.0742346
0.119683
-0.112516
0.521331
0.310969
0.365127
-0.311385
0.028665
-0.172925
0.544087
0.350034
0.185672
0.38459
-0.232953
-0.281233
0.0716378
0.646777
-0.644716
0.330255
-0.271512
0.238098
0.48295
0.264646
0.334223
0.36236
-0.134601
-0.113413
0.165073
0.390787
0.303259
-0.108073
0.142291
-0.506169
0.275212
-0.673412
0.200886
0.477188
0.695701
-0.435335
0.58577
-0.443824
-0.0797458
0.0914542
0.194842
0.0633739
-0.710668
-0.120305
-0.667406
-0.0460766
0.374014
0.417992
0.0736721
-0.173858
-0.390843
0.511528
0.0822461
-0.120693
0.0279889
0.205267
-0.451633
0.156524
-0.44023
-0.654353
0.404926
-0.0823967
0.382119
-0.496726
0.708087
-0.190249
-0.0980071
-0.400099
-0.685029
-0.282859
0.174505
0.330613
-0.906613
-0.766782
-0.37201
-0.436254
-0.830292
-0.0558383
0.533231
0.125909
0.44139
0.00664427
0.28644
0.0394404
-0.217942
-0.498498
-0.174382
-0.607475
-0.299621
-1.01865
-1.20534
-1.68103
-0.732733
-0.463826
-0.768671
0.408379
0.346006
-0.315651
-0.415898
-0.0554044
-1.13101
-0.208995
-0.388128
0.316286
-0.549576
-0.0280353
0.131364
-0.370192
-0.120015
-0.174502
0.436166
-0.12601
0.201048
-0.656607
0.320442
0.0104532
-0.118007
0.126748
-0.00324609
-0.781734
-0.427001
-0.0633114
-0.653385
-0.763704
-0.45034
-1.24949
-0.713248
-0.792016
-0.0472382
0.226659
0.0611127
0.829395
-0.140611
0.102128
0.0458879
0.0101527
0.217373
0.349365
-0.240957
-0.00211067
-0.254585
0.0168744
0.143856
-0.1475
-0.431911
-0.265858
-0.089776
0.38707
-0.0958388
-0.189847
0.032817
-0.25842
0.129562
0.415211
-0.0900195
0.172408
-0.00135349
0.254076
-0.701592
-0.195422
-0.316724
-0.325724
-0.12903
0.116341
-0.150251
