0.123015
0.395905
-0.336609
0.210043
-0.136088
-0.274275
0.079923
-0.0644757
0.019286
0.313123
0.0446651
-0.0755733
0.158968
0.409992
-0.00544007
0.0253057
0.0191268
0.317982
0.42608
-0.4946
0.51883
-0.515582
0.0141594
-0.248299
-0.35827
0.0350345
0.0766126
-0.181406
-0.0844396
-0.00172075
0.0130788
0.166734
-0.133016
-0.0244259
0.299895
-0.152112
-0.206531
0.124547
0.298773
-0.328274
-0.0104941
0.23252
-0.170835
-0.282492
0.28296
0.0351479
-0.020172
-0.0754966
0.0849311
0.389914
-0.289605
0.125168
0.360027
-0.275639
0.0917533
-0.0632687
0.113454
0.169589
-0.0374789
0.20953
0.0546551
-0.042247
0.178074
0.188286
-0.387095
-0.125227
0.160369
-0.0358377
0.0141563
-0.112085
0.437259
-0.349835
-0.230922
0.227742
0.14197
-0.259296
-0.271269
-0.048503
0.00758228
-0.047411
-0.630317
-0.217004
0.104197
-0.265485
0.528562
0.277585
-0.319341
0.056352
-0.437538
-0.441312
0.513589
0.0767533
0.382937
0.0987888
0.170785
0.266848
-0.0875495
-0.143419
0.437046
0.169589
0.178261
0.487816
0.273325
-0.470905
0.0326056
-0.0200728
-0.513629
-0.31742
-0.0181166
-0.357413
-0.0647721
-0.0376001
-0.281662
-0.589606
0.655552
-0.0665691
-0.470096
0.245634
-0.133455
-0.0797523
0.907118
-0.0191436
0.309294
0.817748
0.609853
-0.0533193
-0.491151
0.492876
0.164904
0.464665
0.159972
-0.101961
0.518957
0.132476
-0.260578
-0.321792
0.337417
0.075034
-0.134627
-0.360412
0.0399574
-0.297632
-0.176579
0.0680798
0.105398
-0.0178345
0.405186
-0.509119
-0.209484
0.478995
0.991237
0.808362
-0.959475
-0.406306
-0.119329
0.921821
0.284277
0.427348
0.314467
-0.61408
0.506641
0.643614
-0.274025
-0.0646349
-0.182832
-0.187757
0.372863
-0.0301865
0.196541
0.433186
0.0680983
-0.393155
0.366947
0.186757
-0.364026
0.418602
0.626596
0.57778
0.903555
0.0197438
-0.743667
-0.667386
-0.64632
-0.71394
0.747211
-0.237156
-1.09836
0.546763
0.280084
-0.498455
-0.130147
0.2708
0.496681
-0.0623239
0.225035
0.165616
0.34998
-0.1985
0.383094
0.352447
-0.20417
-0.335769
0.127413
0.479266
0.500515
0.196448
0.49836
0.173022
-0.445269
-0.463128
-0.205085
0.122305
0.30995
0.207579
-0.484029
0.209708
0.0160375
0.071641
0.138449
-0.714539
0.601473
0.63283
0.135222
-0.484537
0.00774245
0.291111
0.5769
0.0991868
-0.389007
0.583859
-0.0579278
0.304351
0.942067
0.849358
0.692307
-0.393142
-0.488
0.00809187
-0.227795
0.518033
-0.503379
-1.05406
0.459918
-0.042716
-0.649812
-0.157604
0.051255
-0.174857
0.642625
0.906607
-0.772137
-0.18783
-0.154036
-0.178203
0.540169
-0.024826
0.0757309
0.816977
0.500285
0.729422
0.849016
0.320582
1.83458
0.269722
-1.11426
-0.842172
0.335132
0.124079
0.0621559
-0.729181
-0.292757
0.299272
-0.0515214
0.273926
-0.586857
-0.507607
-0.400519
0.309971
-0.0220349
-0.00367967
-0.386678
0.0420441
0.036578
0.253306
0.380815
0.546601
0.653502
-0.201361
0.244768
0.160715
0.948072
0.59189
-0.648006
-1.18653
-0.261533
-0.105261
-0.341054
0.498453
0.238985
-0.184476
-0.0119415
-0.493384
0.347012
0.0626826
-0.868723
0.31601
-0.00216086
0.276325
-0.0543269
0.210719
0.0751585
0.391233
0.244167
-0.512887
0.133645
0.412845
0.175828
0.82482
1.10768
-0.0615558
-1.04802
-0.976817
0.184024
-0.0486947
-0.235047
0.61678
-0.0325148
-0.697071
0.651558
0.303554
0.631585
0.560219
-0.339352
0.148588
-0.1393
-0.101788
-0.0639176
0.153939
0.422439
0.126653
-0.294804
0.763771
0.573409
0.103392
0.692499
0.736916
0.836736
-0.0921768
-1.42148
-0.549611
-1.01171
0.109052
-0.104508
-0.0813583
0.172013
0.048688
0.448044
0.692987
1.02382
-0.221843
0.639411
-0.248725
0.529541
0.359569
-0.00367442
0.0705112
0.460868
0.389126
0.891827
0.705711
0.155511
0.600074
0.775074
0.569496
-0.408485
0.175096
-0.50205
-0.645156
-0.869935
-0.115105
-0.196173
-0.321382
-0.195155
-0.103282
-0.666328
0.131082
0.413242
1.04562
0.233301
0.570882
-0.194405
0.28404
-0.168507
0.208669
0.369957
0.60573
0.483132
-0.089029
1.04875
0.482049
0.266612
-0.480272
-0.415495
-0.173638
-0.888084
-0.608791
-0.805446
-0.470582
-0.747334
0.0825147
0.370589
-0.0319429
-0.225444
-0.721931
0.385266
0.592167
0.702241
-0.0343357
-0.482115
0.0864932
-0.320647
0.225665
-0.047077
0.102249
0.673785
-0.343237
1.00951
1.26092
-0.0365088
0.735107
0.859401
0.629575
-0.283067
-0.296189
-0.502155
-0.357095
-0.206197
-0.301859
-0.472619
0.0136417
-0.0277952
0.0480001
-0.0769219
0.318058
0.369947
-0.237391
-0.297507
-0.458102
-0.0351348
0.346884
-0.155764
-0.0457147
0.0674271
0.43798
0.924579
0.332779
0.665774
0.391858
0.100154
-0.378604
-0.0611933
-0.415608
-0.487218
-0.238853
-0.719531
-0.354571
0.19932
-0.358354
0.477143
-0.274542
0.481676
0.43258
0.145348
0.0196183
-0.116977
-0.0907772
0.186957
-0.0834044
0.0559
0.285917
-0.130509
0.121255
0.636246
0.332028
0.450983
0.0643412
-0.0648929
-0.48291
0.0618671
-0.0712568
0.0300403
-0.727463
-0.509397
0.286933
0.587896
-0.369683
0.666914
0.328575
0.129211
0.120997
-0.260167
0.0034102
-0.267955
-0.164678
0.0393625
0.0337657
0.249761
-0.11952
0.799944
0.12355
-0.01167
-0.542543
-0.639769
0.279547
0.697179
-0.391689
-0.148767
-0.0353614
-0.34679
-1.27471
-0.860938
0.177289
0.312894
0.0794447
0.864728
-0.0536464
-0.209159
0.343647
0.425839
-0.252491
0.039416
0.0819863
-0.0933433
0.33843
-0.15862
0.183901
0.140694
-0.461091
0.179205
0.0510594
0.00668162
0.0489941
0.19325
0.348117
0.413384
-0.633905
-0.234905
-1.14361
-1.04234
0.440344
0.147637
0.215355
0.119986
0.394042
0.20588
0.261302
-0.0230238
-0.571972
0.261475
-0.0797113
0.250563
0.160867
0.197931
0.00223653
-0.561952
-0.241237
-0.0659908
0.142748
0.300182
-0.0823633
0.0378554
0.676291
0.322143
-0.329613
0.258696
-0.305024
-0.0655464
0.279678
0.181961
0.323508
0.119623
0.0267759
0.677173
-0.0650411
0.121167
0.162655
-0.283944
-0.871349
-0.0244338
-0.179142
0.178546
0.207324
-0.520203
-0.113684
-0.40736
0.0814389
0.0177911
-0.283521
-0.127741
0.0422461
-0.157307
-0.534603
-1.0808
0.535997
0.446056
0.264526
0.0813263
-0.229763
0.959937
0.570503
0.230133
0.398898
0.775842
-0.519367
0.0760517
-0.350105
-0.46569
-0.774932
-0.0115977
0.0639954
-0.438955
0.257319
0.326373
0.0660745
-0.223955
-1.067
-0.52866
-0.492559
-0.62354
0.703651
-0.211982
0.438819
0.853347
-0.0225235
0.843801
0.210122
0.0315237
-0.145119
0.21694
0.223508
0.0771773
0.179148
0.225815
0.212451
0.471983
0.103697
-0.0861757
-0.216152
-0.763975
0.244016
-0.106142
0.0948666
-0.24904
0.300775
0.203821
-0.00296109
0.499577
0.0616241
-0.0552926
0.0479407
-0.0775044
0.332038
0.293185
0.0190575
0.179472
0.392987
-0.352352
0.0845159
-0.254966
-0.608575
0.449607
-0.124737
-0.137719
0.208111
0.199914
0.465094
-0.33579
0.101077
-0.0441112
-0.208068
0.353389
-0.0250138
-0.272286
-0.861963
0.486003
-0.0990031
0.208935
0.880784
-0.00574053
0.272357
0.209672
-0.104572
0.779468
0.898829
0.290552
0.398114
-0.104238
-0.476609
-0.451465
0.507536
-0.2704
-0.317388
-0.288106
0.0117417
0.388437
0.162589
0.587809
0.568709
0.0368308
-0.355421
-0.281805
-0.353872
-0.625509
-0.0967083
0.278991
-0.0480405
-0.132319
-0.248165
0.260025
0.873625
0.0146801
0.811254
0.287203
-0.373869
0.114902
0.110527
0.496011
-0.215751
-0.115532
-0.344743
0.30143
-0.014476
0.0653691
-0.404457
-0.149224
0.214348
0.384631
-0.183146
-0.471251
-0.339929
-0.634952
-0.408142
0.144111
0.377268
0.22047
-0.248841
-0.299503
-0.139878
-0.00717316
0.967597
0.274784
-0.16316
0.566534
0.185611
-0.243505
-0.104646
-0.455495
0.40666
-0.10195
0.00442466
0.0621014
0.0889901
-0.415506
-0.0035743
-0.242193
-0.210134
-0.134083
0.182795
-0.134056
0.21112
0.323608
0.0917964
-0.0198217
-0.050026
-0.098771
0.0223982
0.243906
0.334337
-0.465961
0.0244528
0.0521185
-0.169964
-0.0465109
-0.339821
