0.123015
0.395905
-0.336609
0.210043
-0.136088
-0.274275
0.079923
-0.0644757
0.019286
0.313123
0.0446651
-0.0755733
0.158968
0.409992
-0.00544007
0.0253057
0.0191268
0.317982
0.42608
-0.4946
0.51883
-0.515582
0.0141594
-0.248299
-0.35827
0.0350345
0.0766126
-0.181406
-0.0844396
-0.00172075
0.0130788
0.166734
-0.133016
-0.0244259
0.299895
-0.152112
-0.206531
0.124547
0.298773
-0.328274
-0.0104941
0.23252
-0.170835
-0.282492
0.28296
0.0351479
-0.020172
-0.0754966
0.0849311
0.389914
-0.289605
0.125168
0.360027
-0.275639
0.0917533
-0.0632687
0.113454
0.169589
-0.0374789
0.20953
0.0546551
-0.042247
0.178074
0.188286
-0.387095
-0.125227
0.160369
-0.0358377
0.0141568
-0.112148
0.436173
-0.354313
-0.235657
0.226271
0.141966
-0.259297
-0.271269
-0.048503
0.00758228
-0.047411
-0.630317
-0.217004
0.104197
-0.265485
0.528562
0.277585
-0.319341
0.056352
-0.437538
-0.441312
0.513589
0.0760917
0.381351
0.0986277
0.170758
0.266703
-0.0877527
-0.145543
0.429136
0.161412
0.172252
0.48614
0.272997
-0.47092
0.0326448
-0.0200922
-0.513629
-0.31742
-0.0181166
-0.357413
-0.0647721
-0.0376001
-0.281662
-0.589606
0.655552
-0.0665691
-0.47008
0.24598
-0.13334
-0.0831763
0.902587
-0.0233292
0.303818
0.812369
0.600748
-0.0636518
-0.50166
0.481692
0.154822
0.454317
0.15283
-0.104438
0.518201
0.132205
-0.260664
-0.321616
0.337562
0.0750754
-0.134627
-0.360412
0.0399574
-0.297632
-0.176579
0.0680798
0.105434
-0.0172253
0.403905
-0.514296
-0.213829
0.47482
0.985363
0.7972
-0.974877
-0.421287
-0.133726
0.906567
0.269152
0.411738
0.302418
-0.618178
0.506304
0.64461
-0.273956
-0.0644766
-0.182441
-0.187501
0.372863
-0.0301865
0.196541
0.433186
0.0681095
-0.393155
0.366981
0.186224
-0.365229
0.417478
0.624812
0.571661
0.895983
0.0103413
-0.752795
-0.673196
-0.648436
-0.717064
0.74072
-0.247388
-1.10801
0.540619
0.279278
-0.49591
-0.129495
0.271224
0.496936
-0.0619784
0.22504
0.165616
0.34998
-0.1985
0.383094
0.352439
-0.204359
-0.336424
0.129109
0.480803
0.498261
0.188271
0.496545
0.175396
-0.442321
-0.457098
-0.199427
0.126574
0.310421
0.204139
-0.489117
0.206053
0.0160128
0.0736141
0.141074
-0.714497
0.601536
0.632945
0.135234
-0.484537
0.00774245
0.291111
0.5769
0.0991625
-0.389554
0.583742
-0.0511349
0.307777
0.940705
0.83936
0.685491
-0.392832
-0.484349
0.0117972
-0.223589
0.523403
-0.500735
-1.05393
0.455905
-0.0448642
-0.649757
-0.156631
0.0525559
-0.174971
0.642072
0.906426
-0.772137
-0.18783
-0.154036
-0.178203
0.540168
-0.0248074
0.0754752
0.819501
0.5052
0.728214
0.844417
0.309986
1.82668
0.272054
-1.10899
-0.834927
0.345984
0.129518
0.061578
-0.732003
-0.293519
0.299602
-0.0503384
0.274568
-0.58695
-0.507591
-0.40132
0.309775
-0.0220347
-0.00367967
-0.386678
0.0420441
0.0365726
0.253344
0.380995
0.551573
0.65588
-0.206553
0.236157
0.151048
0.944831
0.59634
-0.64108
-1.17615
-0.251373
-0.0977373
-0.335671
0.501111
0.243554
-0.183799
-0.0111825
-0.493031
0.34628
0.0633866
-0.869806
0.315999
-0.00216086
0.276325
-0.0543269
0.210719
0.0751585
0.39126
0.244633
-0.50737
0.129316
0.403649
0.170759
0.822709
1.1093
-0.0536256
-1.03809
-0.969747
0.188424
-0.0420654
-0.224916
0.623656
-0.026432
-0.695533
0.652298
0.302154
0.6303
0.560227
-0.340496
0.14861
-0.1393
-0.101788
-0.0639176
0.153939
0.422439
0.126672
-0.294748
0.760547
0.566171
0.0950098
0.689939
0.742685
0.843346
-0.0828292
-1.41223
-0.54754
-1.01354
0.113692
-0.0995324
-0.07542
0.174869
0.0471601
0.447286
0.691574
1.02179
-0.223178
0.637659
-0.248987
0.52937
0.359569
-0.00367442
0.0705112
0.460868
0.389135
0.89141
0.699831
0.147193
0.592783
0.775713
0.574616
-0.404838
0.17574
-0.505202
-0.651951
-0.872081
-0.111151
-0.190651
-0.31835
-0.194393
-0.104296
-0.668629
0.127689
0.408718
1.04239
0.231935
0.570426
-0.194768
0.28404
-0.168507
0.208669
0.369957
0.605724
0.481231
-0.0964484
1.03851
0.470648
0.260564
-0.481668
-0.413059
-0.177839
-0.898628
-0.617912
-0.811499
-0.473971
-0.7515
0.0765427
0.370462
-0.0303611
-0.228729
-0.728039
0.378235
0.584039
0.700114
-0.0344701
-0.482115
0.0864932
-0.320647
0.225665
-0.047077
0.102285
0.672895
-0.352488
0.998672
1.2495
-0.0446538
0.731724
0.857136
0.626481
-0.288185
-0.303815
-0.511456
-0.365461
-0.212043
-0.307047
-0.475205
0.0135455
-0.0311295
0.043719
-0.0817924
0.308839
0.364041
-0.237415
-0.297507
-0.458102
-0.0351348
0.346884
-0.155764
-0.0455955
0.0674319
0.434877
0.914721
0.324701
0.660253
0.392179
0.10042
-0.38269
-0.0668133
-0.422906
-0.494462
-0.244976
-0.727032
-0.361398
0.194063
-0.356913
0.477158
-0.277551
0.477351
0.422291
0.137681
0.0195845
-0.116977
-0.0907772
0.186957
-0.0834044
0.0559
0.285997
-0.13039
0.119263
0.632865
0.327768
0.451317
0.0656648
-0.0667863
-0.489044
0.0542951
-0.0784989
0.0254946
-0.727964
-0.510517
0.282424
0.584845
-0.369395
0.663456
0.325702
0.122269
0.113695
-0.26514
0.00336687
-0.267955
-0.164678
0.0393625
0.0337657
0.249761
-0.119009
0.800173
0.121559
-0.0144725
-0.548248
-0.644051
0.283061
0.694684
-0.400063
-0.158462
-0.0405539
-0.350497
-1.27492
-0.861476
0.175961
0.312755
0.0779547
0.857005
-0.0611443
-0.216686
0.336386
0.425728
-0.252564
0.039416
0.0819866
-0.0933433
0.33843
-0.158615
0.184022
0.140591
-0.461843
0.178682
0.0480956
0.00152797
0.0467076
0.189106
0.337638
0.404777
-0.638587
-0.241773
-1.14856
-1.0507
0.430387
0.140085
0.210629
0.113449
0.384761
0.198528
0.259825
-0.0193627
-0.57202
0.261475
-0.0797112
0.250563
0.160867
0.197834
0.00265137
-0.561966
-0.242139
-0.0659053
0.142552
0.295147
-0.0897778
0.031888
0.672844
0.314765
-0.339272
0.247579
-0.309998
-0.0738789
0.267858
0.173546
0.316994
0.113738
0.0236084
0.675209
-0.0640855
0.124854
0.16262
-0.283944
-0.871349
-0.0244338
-0.179142
0.178542
0.207165
-0.520231
-0.114235
-0.407001
0.0837583
0.0183885
-0.292253
-0.136713
0.0363412
-0.167741
-0.54984
-1.0936
0.527619
0.437535
0.258057
0.0778994
-0.236772
0.952759
0.567302
0.232644
0.399825
0.777098
-0.519375
0.0759191
-0.350105
-0.46569
-0.774932
-0.0115977
0.0635662
-0.439049
0.257451
0.327617
0.0675046
-0.22237
-1.07224
-0.539764
-0.501271
-0.628607
0.700577
-0.212728
0.438728
0.852139
-0.0252889
0.836926
0.203595
0.0255277
-0.14362
0.219646
0.223371
0.0770407
0.179133
0.225801
0.212451
0.471983
0.103697
-0.0861757
-0.216152
-0.763997
0.24431
-0.10553
0.0958586
-0.247739
0.300835
0.2028
-0.00575675
0.494995
0.0600947
-0.0519929
0.0549214
-0.0745767
0.331975
0.290729
0.0177079
0.179914
0.395413
-0.351149
0.0846949
-0.255061
-0.608585
0.449607
-0.124737
-0.137719
0.208111
0.199914
0.465094
-0.335897
0.100764
-0.0442465
-0.20697
0.355629
-0.024776
-0.270766
-0.859394
0.489432
-0.0946403
0.212998
0.882181
-0.00634021
0.270201
0.207203
-0.105273
0.780136
0.898886
0.290158
0.398103
-0.104316
-0.476609
-0.451465
0.507536
-0.2704
-0.317388
-0.288106
0.0117417
0.388209
0.162368
0.587416
0.568433
0.0377092
-0.35162
-0.277471
-0.349933
-0.622709
-0.0963759
0.279357
-0.0487221
-0.133952
-0.251274
0.258642
0.873385
0.0142644
0.810701
0.286886
-0.37388
0.114902
0.110527
0.496011
-0.215751
-0.115532
-0.344743
0.30143
-0.014476
0.0653691
-0.404457
-0.149225
0.214278
0.384532
-0.183199
-0.471251
-0.33994
-0.635094
-0.408521
0.144533
0.377896
0.220324
-0.248851
-0.299461
-0.139769
-0.00710514
0.967579
0.274781
-0.16316
0.566534
0.185611
-0.243505
-0.104646
-0.455495
0.40666
-0.10195
0.00442466
0.0621014
0.0889901
-0.415508
-0.00366609
-0.242244
-0.210134
-0.134083
0.182795
-0.134056
0.21112
0.323609
0.0917977
-0.0198217
-0.050026
-0.098771
0.0223982
0.243906
0.334337
-0.465961
0.0244528
0.0521185
-0.169964
-0.0465109
-0.339821
