0.20022
-0.162918
-0.66467
-0.0564248
-0.151198
-0.267012
0.356399
0.0992524
0.117296
-0.412318
-0.141939
-0.254374
-0.106114
-0.0290552
-0.248536
0.142234
0.5427
0.187978
-0.368897
-0.0448947
0.585312
0.49121
0.0251167
0.530043
0.756212
-0.223938
-0.26357
0.384127
-0.346728
-0.0933504
0.288548
-0.14414
-0.203365
-0.0268807
-0.344515
0.192568
-0.198684
0.460921
0.0625936
-0.057122
0.518318
0.0994584
0.619638
0.445817
0.758155
0.514786
-0.231784
0.211228
0.589692
-0.0758668
-0.369408
0.00152367
0.0491431
-0.472081
0.380463
-0.35095
0.363279
0.109501
-0.152405
-0.0853293
0.193954
0.184625
0.0169598
0.0228455
-0.0988783
0.159651
0.609102
0.448601
0.273008
0.302412
0.530543
0.383112
0.867677
-0.20828
-0.0991457
0.507935
-0.356857
0.60826
-0.0164416
-0.0894407
-0.091007
0.0583744
-0.172166
-0.206305
-0.165519
-0.326823
0.165118
0.0705822
0.184692
0.415944
-0.00915046
0.172291
0.906606
0.379193
0.936139
0.761015
0.614251
0.551561
0.956737
-0.0605184
0.57752
0.247069
-0.109934
-0.0449294
-0.0599128
0.363981
-0.224758
0.190606
0.979868
0.110571
-0.109056
0.297402
-0.125939
-0.050601
0.0218979
-0.412933
0.699311
0.352242
0.273954
0.621928
0.457741
0.161875
0.908746
0.283301
0.607687
-0.217663
0.618912
0.0895483
0.233744
0.354839
-0.522153
-0.142204
0.217256
0.159874
-0.292269
1.08404
0.377053
0.44164
-0.197177
-0.0059387
0.186048
0.498646
-0.0517013
-0.207863
0.221658
-0.41288
-0.208222
0.653772
0.662017
0.104644
-0.424131
-0.551773
-0.0561186
-0.916129
-0.741981
0.418385
-1.04426
-0.71937
0.525203
0.471944
0.655507
0.211212
-1.02179
1.47339
-0.0293717
0.648967
0.510555
-0.267709
-0.314783
0.269104
-0.293512
-0.353363
-0.549382
-0.200914
0.180448
-0.0894307
-0.550301
-0.423834
-0.115576
-0.165816
-0.826445
-0.0391567
-0.673138
-0.151397
-0.304831
-0.111616
-0.727854
-0.689951
-1.25613
-0.920437
-0.773641
0.0425797
0.0012017
0.585826
0.276085
0.0368877
0.414814
-0.246464
0.149472
-0.0849797
0.36912
-1.06102
-0.550804
-0.179545
-0.616462
0.0998315
-0.0694276
-0.40274
0.252391
-0.387699
0.391208
0.509482
-0.462705
-0.0420875
-0.784067
-1.53001
-0.650443
-1.67808
-1.25755
-1.11616
-0.43812
0.124447
-0.318141
-0.0530338
0.00696676
0.264725
-1.12134
-0.0225155
-0.414409
-0.46172
-0.592328
-0.433858
-0.736149
-0.335993
-1.19255
0.646113
-1.2341
-0.310868
0.0401089
-1.10475
-0.560597
-0.6763
-1.45541
-0.832439
-0.963206
-0.477538
-1.04731
-0.902147
-1.15767
-0.536829
-0.318662
-0.202907
-0.165936
-0.230236
-0.431741
0.11101
0.443097
0.0418416
-0.806419
-0.609728
-0.923449
0.147301
-0.565544
-0.725864
1.50106
-0.270866
-0.863028
0.477106
-0.861046
-1.42314
-0.652806
-0.876425
0.330119
0.127385
-1.08201
-0.333105
-2.04538
-0.502385
-0.567976
-0.109556
0.338095
0.0188772
-0.411302
0.195921
0.608433
0.317314
0.959653
0.166502
0.280123
0.405273
-1.08984
-0.329795
-1.6872
0.0679113
-0.238998
0.131558
-0.221082
0.185505
-0.271197
-0.505664
-0.250406
-0.675059
-0.745856
-0.814209
-1.29701
-0.967682
-1.04104
-0.0320878
-0.112056
-0.51976
0.214444
-0.47823
-0.744475
-0.290421
0.420356
-0.431712
-0.689586
-0.0384821
-0.656699
-0.45201
-0.613863
-0.751497
0.198018
-1.7
-0.106184
-0.968732
0.00662288
0.0455359
-1.03097
1.01724
-0.647223
0.00427543
0.0522038
-0.951735
-1.41715
0.112864
0.125497
0.22832
-0.279856
-0.556541
-0.315873
-0.0136196
-0.593122
-0.723003
-0.201729
-0.476243
-0.197741
-0.455402
-0.327734
-1.00336
0.243715
0.130764
-0.0292986
-0.0334621
0.256331
-1.16763
0.356088
0.0836085
0.34779
0.436569
1.26785
-1.11896
-0.103177
-0.329972
-0.469342
-0.0637077
0.108234
-0.316898
0.419285
-0.373867
0.302181
-0.468467
-0.263958
0.00113348
-0.135792
-0.142386
0.642112
0.907765
0.34179
0.259725
-0.319595
-0.590458
-0.0935159
-0.220623
-0.381829
-0.616227
-0.750074
1.21984
0.745366
-0.196487
0.752335
-0.320496
-0.339676
0.0837729
-0.219703
0.351853
-0.132962
-0.0924751
-0.12581
0.270012
-0.202298
0.535187
0.462537
0.552722
0.349284
-0.558978
-0.059505
0.20828
0.870117
-0.699524
0.781053
-0.613354
0.468055
0.611048
0.228448
0.831428
0.34462
-0.365421
-0.155676
0.468006
-0.00470954
-0.0533557
0.556331
-0.396786
-0.746744
0.689473
-0.167942
0.555827
0.572296
0.519399
0.241753
-0.258375
0.260783
0.761468
-0.314649
-0.368632
0.30107
-0.259243
-0.357882
0.190188
0.441106
0.151681
1.09149
1.20899
-0.720076
1.05135
0.0248393
-0.901672
-0.110996
-0.000203833
0.215222
0.25128
1.03057
-0.33866
0.417995
0.608496
-0.667873
0.521859
0.938321
0.632807
0.487322
0.411408
0.650813
0.782546
-0.15085
-0.167798
0.813713
0.514703
-0.194937
0.272811
-0.13313
0.249626
-0.726535
1.44901
-0.248754
-0.0275694
0.0680462
0.214388
0.0123944
0.420725
1.05179
0.0510613
0.670811
-0.393476
0.57324
-0.333366
0.71965
0.35235
-1.08979
0.949493
0.00268939
-0.0810616
0.199778
0.141837
0.360456
0.367961
1.21522
0.956639
-0.0427666
0.471124
0.235309
0.50737
0.122201
-0.104876
-0.0749075
-0.294649
-0.597026
0.184791
0.217083
0.265156
-0.310517
0.497413
0.498061
-0.0810263
1.47071
-0.364495
0.387717
0.0383705
0.677414
0.255657
0.956051
0.112352
0.0963367
1.18535
-0.49889
0.388051
1.0437
0.73067
0.916788
0.797509
0.0776377
0.127244
-0.126184
-0.422863
0.149025
0.233439
0.619453
0.348662
-0.553643
0.288196
0.472383
0.248126
0.372899
1.47782
1.17364
0.305574
0.290566
0.281455
0.664326
1.33791
0.127066
0.842718
0.701776
0.0171292
0.977118
0.324965
0.293083
0.634191
-0.250374
0.160831
-0.0889428
0.183599
0.0187861
-0.251495
1.32488
0.0258022
0.530744
0.788448
0.234649
0.439573
0.320333
1.03885
0.866218
0.282738
1.56397
-1.21939
1.16148
0.0515782
0.437193
1.04368
-0.368372
0.464516
0.299857
0.0616872
-0.352687
0.343822
-0.0134077
-0.0123387
0.0992933
-0.125798
-0.354662
0.133353
1.00403
0.18237
-0.179811
0.411591
1.4744
0.450604
0.928773
0.270142
0.419219
0.233
0.792437
-0.134172
-0.259343
0.624814
1.15938
-0.185729
-0.0342755
-0.87944
-0.332163
-0.0576281
-0.578208
0.407439
0.305091
0.0738724
-0.163527
0.567749
0.13173
-0.222917
-0.13976
-0.511309
-0.525596
0.296244
0.639825
-0.41999
-0.292036
-0.29705
-0.442244
0.70163
0.037559
1.018
-0.0223972
-1.01018
-0.805649
0.047525
-0.588255
-0.692271
0.284351
-0.0951061
0.211958
-0.489421
-0.0906402
0.450714
-0.521754
0.169977
0.0171335
-0.187089
0.131389
0.332846
-0.347554
-0.784551
-0.668824
-0.519226
-0.0742657
-0.380582
-0.651816
-0.427244
-0.41601
0.069278
-1.33588
-0.866953
-0.906538
-0.916103
-0.202924
-0.0520855
-0.415433
-0.125578
-0.176194
-0.0417355
0.231844
-0.126075
-0.0204929
-0.25536
-0.000645788
0.129818
-0.275325
0.498405
-0.0482111
-0.495578
-0.774065
-0.392312
-0.0117326
-0.252906
-0.260726
-2.0177
-1.7001
-1.12421
-0.417261
-0.661522
0.145866
-0.319553
-0.213616
-0.272888
-0.0990771
-0.191307
-0.190605
0.501336
-0.0362492
0.14322
0.128065
-0.292709
0.515947
-0.113047
-0.0615137
-0.533273
0.48552
0.47441
-0.0140943
-0.385521
0.126772
-0.0271702
-0.483994
0.0726309
-0.755343
-0.492158
-0.34673
-0.857306
-0.548621
-0.180407
-0.189167
-0.419956
-0.0670908
-0.275239
-0.12619
0.367889
0.585882
-0.477779
0.10343
-0.123538
0.117124
-0.355551
0.0965613
0.180996
0.045302
-0.0913955
-0.05301
0.150307
-0.494518
-0.561684
-0.0234331
-0.207018
0.0469548
-0.230981
-0.277847
0.419036
0.240009
0.556929
0.531869
-0.0641719
-0.0577487
-0.0353315
-0.412065
-0.370844
-0.457725
-0.0507356
0.333842
-0.228715
0.0724153
0.467739
0.126691
-0.467575
0.217325
-0.402535
-0.389686
-0.0264986
0.168073
0.263362
-0.327656
0.0721834
0.15442
-0.0353539
-0.303365
-0.400608
0.189313
0.315407
-0.247576
0.246747
0.19815
0.00671139
-0.147665
0.0359735
0.178759
0.260879
