-0.55574
0.245746
-0.166815
-0.822759
-0.351713
-0.185414
-0.337801
-0.0659941
0.104458
-0.397765
-0.151044
-0.187717
-0.134142
-0.081625
-0.439586
-0.322291
0.268746
0.464849
0.473859
-0.0650529
0.717311
0.0974199
-0.262415
0.173564
-0.271902
0.326436
-0.17484
0.304519
0.150568
-0.224964
-0.0800242
-0.0927108
-0.13701
-0.152998
-0.320168
0.0563475
0.153773
-0.222119
-0.316674
0.275847
-0.310345
0.100155
0.349224
-0.190506
-0.302861
0.322865
-0.414011
0.0475015
-0.21041
-0.458523
-0.0783032
0.040403
0.229774
-0.360969
0.432694
-0.0757403
-0.214226
0.104348
0.452691
-0.692669
0.207944
0.420403
-0.160901
0.0117323
-0.160849
0.297982
-0.00544917
0.0461913
0.249709
-0.320842
0.280807
0.0260087
0.125078
-0.400365
0.119617
-0.153383
-0.126037
-0.394978
-0.0212198
-0.0181222
-0.14306
0.0706326
-0.528528
-0.752005
0.0868166
-0.249613
0.962357
0.0432381
0.0212419
-0.40884
0.0265892
0.2843
-0.501467
-0.286094
-0.14908
-0.981165
-0.272285
0.475416
0.206572
-0.762423
-0.472667
0.151728
-0.350533
-0.3866
-0.152174
-0.465138
0.22032
0.258614
-0.195873
0.0814393
0.0039884
0.0613686
-0.0379448
0.375281
0.712839
0.0898038
0.159776
0.524401
0.00424552
0.40731
0.841365
-0.307977
0.50592
0.0699809
-0.291632
0.556312
0.31094
-0.469335
-0.666392
-0.0699289
-0.900445
-1.16131
-0.799147
-0.0807483
0.385619
-0.00996063
-0.198451
-0.569929
0.268585
-0.0338481
0.195338
0.293059
0.281017
0.33507
0.356271
-0.111021
0.544677
0.282754
-0.00185963
-0.0447044
-0.832979
-0.420627
0.611908
0.0936305
-0.418466
1.24677
-0.12525
-0.150093
-0.365476
-1.04277
-1.03294
-0.200838
-0.635213
0.155584
-0.0589458
-0.333989
0.188786
-0.126581
-0.354395
0.1939
-0.323376
-0.0830477
0.201038
-0.132287
0.207459
0.381973
-0.369148
0.637358
0.614148
0.439448
0.245324
0.377855
-0.0318299
-0.0655305
0.0242724
-0.493134
-0.551422
-1.11308
-1.72422
-0.0595302
-0.94111
-0.0998238
-0.429689
-0.0833731
0.294186
-0.176817
-0.0891072
-0.0679429
0.318333
0.403097
0.295683
-0.317879
-0.451148
0.177124
-0.512148
-0.565869
-0.239546
-0.199956
-0.321575
-0.280487
-0.338177
0.362717
0.255107
-0.502576
-0.225137
-1.45708
-0.973064
-0.474323
-0.841054
0.0309509
0.155819
-0.148543
0.0609085
-0.0159225
0.235656
0.280142
-0.251808
-0.477474
0.551097
0.225692
-0.016233
0.457483
-0.461041
-0.727552
0.645378
-0.993124
0.304917
0.473904
1.02492
1.07173
0.391277
-0.174615
-0.6391
-1.03699
-0.7365
-0.320737
-0.557505
-0.0570493
-0.302846
-0.352819
-0.236821
-0.049714
-0.559936
0.200749
-0.153227
-0.193906
-0.058081
0.393808
1.20679
0.46624
-0.0985933
-0.108556
-0.33434
-0.119531
0.340375
0.570503
1.86994
0.308646
-0.424461
0.436322
-0.907657
-0.950008
-1.30328
-0.595746
0.501257
0.210498
-0.118561
-0.299232
0.196489
-0.599785
-0.309977
-0.0892391
0.552759
-0.120527
0.194597
0.745438
-0.370271
0.547591
-0.12569
0.347366
1.09088
0.845662
0.664636
1.07726
2.20292
0.245258
0.11721
-0.627798
-1.7742
0.220811
-0.429873
-0.14966
-0.265364
-0.122089
0.716174
-0.284783
-0.254074
0.173181
0.965385
-0.0092161
0.134181
-0.289816
0.0862516
0.356786
0.108841
0.101133
0.553953
-0.863847
0.200196
0.295407
0.419796
0.0180027
1.12006
-0.149843
0.211599
-1.58866
-0.751575
-0.310291
-0.325442
-0.0172951
0.00973554
-0.345418
-0.337265
-0.0331772
-0.129237
-0.0779508
-0.332904
-0.0557298
-0.412616
-0.639675
-0.421083
0.416102
0.0911691
0.0965725
-0.611906
-0.215963
-0.281268
0.471167
0.430701
0.483452
0.370831
-0.495958
0.527013
-0.936514
-0.277561
0.026922
0.0392859
-0.268575
0.0685636
-0.416054
0.215556
0.278101
0.132486
0.286669
0.0394749
-0.0308472
-0.32671
0.261236
-0.777849
0.411457
-0.0126373
0.094159
0.334093
-0.137474
-0.374384
-0.231485
-0.702925
-0.17169
0.0760268
-0.356502
-0.0215127
-0.594737
-0.0913918
-0.627827
0.34619
-0.0337837
-0.319758
-0.200873
-0.306366
-0.217313
-0.284458
0.304702
0.690451
0.127996
0.42342
0.381692
-0.349958
-0.111432
-0.0951083
-0.365062
-0.031493
0.590042
0.209125
-0.649179
0.0581826
-0.542755
0.6544
-0.705801
-0.668588
0.430267
0.182582
0.140568
-0.511605
0.378106
0.100408
-0.233742
-0.191985
-0.203544
0.328788
-0.47779
-0.021072
0.0460757
-0.249893
-0.0326424
-0.170557
-0.75237
-0.330234
-0.007449
0.118632
0.0759541
-0.413046
0.14215
0.105765
0.403589
0.452826
-0.927967
-0.221041
-0.593825
-0.318376
0.434093
0.304699
0.00128712
0.956256
0.575774
-0.174714
0.883402
0.660062
0.13537
-0.186633
-0.267826
-0.0295854
-0.18388
0.677181
-0.834239
-0.674809
0.00309229
-0.308375
0.386792
-0.365091
0.513532
-0.276229
0.133852
0.517401
-0.408888
0.730599
-0.797865
0.0608844
0.343648
0.41245
1.32274
0.207497
-0.121547
0.342314
0.230141
0.513968
0.171269
-0.46258
-0.138133
-0.298461
-0.263487
0.136164
0.275934
0.11234
0.0366048
-0.00447497
0.601105
0.0521297
-0.608417
-0.199256
0.324948
0.492273
-0.285491
-0.482216
-0.228905
-0.610306
0.0454915
0.697469
0.914162
1.07539
0.506609
0.435275
0.25844
0.569535
0.0250911
-0.0651149
-0.421742
0.509888
0.127187
0.301561
0.0821371
0.84916
-0.345293
-0.144376
-0.38447
-0.0205142
-0.774329
-1.33076
0.611719
0.21314
0.292893
-0.918417
0.566283
0.272788
-0.0817192
-0.890926
0.317363
0.143345
0.108359
-0.37518
-0.0808599
-0.527264
0.146776
-0.499871
-0.285445
-0.241143
-0.283247
0.0208138
-0.433097
0.247058
0.142153
0.104654
-1.00569
-0.989247
-0.342195
0.413485
0.235479
0.462773
0.754104
0.2027
-0.0180521
0.0377986
0.223701
-0.336937
-0.871501
-0.314068
-0.203208
0.0887082
0.241204
1.21608
0.0408976
0.529243
-0.149133
0.23888
-0.164489
-0.0560453
-0.54616
0.10451
0.133513
0.211665
-0.496111
0.0158968
-0.652552
0.210471
-0.590043
0.169153
-0.209835
1.06395
0.0821909
0.607376
-0.143168
-0.262385
-0.641272
-0.129779
-1.05387
-0.534988
0.406701
0.190354
0.284042
0.267766
0.30565
0.0716703
0.0451687
0.0476653
0.0152146
-0.843978
-0.632129
0.63969
-0.122899
0.313599
0.152459
-0.497741
-0.970028
0.215117
0.198624
0.41309
-0.491518
0.400624
0.273037
0.128697
-0.702645
-1.20501
-0.582303
0.239225
0.644858
0.459539
-0.159306
-0.410504
0.0192645
0.552078
-0.270391
0.141668
-0.543624
-0.672868
-0.345579
-0.618051
-0.338513
0.334123
0.0165911
0.869773
-0.403162
-0.180719
-0.161039
-0.628864
0.279251
0.578623
0.698801
0.592362
0.0188391
-0.527131
-0.334621
0.576172
-0.167231
-0.101777
0.0542398
0.148323
-0.175588
0.341723
-0.30211
0.0850043
-0.06406
-0.313705
-0.29625
-0.115683
-0.565763
0.0596886
-0.167966
0.296177
-0.957241
0.323013
-0.162984
0.0419427
0.285016
-0.59547
-0.116816
0.207968
-0.69308
-0.792487
-0.648746
0.0578784
0.146095
-0.333364
-0.146711
0.183217
-0.528236
-0.107691
-0.00989641
0.215844
0.129633
-0.279037
0.837118
0.23099
-0.125915
0.220284
0.193881
-0.590355
-0.328664
-0.123318
0.0184933
-0.321904
-0.0786866
-1.03743
0.537663
-0.783738
-0.340191
-0.439701
-0.143711
0.219665
-0.168295
0.436811
0.184324
0.514533
-0.456425
-0.0746861
0.262132
-0.103264
0.0101125
0.101087
-0.109697
-0.227334
0.112439
0.00938697
0.0300579
-0.522335
-0.405487
-0.332192
-0.204698
0.0733127
-0.127771
-0.149591
-0.582636
-0.1434
-0.328949
0.0802834
0.389268
0.0784953
-0.0970037
0.441015
0.0276317
0.181584
-0.419186
-0.032113
0.0665072
-0.046732
0.016433
-0.00240105
-0.215431
-0.0645349
0.317857
-0.306651
0.115079
-0.102063
-0.20486
-0.350981
-0.434525
-0.417428
-0.381609
0.281407
-0.0650004
-0.203608
-0.396778
-0.551686
-0.0301965
-0.240279
-0.167367
0.177703
-0.338718
-0.108868
-0.0569735
0.199892
0.233889
-0.454533
-0.591428
-0.20852
-0.0420909
-0.689167
-0.111577
0.0796829
-0.114126
-0.3987
0.0980484
-0.451737
-0.211185
0.195247
-0.14053
0.246846
0.491222
-0.392012
-0.643844
-0.482295
0.45746
-0.167976
0.426085
0.429505
-0.461394
