-0.08883
0.205078
0.464364
0.0412937
-0.151929
-0.793625
0.120408
0.33099
0.0642413
0.563785
-0.00109123
0.262148
0.425547
0.538674
-0.144256
-0.0672854
-0.276576
-0.112259
0.200365
-0.0610207
0.325544
-0.0183345
0.409152
0.0842892
0.0199702
0.265269
0.346706
-0.0220391
-0.0780704
0.142641
0.0666258
0.22957
0.298619
0.373233
-0.313633
0.261842
0.332993
0.413052
0.265122
-0.178354
-0.108026
0.927967
0.400935
-0.450761
-0.175458
0.0904766
-0.165908
0.116955
0.0987644
-0.717041
0.500487
-0.718301
0.393717
-0.0707211
0.126108
-0.0481966
0.142126
-0.139285
0.00455226
-0.22045
0.132738
0.0653409
-0.231458
0.0500321
0.0972831
0.0144904
-0.00243405
0.239245
0.0811707
0.390868
-0.204664
-0.149716
0.115682
-0.000464374
-0.0745455
0.175455
-0.253173
-0.132109
0.0615576
0.254711
0.729158
0.0291203
-0.157705
-0.110252
-0.0131607
-0.293691
-0.00634515
-0.0203096
-0.459453
0.117078
-0.335171
0.230763
0.477273
0.517082
0.295404
0.567831
0.840816
0.515552
-0.266171
-0.18086
-0.766127
0.00725987
0.287081
0.221945
0.0150587
-0.0426818
0.0516404
-0.249313
-0.822444
-0.54292
0.0317559
0.188619
-0.274456
-0.142319
0.046639
0.269749
-0.0308408
0.418293
0.0508724
0.202624
0.316174
-0.118077
-0.371755
0.355855
-1.00731
-1.06813
-0.147206
-1.43548
-1.08073
-0.126896
-0.307083
-0.244726
-0.222593
-0.104762
0.0943959
-0.297031
0.232475
-0.0779245
-0.0310026
-0.208226
-0.470408
0.0294966
-0.385993
0.0526943
-0.494034
0.240078
0.0512822
-0.321035
0.664658
0.484355
0.22579
-0.420619
-0.0701741
-0.0778552
-0.367056
0.311085
0.130108
-1.35435
-0.128673
-0.553217
-0.8107
-0.448249
-0.126984
-0.692971
-0.62588
-0.39348
-0.148992
-0.171168
-0.56131
0.497832
-0.280876
-0.490525
-0.689024
-0.594783
-0.639086
-0.563888
-0.0521875
0.358332
0.338482
0.510278
0.165298
0.657855
1.05185
0.582679
0.632225
0.725456
0.0369001
0.775812
0.0979747
0.167424
0.0340347
-0.837569
-0.769524
-0.372667
-0.107053
-0.279772
-0.0668103
-0.155761
0.568772
0.268568
-0.998963
-0.804597
-0.329209
0.567386
0.314874
0.318275
0.571164
0.278838
1.24342
0.838202
0.527246
0.803995
1.71654
0.490014
1.32853
-0.757255
0.403699
0.203815
-0.202009
-0.47135
-1.20714
-1.30137
-0.282894
0.421206
-0.0296169
0.234281
0.0268946
0.165862
-0.246802
-0.704209
-0.154906
-0.587001
0.105762
-0.0763229
-0.0186056
0.950527
-0.494056
0.567784
1.94706
0.32954
0.249098
-0.0783363
0.00365529
0.0727178
0.315383
-0.0600515
0.192702
-0.943326
-0.234763
-1.10744
-0.39154
-0.283816
0.017937
-0.0146193
0.225938
0.610581
0.164895
-0.545417
0.677563
0.765121
0.486502
0.385883
0.866906
1.4109
0.558879
1.52664
0.643934
1.44447
-0.431576
0.663215
0.415469
0.176705
-0.183821
-0.165599
0.0308596
-0.473408
-0.0572892
-0.29756
-0.2347
0.400792
-0.124084
-0.0921351
0.17705
0.111942
0.112357
-0.515657
-0.383238
-0.0605327
0.451983
0.19134
0.258299
-0.0772334
-0.565378
0.496462
0.361281
-0.108956
0.343131
-0.549883
-0.627284
0.806935
-0.055181
0.0577179
-0.649837
0.224139
1.00966
-0.364441
0.0745367
-0.337091
0.197307
0.173783
0.0421617
-0.555804
0.344819
0.399681
1.13587
0.500122
0.46728
-0.599229
0.0960335
0.780956
0.0129814
1.09101
-0.162665
-0.00278603
-0.00133762
0.427047
0.804713
-0.347584
0.97368
0.0933033
0.0888827
0.188648
0.851108
0.476439
-0.468238
0.270931
-0.205426
0.368647
-0.27527
-0.361141
0.953618
0.539547
0.371851
1.17498
-0.0952839
0.432939
-0.998223
-1.41862
-1.45893
-1.40662
0.166283
0.126125
0.307834
0.878584
0.390923
0.310108
0.532848
0.700109
0.918201
0.649555
0.123917
-0.200198
0.376709
-0.114029
-0.168016
-0.126592
0.0201277
-0.44627
1.14182
0.459892
-0.574553
-0.474604
0.730579
-0.626499
-0.087771
-0.300048
-1.03582
-0.288026
1.37772
0.0350844
0.261409
0.394996
0.299311
-0.154632
0.371594
-0.136203
-0.0820227
-1.17606
-0.289766
-0.0492779
-0.602383
0.0296895
0.403827
-0.136105
-0.0511374
-0.294553
0.187873
0.268681
0.492437
-0.2347
-0.123461
-1.15075
-0.390313
-0.461458
-1.81989
-0.147437
0.0782932
0.827354
0.560201
-0.599837
0.0559405
-0.0874889
0.268589
-0.0504411
0.648855
-0.941707
-0.0619346
0.108232
0.172254
0.119372
-0.417174
0.109242
0.0612471
-0.327477
0.356728
-0.33896
-0.0430643
-0.581715
-0.571048
-0.599415
0.752268
-0.192507
-0.104785
-0.283335
-0.27219
0.107429
0.100119
0.898179
0.892676
0.327223
0.22089
0.335193
-0.348357
-0.603382
-0.0245854
-0.541203
-0.274007
0.0311717
0.271204
-0.181625
-0.255022
-0.0568365
0.26136
-0.623018
0.351821
-0.649723
-0.281868
-0.61568
0.0554818
0.190549
0.0464082
-0.265204
-0.339086
-0.0602832
0.469519
0.0103154
-1.03364
-0.800996
-0.0376227
-0.413695
-0.394117
-0.998721
-0.482043
-0.383012
-0.0303532
-0.0962539
0.412961
-0.178747
0.309712
0.234723
-0.427921
-0.161024
-0.636269
-0.497306
0.976001
0.146408
-0.802649
0.193497
0.222079
-0.381369
-0.0210621
0.604293
-0.132879
0.269362
0.229645
0.74014
-0.727579
-0.168806
-0.343238
0.276934
-0.519424
-0.0887779
0.0363511
0.0277102
-0.0449922
0.261481
-0.49212
-0.241594
-0.454401
-0.31127
0.227621
-0.710818
0.55763
-0.501033
1.71809
0.51841
-1.22566
0.0973554
-0.0853843
0.543909
-0.381685
1.06169
0.0253795
-0.204247
0.279114
-0.322753
-0.845318
0.284333
-0.131201
-0.487134
0.10442
0.0138823
0.0829756
-0.35127
-0.896832
-0.112834
-0.79586
-0.242921
-0.390565
0.526014
0.51575
-0.896044
0.255913
-0.511461
0.850717
-0.810647
-0.218287
-0.958229
-0.0906234
-0.422685
-0.00978541
0.302061
-0.678521
0.145981
-0.748425
-0.263303
0.388201
0.390258
-0.0182927
0.326922
0.360921
-0.0206089
-0.119986
-0.101317
-0.5392
-0.781983
-0.283905
-0.730408
-0.501668
-0.820597
-0.472392
-0.141343
-0.741566
0.672029
-0.276601
-1.61774
-0.619054
-0.745807
-0.896481
0.141616
-0.653248
-0.682909
0.293961
-0.115197
0.986114
0.493264
0.00632733
0.426628
0.348986
0.640678
0.0632488
0.0225977
-1.05106
-1.45641
-0.79875
-0.476784
-0.864185
-0.4443
-0.556318
-1.43238
0.0534009
-1.01904
-0.324825
0.290262
-0.0237008
-0.996872
-0.629446
-0.712021
-0.426779
-0.67803
-0.460231
-0.142644
0.485123
0.338918
0.0741657
0.263233
0.183454
-0.236124
-0.383777
-0.237773
-0.279561
-0.235533
-0.143869
-0.368982
0.519122
-0.362587
-0.24246
-0.388721
0.464032
-0.735747
0.599117
-0.641311
-0.731893
-0.830865
-0.786552
-1.31379
-0.41917
-1.11923
-0.00536489
0.132576
0.0300438
0.0751368
-0.22007
0.273245
0.374555
0.15289
-0.407004
-0.565041
0.0977859
0.229285
-0.65922
0.351339
0.348766
-0.851597
-0.638397
-0.643596
-0.946383
0.469789
-1.18197
-0.295666
-0.507622
-0.224929
-0.394604
0.49564
-0.402614
0.0587383
0.430825
0.448173
0.400734
-0.225688
0.312071
-0.426431
-0.449873
0.198517
0.0175836
0.00630052
0.321677
0.307384
0.166364
-0.0640059
0.764245
-0.344146
0.587471
0.145151
-1.05402
-0.833686
-0.126932
0.570784
-0.566314
0.0672307
-0.360608
-0.105268
0.411526
1.03363
1.1371
0.224194
0.450247
-0.823374
0.250904
0.259587
0.0659072
0.316198
0.105874
0.26461
0.539529
0.788312
0.580023
0.682564
1.37669
0.308457
-0.245756
0.224226
0.603304
0.579637
1.10005
-0.0659658
0.0578879
0.545479
0.286096
0.927483
0.528124
0.796385
0.559904
-0.0225168
0.714308
-0.429465
-0.171783
0.384068
-0.151702
-0.108088
0.243264
-0.224857
-0.200744
0.353093
1.60889
0.640562
0.732532
0.78262
1.20937
0.90335
0.556193
0.269532
1.77752
0.821775
0.488961
1.14891
1.23818
1.13769
0.461588
0.777426
0.0833998
-0.413021
0.172677
0.676916
-0.326416
-0.0503407
0.175086
-0.289645
0.0800569
0.506836
-0.25835
0.0332023
0.0593879
-0.202668
0.249845
-0.134413
0.551309
-0.356824
0.155015
0.195915
0.54346
0.265799
0.342346
0.275594
0.421823
-0.0898849
-0.575053
0.126067
0.136676
0.238961
0.383292
-0.25237
-0.191346
-0.569067
