-0.00568557
0.482696
-0.0593815
-0.254275
0.202025
0.266758
0.23449
-0.222794
0.26973
0.238157
0.161927
-0.0718787
0.270637
0.231422
-0.291566
-0.475014
-0.0519768
0.125243
0.0318352
0.0422939
0.280179
0.142034
-0.0471383
-0.285738
-0.422712
0.487994
-0.291362
0.143909
-0.115066
-0.104326
0.1265
-0.111164
-0.181519
0.205979
-0.5421
-0.202
0.162088
-0.365053
0.232977
0.189768
0.157257
-0.390692
-0.26805
0.0683169
-0.101392
-0.114107
-0.0606882
-0.218924
-0.465695
0.189043
0.0919082
-0.113807
-0.469404
0.445834
-0.335498
-0.329549
-0.40043
0.0319669
0.110128
-0.0397474
-0.374572
-0.708462
-0.591477
0.161958
-0.0925964
-0.0157622
-0.163618
-0.371708
0.340295
-0.389025
-0.094895
0.501361
0.0379836
0.385708
0.0772058
0.00157721
-0.511059
0.323409
0.0145527
0.0141104
-0.180835
0.904744
-0.360613
-0.0195763
0.0323015
-0.166818
0.0898621
-0.298697
0.448797
0.140142
-0.69842
-0.437626
-0.352836
0.24643
-0.901323
-0.996107
-0.454329
-0.419338
-0.515129
-0.203702
-0.313167
-0.509675
0.0047973
-0.160954
0.860927
0.582727
-0.331964
-0.547634
-0.191493
0.536075
-0.29462
-0.125577
0.459055
0.100236
0.154047
-0.227831
0.155394
-0.527836
0.570041
0.573557
0.297208
0.178016
-0.64219
0.919333
0.385353
0.0576903
-0.194997
1.51775
-0.0386027
-0.00763732
0.690132
-0.564621
-0.0151222
0.874664
0.111871
0.372464
1.3339
0.0909623
0.387131
0.342334
-0.22458
-0.393944
-0.0546165
-0.312923
-0.544581
0.18278
0.509698
0.410006
0.0051344
-0.486053
-0.0668847
-0.0277155
-0.625194
0.314075
0.304814
1.05438
0.336256
0.112447
0.677645
0.142807
0.078428
0.341041
0.598961
0.155118
0.7514
0.126944
-0.216768
-0.155851
0.227066
0.045255
0.53108
0.425514
0.979155
0.538972
0.653596
-0.18783
-0.769957
0.406724
0.19605
-0.00732483
0.21706
0.0571563
-0.370152
-0.0837116
0.501376
-0.512327
-0.0863743
-0.57685
-0.188862
-0.0807187
0.633009
0.596823
0.509117
0.394829
-0.0487482
-0.411361
0.200743
-0.223559
0.816387
0.665466
0.533062
0.985737
0.0296805
-0.320108
0.260401
-0.431373
0.243969
-0.325255
0.99721
-0.166578
1.00065
-0.149259
-0.457865
0.337269
0.400509
0.572703
0.640427
0.23531
-0.0759716
0.483185
0.648073
0.570999
0.233062
-0.716749
-0.173184
-0.233348
0.445068
-0.0174391
-0.179193
-0.101167
0.233301
0.0816265
-0.485077
-0.126878
-0.294645
0.485331
-0.33646
-0.0074676
0.0726486
0.242031
-0.153849
-0.237061
0.30096
0.785269
0.127884
1.07121
0.259696
0.0837707
1.44628
0.940345
-0.451305
0.229376
-0.147334
0.413982
0.143928
0.550439
-0.545712
-0.545897
-0.147018
0.47714
-0.0302358
0.149405
0.0567428
0.283745
0.129828
0.329927
0.083125
0.301483
0.138044
-0.988159
-0.596786
-1.08004
-0.621978
-0.550415
0.689338
0.850508
1.19992
1.36573
0.437953
0.0947273
-0.13033
-0.0813844
0.212924
0.183834
-0.327173
0.170768
0.226881
0.837795
0.00462758
0.220781
-0.0734197
-0.323949
0.136727
-0.0524652
1.02389
-0.858452
-0.0693869
-0.220653
0.102845
-1.07459
-0.236862
0.123436
-0.584279
-0.721653
-0.0545093
0.371774
-0.161245
0.036344
-0.0910077
0.195907
0.126998
-0.0957577
0.762475
0.834522
-0.307978
-0.0721042
-0.465608
-0.232209
-0.35353
0.0996499
0.23246
-0.728139
0.611518
-0.525168
0.0385644
-0.020071
0.0341672
0.210544
-0.543826
-1.69773
-2.02359
-1.92636
-1.0842
-0.296565
-0.303268
-0.230413
0.0744369
-0.00937588
0.0216845
-0.202519
0.0499983
-0.173815
-1.18359
-0.197035
-0.172622
-0.884581
0.0531113
-0.639077
0.229191
0.731327
0.767918
0.219878
0.296549
-0.12491
-0.0856479
-0.743237
0.063134
-0.632385
-1.79361
-1.41799
-0.925363
-0.0524893
-0.451678
0.298474
0.451054
-0.0145601
0.026767
0.420099
0.0576307
0.233865
-0.0647807
0.247874
0.417324
0.659879
-0.170348
0.533984
0.250619
0.843185
-0.320322
-0.0983852
0.578308
-0.485128
-0.00620491
-0.237116
-0.745806
-0.758152
-1.04308
-0.460679
-1.05696
0.255754
0.0641091
-0.0792301
0.0799975
-0.136979
-0.278035
0.264397
-0.400773
-0.609973
-0.690151
-0.569854
0.0394772
-0.275782
-0.185481
-0.200346
0.0894726
-0.0932219
0.947521
0.163965
-0.363984
-0.342802
-0.158182
-0.249554
-0.471971
0.988197
-1.03175
-0.183526
-0.419293
0.503735
0.37485
-0.381294
-0.262697
0.130624
-0.303619
0.180613
-0.460772
-0.942404
-2.58244
-1.27714
-1.53581
0.942918
0.912686
-0.257721
1.18121
-0.103733
0.0330653
0.092601
0.233386
-0.311107
-0.375514
0.425897
0.00769395
0.850758
0.267018
0.19343
-0.578717
-0.218613
0.362979
-0.251303
-0.135126
0.307706
-0.116978
-0.183424
-0.163448
-0.722897
-1.52631
-2.5078
-2.83174
-2.32562
-0.817348
-0.174432
0.372692
1.65773
0.14154
-0.657491
-1.17049
0.577924
-0.490898
1.04637
0.133247
0.533438
0.893096
-0.806732
-0.19156
-0.0120412
0.416471
0.343635
0.565662
0.34392
-0.359717
-0.0876493
0.1985
0.51831
-0.733025
-1.27913
-1.92567
-3.92955
-3.85552
-3.43798
-2.26148
-1.88551
-1.08101
-0.805218
-1.01769
-0.747588
-0.526252
-0.0420249
-0.229391
-0.267043
0.155416
-0.470173
-0.809129
-0.141855
-0.306198
0.0602148
0.0253661
-0.31884
0.117146
0.942725
1.59546
0.673969
0.477368
0.328113
0.545621
-0.60082
-1.24742
-2.82912
-3.40883
-1.85974
-0.954473
0.704326
0.715514
0.472915
0.959363
0.67387
-0.0773892
1.0059
0.726394
-0.602108
0.125488
-0.341819
-0.16136
0.0403865
0.20367
-0.379333
-0.490361
1.66232
1.24153
-0.140126
1.11321
-0.0279166
1.0244
-0.19639
0.705353
0.718387
0.206581
0.641101
-0.0820006
-0.199109
0.688368
-0.95331
-0.12021
0.1152
0.387729
-0.0919786
0.650803
0.0554854
-0.086429
0.296238
-0.00680631
-0.62923
-0.102772
-0.232146
-0.514626
-0.28649
0.760615
-0.0711616
1.24944
0.426979
0.640368
1.08133
0.375618
0.768972
-0.0905882
0.164399
-0.204694
-0.648301
0.0129771
1.04898
0.159983
-0.38895
0.644119
-0.224661
0.628363
0.53823
-0.157904
0.092201
0.198618
0.277048
-0.468926
-0.293301
-0.465153
0.316405
0.369192
1.3846
0.342223
1.57124
1.23336
0.444936
0.995269
0.430609
0.783031
0.847039
0.390367
0.033067
0.0293578
-0.409882
0.101578
0.662743
0.314275
0.498498
-0.177339
-0.280017
0.141052
0.303472
-0.130386
-0.0188157
-0.343696
0.139515
-0.506575
0.140783
0.0502663
0.766847
0.179386
-1.17882
-0.230808
-0.165709
-0.193584
-0.283726
1.49159
-0.680641
0.965949
-0.159025
-0.486783
0.370803
0.0960419
-0.225033
-0.311001
-0.119009
0.0300573
0.136236
0.0170624
-0.29012
0.336146
-0.131483
0.356331
0.0348226
0.0992977
0.429711
0.524135
0.313422
-0.368498
-0.980627
-0.100392
0.43053
0.354998
0.313373
-0.557177
-0.537891
0.635046
0.413798
-0.107302
0.96566
-0.454751
-0.408592
0.870297
0.595973
-0.275821
-0.815988
-0.196842
0.0654332
0.127013
0.331043
-0.0438465
0.501944
-0.0555542
0.507722
0.1533
-0.129576
0.727177
0.712351
0.952992
0.321466
0.840152
0.462365
0.0631102
1.62106
-0.402635
-0.841155
0.883696
0.102612
-0.619138
-0.28739
0.313468
0.476586
-0.670066
-0.307002
-0.332138
-0.65081
0.0877221
-0.0541895
0.198478
0.493407
0.102829
0.255629
-0.0863697
-0.144318
0.800423
1.46867
0.740198
0.408184
0.235288
1.04411
-0.108388
0.917019
-0.240037
0.639568
0.646423
-0.45375
0.262
0.637864
-0.634941
-0.131905
0.225553
-0.198439
0.338403
-0.274149
-0.367737
-0.56523
0.174925
-0.204117
-0.108312
-0.078977
-0.442555
0.492339
-0.339474
-0.47671
0.306921
-0.00535863
-0.927503
0.264966
-0.157547
0.149482
-0.598048
0.114951
0.403173
-0.183114
-0.842895
0.356634
0.052807
0.123227
0.316655
0.219799
-0.410089
0.710253
-0.22406
-0.797142
0.353675
-0.180365
-0.483954
-0.364791
0.166256
0.337618
-0.226188
-0.620754
-0.380694
-0.146276
-0.533179
0.0326013
-0.289177
-0.431239
0.205565
-0.313455
-0.0393104
0.262631
-0.115505
-0.868066
-0.0756676
-0.234661
-0.0325459
0.12754
0.158718
0.162434
-0.0314659
0.50183
