0.189147
-0.135165
0.0338759
-0.309845
0.496038
-0.214457
-0.135069
0.257294
0.373832
-0.370863
-0.208954
-0.776259
-0.505192
0.0415433
-0.441969
0.349342
-0.245548
0.0735951
0.203002
-0.163843
-0.369044
-0.219202
0.11107
0.0789192
0.560633
-0.00693161
0.237536
0.00494121
-0.0305688
0.195974
0.0732454
0.726599
0.181631
-0.177792
-0.120951
0.266651
-0.437858
0.323142
0.309896
-0.254221
-0.0125506
0.354036
0.437241
0.171745
0.492565
0.0287781
0.169688
-0.166378
0.0855326
-0.127283
0.0742612
-0.276649
0.0316678
-0.139135
-0.166722
0.58058
-0.078276
0.298912
0.291836
0.00291388
0.151852
-0.183717
0.232832
0.165893
-0.613186
-0.0631933
-0.309949
-0.0394641
0.33838
0.165172
0.0661646
0.0583443
-0.01097
-0.105871
0.10653
-0.895947
0.0828725
-0.313271
0.0297927
0.102221
-0.449334
-0.0833478
-0.389719
0.0781703
0.328893
-0.0818331
-0.551703
0.120052
0.253396
0.0181443
-0.0860209
-0.294963
0.112687
-0.063011
0.0010257
-0.24902
0.880407
0.355675
0.359966
0.400155
0.61888
-0.0867089
0.508436
0.249411
-0.0811952
0.09666
-0.166216
-0.122182
0.218244
0.308565
-0.0240475
-0.0925964
0.2676
-0.0977103
0.0194331
0.444983
-0.337358
-0.00619545
-0.556252
-0.678917
-0.235898
-0.596124
0.115094
-0.346241
0.136532
0.552043
0.836776
0.891821
-0.462799
0.0760836
0.11658
-0.0322288
0.0182844
0.373834
1.19494
0.339826
-0.310249
0.385373
-0.102153
0.157286
-0.248017
0.216004
-0.131029
0.250583
-0.0394977
0.266248
0.119082
0.485145
-0.351632
-0.353321
-0.623831
0.373823
-0.527784
0.182377
0.418934
0.585458
-0.212546
0.552314
0.194606
0.38134
0.262858
0.119939
0.0402838
0.481863
0.107045
0.412356
0.00780807
0.411591
0.317987
0.153231
-0.423838
-0.356106
0.277132
0.163575
0.234692
0.132304
0.963028
0.130164
-0.309726
-0.519267
-0.10075
0.249778
-0.795803
0.626788
-0.378879
-0.572464
-0.149081
-0.166732
0.612002
-0.298033
-0.663034
-0.27829
0.71228
0.969004
0.265838
0.318649
-0.16407
0.226596
0.416198
0.380788
0.155624
-0.455351
0.294847
0.912271
0.472257
0.980276
0.281469
0.176422
0.0959501
0.372515
-0.0150208
-0.460842
-0.0932475
-0.519614
-0.140083
-0.59658
-0.427498
-0.214792
-0.231187
-0.285605
0.487766
-0.363726
0.231809
0.150425
0.0120268
0.425867
-0.610865
-0.0732329
0.134142
-0.0931168
0.114447
-0.220498
-0.432312
0.00884813
-0.376943
-0.366387
-1.26492
0.50169
0.831825
-0.247625
0.330217
0.168979
-0.102017
0.213245
0.168002
0.468438
0.032595
0.302023
0.487152
-0.178441
0.358553
-0.12454
0.37946
0.0501478
0.0513124
-0.00776644
-0.42851
-1.17973
-0.724215
-0.619813
-1.52158
0.272334
0.101779
-0.395483
0.161994
0.854763
0.129467
0.375303
-0.139276
-0.0453025
-0.356899
0.408598
0.845513
0.609624
-0.563411
-0.234107
0.109931
0.431706
-0.234049
0.344149
-0.0675441
0.462826
0.144664
0.758453
0.154651
-0.432257
-0.628091
0.228568
-0.799724
-0.138262
0.252572
0.119984
0.14989
0.911269
0.01228
0.633315
-0.376526
-0.193899
0.299707
-0.266908
-0.136436
-0.624615
-0.268385
0.993154
0.653283
-0.0149555
0.406124
0.116741
0.022754
-0.63592
-0.189963
0.231883
-0.673623
-0.634778
-0.120485
-0.132324
0.265317
0.161966
0.324193
-0.132386
0.281176
-0.343697
-0.752589
0.0992494
-0.128445
-0.190935
-0.0143591
0.0213994
0.157278
-0.703979
0.0360223
0.178706
0.0538934
0.533297
-0.318981
0.0104887
-0.128376
-0.245591
-0.0325779
0.340792
-0.0642387
-0.0577383
-0.248813
0.0778047
-0.687998
0.733855
0.0303635
-0.325817
-0.187719
-0.920495
-0.900087
-0.991669
-1.46629
-0.313575
0.0154244
0.87787
0.360962
-0.71755
-0.590948
-0.171447
-0.339239
0.0619472
0.0711199
-0.0719327
0.215562
-0.303655
-0.195792
0.0351508
-0.555766
-0.268013
0.0485166
-0.41058
-0.938565
-0.0375625
-0.292524
-0.600412
0.00178089
0.315234
0.350833
0.0663352
-0.246644
-1.03756
-1.14259
-1.01147
-1.07214
-0.519045
-0.429476
-0.236793
-0.129424
-0.502832
0.199533
0.0343942
-0.208624
-0.0316907
-0.484586
0.10605
-0.124313
-0.146973
-0.433689
-0.15964
0.200972
-0.574881
0.130979
0.298116
0.617159
-0.233333
-0.390693
-0.119016
0.297918
0.402911
-1.0557
-1.33725
-0.659524
-0.460312
0.172693
0.199669
0.0437911
-0.139258
0.270626
-0.0780705
0.450539
-0.012991
-0.0911898
-0.285135
-0.271979
0.304462
-0.0836358
0.56984
0.741107
0.584264
-0.216456
0.244637
-0.432578
0.343751
-0.668589
0.450229
-0.536565
-0.644354
-0.715647
-0.504493
-0.331644
0.0605616
0.0709001
0.533152
-0.610548
-0.554283
-0.383234
-0.0598979
0.400701
0.314007
-0.502996
-0.105832
-0.134494
0.839699
-0.517158
-0.278115
0.661702
-0.074052
0.491393
0.418453
-0.586173
-0.224568
-0.486928
0.502087
0.330723
-0.186858
0.81312
0.147563
0.39743
-0.175066
0.589768
0.476078
-0.925025
-0.478674
-0.323637
0.14332
-0.411581
0.0547827
-0.358881
-0.706726
-0.39406
0.393222
0.0469535
0.2606
-0.640759
0.323774
-0.775779
-0.171508
0.792435
-0.255944
-0.243353
0.462473
0.525208
0.97257
1.11144
0.553392
0.699306
-0.0431518
0.110067
0.486347
-0.182097
-0.282564
-0.368651
0.0840812
0.458638
-0.381056
0.288248
0.0457566
0.32006
-0.196515
-0.353009
-0.529388
-0.149523
0.0906443
0.318028
0.458001
0.0388264
-0.0611267
0.0983104
-0.00674709
0.605859
0.364392
0.186531
0.236218
0.515592
1.47517
0.189862
0.366064
-0.668695
-0.0617682
0.196092
0.199645
-0.238248
0.102904
0.131528
0.109188
0.13799
0.368365
-0.104859
-0.324667
0.156859
0.619919
0.0221606
-0.322699
-0.147763
-0.339628
-0.283889
-0.314199
0.260802
0.636631
-0.40797
-0.452564
-0.117219
-0.213721
0.499856
-0.173616
0.0519708
-0.364528
-0.0749901
-0.389465
0.196862
0.0691437
0.341095
0.598255
-0.0696168
-0.0378242
-0.231418
0.172685
-0.514067
-0.67736
-0.8531
-1.1649
-0.621694
-0.942793
-0.76259
-0.630355
-0.337137
-0.210663
0.0188611
0.49885
0.531058
0.255665
0.340624
0.00365383
0.149741
0.273784
-0.0334283
0.352831
0.196853
0.309875
-0.322809
-0.186416
-0.508797
-0.284035
-0.522361
-0.899061
-0.818379
-0.415102
-1.03502
-0.153268
-0.0977502
0.452305
0.567494
0.323332
0.145935
0.0951855
0.117302
0.526415
0.575175
0.507044
-0.0542699
-0.595992
-0.527621
0.0246942
-0.296104
0.56962
-0.507246
-0.734625
-0.358128
0.131773
0.0361172
0.0272266
0.284008
0.252736
-0.259152
0.191976
0.419766
0.297828
-0.486762
0.686421
0.411962
-0.117614
0.668642
0.858841
0.328596
0.0777129
-0.116209
0.143215
0.0295694
-0.331874
0.466936
-0.294617
0.0472113
0.178604
-0.122289
0.0605721
0.124455
-0.0999047
-0.0819579
0.308831
0.138624
0.417616
0.572518
0.961562
0.308093
0.736433
-0.106391
0.205686
0.314002
0.316036
-0.502488
-0.0729098
-0.2049
0.213221
-0.0935925
-0.512097
0.0477401
-0.190393
-0.736558
0.079273
-0.278769
-0.14704
0.0303718
0.201576
0.197753
0.121122
0.385787
-0.393414
0.2935
-0.688431
0.0422731
0.221125
0.586243
-0.231827
0.10102
0.14217
0.933365
0.597152
0.042937
-0.189357
0.167537
0.41404
0.529685
0.114834
-0.0951171
0.0142834
-0.00837056
0.191679
0.495819
-0.33521
-0.238596
-0.162141
0.0217627
0.160862
0.181696
-0.205247
0.757591
-0.017152
0.611093
-0.18952
0.512855
0.0736052
0.340294
-0.0843109
-0.328525
0.614342
-0.746831
0.0314684
0.0574158
-0.451745
-0.191491
-0.214456
-0.228832
-0.437722
-0.0804887
0.351797
-0.378393
0.669751
-0.15638
0.396855
-0.214188
-0.2089
-0.364997
-0.00333087
0.415655
-0.62034
0.430988
0.484584
-0.0579209
0.325943
-0.751833
-0.223435
-0.015922
-0.363393
-0.842812
-0.288446
-0.299808
-0.0697425
-0.214016
0.202614
-0.0189513
-0.10903
0.237652
0.110931
0.142331
-0.441745
0.0320671
0.697104
0.257621
-0.0637572
0.190068
0.23342
-0.203303
-0.26689
-0.153386
0.144276
-0.297261
0.152236
-0.286292
0.0643972
0.183385
-0.579052
-0.357311
0.472533
-0.354039
-0.0823906
0.0349458
-0.188375
-0.0151263
-0.0962249
0.0853539
-0.139492
0.440364
-0.165322
