0.189147
-0.135165
0.0338759
-0.309845
0.496038
-0.214457
-0.135069
0.257294
0.373832
-0.370863
-0.208954
-0.776259
-0.505192
0.0415433
-0.441969
0.349342
-0.245548
0.0735951
0.203002
-0.163843
-0.369044
-0.219202
0.11107
0.0789192
0.560633
-0.00693161
0.237536
0.00494121
-0.0305688
0.195974
0.0732454
0.726599
0.181631
-0.177792
-0.120951
0.266651
-0.437858
0.323142
0.309896
-0.254221
-0.0125506
0.354036
0.437241
0.171745
0.492565
0.0287781
0.169688
-0.166378
0.0855326
-0.127283
0.0742612
-0.276649
0.0316678
-0.139135
-0.166722
0.58058
-0.078276
0.298912
0.291836
0.00291388
0.151852
-0.183717
0.232832
0.165893
-0.613186
-0.0631933
-0.309949
-0.0394641
0.33838
0.165119
0.0657141
0.0574445
-0.0115642
-0.106066
0.106517
-0.895947
0.0828725
-0.313271
0.0297927
0.102221
-0.449334
-0.0833478
-0.389719
0.0781703
0.328893
-0.0818331
-0.551703
0.120052
0.253396
0.0181443
-0.0860209
-0.295067
0.112453
-0.0627845
0.00117536
-0.248673
0.880656
0.355187
0.358452
0.39837
0.617488
-0.087687
0.507875
0.249454
-0.0810251
0.0968771
-0.166216
-0.122182
0.218244
0.308565
-0.0240475
-0.0925964
0.2676
-0.0977103
0.0194331
0.444983
-0.337369
-0.0063971
-0.55637
-0.679281
-0.236403
-0.596059
0.115575
-0.346384
0.136148
0.550989
0.834992
0.889881
-0.465653
0.0720146
0.113521
-0.0330909
0.0179389
0.373805
1.19468
0.339879
-0.31009
0.385423
-0.102153
0.157286
-0.248017
0.216004
-0.131029
0.250583
-0.0394634
0.266236
0.118843
0.484638
-0.352369
-0.353141
-0.624046
0.371287
-0.530344
0.179595
0.415092
0.58185
-0.217033
0.548605
0.191247
0.381077
0.262181
0.119667
0.0400049
0.481611
0.106673
0.412003
0.00780793
0.411591
0.317987
0.153231
-0.423875
-0.356106
0.277205
0.163494
0.2343
0.131733
0.962029
0.128968
-0.31282
-0.5222
-0.103952
0.245493
-0.800978
0.620222
-0.383984
-0.57765
-0.153788
-0.169911
0.608827
-0.300598
-0.664159
-0.278932
0.711359
0.968764
0.265858
0.318649
-0.16407
0.226596
0.416198
0.380788
0.155649
-0.456191
0.293841
0.911037
0.46989
0.975718
0.275958
0.170188
0.0886145
0.367395
-0.0200797
-0.467551
-0.101486
-0.527795
-0.146963
-0.602928
-0.432611
-0.219684
-0.234365
-0.286478
0.487526
-0.363792
0.231853
0.150425
0.0120268
0.425867
-0.610865
-0.0732341
0.134349
-0.0940046
0.113476
-0.221406
-0.435271
0.00342867
-0.384481
-0.372307
-1.27019
0.497515
0.827698
-0.253904
0.321576
0.160117
-0.109805
0.206443
0.160253
0.461338
0.0272696
0.299868
0.485739
-0.178531
0.358554
-0.12454
0.37946
0.0501478
0.0513123
-0.0077561
-0.428084
-1.17984
-0.724785
-0.621115
-1.52436
0.266687
0.0936406
-0.40266
0.156153
0.849207
0.125538
0.367725
-0.149529
-0.055347
-0.363924
0.40275
0.839787
0.60439
-0.567214
-0.236647
0.10882
0.431493
-0.234048
0.344149
-0.0675441
0.462826
0.144663
0.758477
0.154752
-0.431894
-0.62814
0.226429
-0.803143
-0.145359
0.244964
0.114644
0.146178
0.908855
0.00888586
0.627935
-0.383586
-0.200193
0.295483
-0.269948
-0.139025
-0.626274
-0.269043
0.992467
0.652697
-0.0150809
0.406124
0.116741
0.022754
-0.63592
-0.189963
0.231893
-0.673708
-0.634882
-0.121286
-0.133707
0.261873
0.15466
0.317268
-0.138355
0.277896
-0.345903
-0.756207
0.0947221
-0.132715
-0.193761
-0.0162603
0.0201178
0.156596
-0.702861
0.0371601
0.178682
0.0537719
0.533241
-0.318981
0.0104887
-0.128376
-0.245591
-0.0325779
0.340798
-0.064357
-0.0582465
-0.249748
0.0769546
-0.6926
0.726737
0.022364
-0.33325
-0.191928
-0.925118
-0.903946
-0.995114
-1.46938
-0.314688
0.0149433
0.878909
0.362378
-0.715609
-0.590026
-0.171606
-0.339627
0.0617889
0.0710168
-0.0719327
0.215562
-0.303655
-0.195792
0.0351561
-0.555847
-0.268785
0.0473127
-0.412443
-0.942779
-0.0450752
-0.300173
-0.607437
-0.00418331
0.308957
0.346366
0.0630581
-0.251285
-1.03926
-1.14252
-1.01048
-1.07067
-0.517911
-0.429172
-0.236892
-0.12975
-0.503096
0.199319
0.0343942
-0.208624
-0.0316907
-0.484586
0.106049
-0.124363
-0.147811
-0.435261
-0.162763
0.196733
-0.581998
0.125586
0.290826
0.609764
-0.241248
-0.398275
-0.125954
0.291282
0.397792
-1.05798
-1.33692
-0.659085
-0.45948
0.172251
0.199413
0.0437306
-0.139322
0.270631
-0.0780705
0.450539
-0.012991
-0.0911898
-0.285151
-0.271905
0.303506
-0.0855006
0.566175
0.736066
0.578378
-0.222462
0.237309
-0.440174
0.335773
-0.678144
0.440172
-0.54566
-0.651325
-0.719664
-0.506241
-0.332642
0.0602482
0.0705631
0.532708
-0.610716
-0.554281
-0.383233
-0.0598979
0.400701
0.314007
-0.502996
-0.105871
-0.134399
0.838881
-0.520121
-0.282087
0.656385
-0.0806692
0.484081
0.409724
-0.592726
-0.231648
-0.496287
0.491028
0.319915
-0.194993
0.808317
0.146374
0.395867
-0.17631
0.588846
0.475288
-0.925606
-0.478672
-0.323637
0.14332
-0.411581
0.0547827
-0.358881
-0.706729
-0.394158
0.391942
0.0432871
0.25657
-0.645036
0.318131
-0.781965
-0.178119
0.786719
-0.26248
-0.251462
0.454047
0.517043
0.964994
1.1054
0.552193
0.697314
-0.0450211
0.108746
0.485019
-0.1834
-0.282562
-0.368651
0.0840812
0.458638
-0.381056
0.288248
0.0454885
0.3197
-0.198219
-0.355931
-0.532294
-0.153396
0.0861545
0.312449
0.452335
0.0327918
-0.0683156
0.0915409
-0.0141043
0.598754
0.356702
0.179995
0.232952
0.512458
1.47235
0.188498
0.364345
-0.66966
-0.0616821
0.196092
0.199645
-0.238248
0.102904
0.13159
0.108362
0.137232
0.367034
-0.10615
-0.326078
0.153256
0.615053
0.0164718
-0.32766
-0.153552
-0.346304
-0.289149
-0.319119
0.254909
0.6278
-0.414798
-0.456337
-0.120894
-0.216368
0.498424
-0.174443
0.0518509
-0.364426
-0.0749901
-0.389465
0.196862
0.0691437
0.341187
0.597707
-0.0704047
-0.0383268
-0.231379
0.173013
-0.51567
-0.679673
-0.856077
-1.16833
-0.62708
-0.948991
-0.76837
-0.634353
-0.341969
-0.216713
0.0135678
0.494765
0.5274
0.253638
0.339885
0.00342562
0.149777
0.273869
-0.0334283
0.352831
0.196853
0.309875
-0.322807
-0.186765
-0.509046
-0.284022
-0.521073
-0.898736
-0.81908
-0.416889
-1.03665
-0.157002
-0.102633
0.447785
0.562423
0.31971
0.141902
0.0906628
0.112371
0.522277
0.572347
0.505767
-0.0548075
-0.596153
-0.527632
0.0246951
-0.296095
0.56962
-0.507246
-0.734625
-0.358128
0.131481
0.0361767
0.0272441
0.283624
0.250828
-0.260886
0.190162
0.41688
0.294097
-0.490176
0.682913
0.408049
-0.121836
0.663954
0.852637
0.323581
0.0754033
-0.117932
0.142264
0.0294213
-0.332042
0.46692
-0.294616
0.0472122
0.178604
-0.122289
0.0605721
0.124455
-0.0999044
-0.0819941
0.308639
0.137965
0.415734
0.570653
0.959559
0.306047
0.732977
-0.109275
0.202586
0.310282
0.3138
-0.506204
-0.076832
-0.206873
0.211614
-0.0952747
-0.512584
0.0476848
-0.19042
-0.736553
0.0792739
-0.278769
-0.14704
0.0303718
0.201576
0.19775
0.121118
0.385617
-0.393913
0.292691
-0.690102
0.0406311
0.219047
0.583335
-0.23425
0.0991073
0.140469
0.93131
0.594959
0.0406015
-0.192556
0.165935
0.412723
0.529023
0.11448
-0.095078
0.0142474
-0.00837922
0.191679
0.495819
-0.33521
-0.238596
-0.162141
0.0217627
0.160862
0.181507
-0.205623
0.757063
-0.0181014
0.609704
-0.1906
0.512208
0.0728346
0.339229
-0.0855712
-0.329185
0.61347
-0.748581
0.0296094
0.056635
-0.451876
-0.191564
-0.214276
-0.228704
-0.437724
-0.0804887
0.351797
-0.378393
0.669751
-0.15638
0.396855
-0.214188
-0.2089
-0.364997
-0.00333098
0.415654
-0.620319
0.431018
0.484601
-0.0579213
0.325912
-0.752149
-0.224348
-0.0163687
-0.363655
-0.843373
-0.288583
-0.300069
-0.0699112
-0.214131
0.202606
-0.0189526
-0.10903
0.237652
0.110931
0.142331
-0.441745
0.0320671
0.697104
0.257621
-0.0637572
0.190068
0.23342
-0.203302
-0.266862
-0.15337
0.144276
-0.297261
0.152236
-0.286292
0.0643972
0.183386
-0.579051
-0.357311
0.472533
-0.354039
-0.0823906
0.0349458
-0.188375
-0.0151263
-0.0962249
0.0853539
-0.139492
0.440364
-0.165322
