0.00386171
-0.507171
-0.455919
0.170321
0.34409
-0.38024
0.1472
-0.193951
-0.445222
-0.121113
-0.351199
-0.146826
0.556786
0.905112
-0.105829
-0.0530748
0.124762
-0.184079
0.0317265
0.392427
-0.15779
-0.251402
-0.0208031
0.168055
0.147043
-0.131437
0.265218
-0.0075329
-0.241625
-0.188123
0.285279
-0.476139
-0.0172513
0.0168874
-0.0143786
-0.474092
0.248849
0.0614288
0.318363
-0.229405
0.149675
-0.00185022
-0.239148
-0.14098
0.188123
0.0769359
-0.312154
0.214326
0.0444383
0.09647
-0.408796
-0.104767
0.480336
-0.268909
0.206317
0.337262
-0.37001
0.141247
0.105185
0.285961
-0.459435
0.170499
-0.0278651
0.82261
0.0446134
0.247784
-0.629649
-0.282939
0.202999
-0.155107
0.0508664
-0.156907
-0.113307
0.21165
-0.569381
0.4896
-0.463277
-0.00940006
-0.0876785
-0.321172
0.413108
-0.494286
0.100777
-0.424885
-0.0961308
0.200232
0.208921
0.0771059
-0.424432
-0.137179
-0.215971
0.146383
0.16154
-0.498245
-0.302131
-0.0723618
-0.117015
0.263954
0.0295048
-0.124098
-0.300473
0.003728
-0.234166
-0.0616814
-0.140039
0.041066
0.184786
0.507782
-0.0979289
-0.0645124
-0.246264
0.367539
-0.166724
-0.349586
-0.191901
-0.0439271
-0.103887
-0.290475
-0.341392
-0.279499
-0.536866
-0.119198
-0.729516
-0.241039
-0.431412
-0.208941
-0.236639
-0.369927
-0.0676565
-0.515683
0.0200607
0.0441547
-0.000221055
0.0479419
0.0474129
-0.0389654
-0.0619261
0.405933
-0.346872
0.181711
0.00321677
0.216915
0.64118
0.124474
0.448472
0.326421
-0.31325
-0.393027
-0.0618359
0.210917
-0.248129
-0.722467
-0.763054
0.318964
-0.944679
-0.184615
-0.813886
0.428674
-0.248293
-0.843599
-0.0863116
-1.58578
-0.336916
0.159072
0.149367
-0.276312
0.405242
0.145995
-0.268995
-0.388357
-0.1438
-0.46169
0.437618
0.357561
0.94764
-0.29035
0.200416
-0.282954
0.103145
0.166311
0.468731
-0.277209
-0.295618
-1.41015
-0.923408
-0.312484
0.0346954
-0.126298
0.494423
0.507034
0.169492
-0.191823
-0.513986
-0.178368
0.00834534
0.0393613
0.304405
0.650816
0.738764
0.184534
0.431252
0.658662
0.0245001
0.324311
0.566382
0.0764463
-0.268602
-0.250462
0.259829
-0.141271
-0.213141
-0.843669
0.0420765
-0.32268
0.509137
0.733534
0.101336
-0.153492
0.421306
-0.0348963
0.44721
-0.533997
-0.254827
0.267486
0.128193
0.190114
0.182394
0.457689
0.772288
-0.39062
0.247672
0.374122
1.17163
1.01302
0.35618
-0.188346
0.439881
0.0740488
0.27005
-0.327773
-0.880835
-0.0887762
-0.0564109
-0.231761
0.419961
-0.62587
0.31403
0.653856
-0.0305676
-0.374154
-0.407591
0.0733729
0.0685842
-0.34536
0.195714
0.0576426
-0.148863
0.508135
-0.0193924
0.0295953
0.407866
0.592214
0.324263
0.597346
0.310374
-0.614044
0.249428
-0.0948098
-0.0665542
1.51856
0.169411
0.070257
0.754073
0.77408
-0.113543
0.565615
-0.0298558
-0.144171
-0.461442
0.297187
0.334099
0.137678
0.318326
-0.406896
0.147152
0.246152
-0.410106
-0.559519
0.219248
0.363087
0.233746
0.155304
0.954781
1.18677
0.100405
0.582518
0.252279
0.76991
0.635795
-0.0509927
0.608444
0.536564
-0.376628
0.863238
-0.394968
-0.0678293
0.443544
-0.0805353
-0.452776
-0.0581415
-0.366319
0.172898
0.650771
0.697884
-0.092168
0.443982
-1.05016
0.217576
0.486677
0.794566
-0.141173
-0.175898
-1.56254
-0.0610769
-0.953568
-0.146986
1.33772
0.335165
0.23081
0.316554
0.29741
-0.0577844
-0.668821
-0.368161
-0.242773
0.605285
0.0421578
-0.178096
0.5758
0.680407
0.783134
0.377022
0.342718
0.858467
0.759469
0.488163
-0.222044
0.816204
-0.0363364
-0.781982
-1.72444
-0.15496
0.161035
0.325306
-0.075798
-0.0336415
0.139053
0.0477506
0.399086
-0.186273
-0.782143
-0.0466261
-0.29629
0.18086
0.585216
0.530874
-0.0988452
-0.96711
0.242569
-0.489589
0.167381
0.0900016
0.485708
-0.560143
-0.0392277
-0.259313
-0.644788
-1.98282
-1.71936
0.306609
0.755355
0.472669
-0.276317
-0.363199
0.27699
-0.295931
-0.513694
-0.468235
-0.829602
0.0321351
-0.210767
-0.386531
0.0851042
-0.368994
-0.00422594
-0.510709
0.202618
0.00153431
-0.660638
-0.765835
-0.675849
-0.39028
0.193747
-0.441621
-1.19194
-2.06329
0.190781
-0.735458
-0.313363
0.0216653
0.104897
1.1134
0.323364
0.0342878
0.0793137
0.207104
-0.221328
-0.409078
0.679499
0.67548
-0.0790022
0.13988
0.330056
-0.603533
0.00855003
0.0308805
-0.583828
0.365162
-0.652208
-0.593866
0.678214
-0.689029
-1.57793
-0.443948
0.224329
0.299427
-0.257713
0.457042
0.70583
0.00681493
-0.0431548
0.285536
0.592617
-0.425776
0.0201051
0.034945
0.685397
-0.527646
-0.526061
-0.282923
-0.227914
0.165094
0.303308
-0.293736
-0.378501
0.668864
-0.506116
-0.305896
0.399406
-2.02919
-1.62827
-0.0232708
0.268
0.467997
0.128077
0.152728
0.344277
0.284389
0.309388
0.458568
0.507742
-0.425194
0.014786
-0.222838
0.0764018
-0.287515
0.149068
-0.130771
-0.139273
0.187018
0.168388
0.127151
-0.265823
-0.366569
-0.449686
-0.741257
-0.829832
-0.641379
-0.568647
-0.53928
0.684338
0.614746
0.0248076
-0.197581
0.477231
0.535997
0.91412
-0.423515
0.209345
0.402542
0.243391
0.401191
-0.249485
-0.128479
-0.118703
0.284316
0.0937082
-0.270778
-0.0197595
-0.25703
-1.36697
0.381681
-0.542409
-0.343
-0.44431
-0.577697
-0.409546
-0.00338891
0.729978
0.0274815
-0.151138
1.15961
-0.0563809
-0.445566
-0.067173
-0.0897127
-0.575501
-0.547825
0.402689
-0.306531
0.250221
0.418439
0.400621
0.100389
-0.227613
-0.270163
-0.281962
-0.743729
-0.486266
-1.18242
-0.424744
-0.415186
-0.0859364
-0.135333
-0.364577
0.123881
0.62724
-0.334682
-0.229226
0.151727
-0.799071
-0.107081
-0.235081
-0.0335306
0.131533
0.184902
0.414744
0.0855953
0.326736
0.0916936
0.0153881
-0.479891
-0.191995
-0.577899
-0.309454
-0.332649
-0.472468
-0.256652
0.328512
-0.339594
0.18838
0.159458
-0.566421
0.468808
0.0540131
0.744386
-1.1641
-0.209366
-1.11394
-0.556594
-0.687147
-0.446756
-0.0943813
0.551547
-0.037702
-0.0503278
-0.182612
0.0788888
0.248464
-0.120552
0.413979
0.270967
-0.184581
-0.196666
-0.580562
-0.262247
0.490723
-0.46065
-0.139087
0.256747
-0.275016
0.190166
-0.702846
0.652112
-0.234153
-0.0763708
0.381806
-0.393966
-0.0674876
-0.808455
-0.655214
0.186739
-0.366147
-0.388927
-0.133959
-0.322174
0.143401
-0.478559
-0.856592
-0.0795084
-0.330997
0.206111
0.134798
0.128971
0.0720384
-0.17128
0.207192
-0.0800158
-0.163494
-0.191784
0.115139
0.621747
0.0858687
0.00845388
-0.337265
0.232821
-0.19066
-0.0393788
0.440627
-0.0716041
0.0432379
-0.00923883
-0.366162
-0.11341
0.0506164
-0.250807
0.106015
-0.311962
-0.25943
0.529228
1.06877
0.489067
-0.461364
0.365421
-0.647129
0.137542
-0.909602
0.333384
0.677788
0.245085
0.628962
-0.2307
0.01853
0.121124
0.371729
0.0710846
-0.155495
0.0731985
0.393524
0.600461
-0.0811426
-0.191729
0.0398775
0.0656004
-0.199321
-0.132598
-0.0825753
0.0207442
0.725189
0.260612
-0.133984
0.0935162
0.00973008
0.310891
0.16828
-0.674663
0.238451
0.046978
-0.0277401
0.493425
-0.268811
-0.664898
-0.577594
-0.195577
-0.000452126
-0.195453
0.142706
-0.308447
0.197349
0.175857
-0.161828
-0.377303
0.130779
-0.102144
-0.198997
0.222768
0.434907
-0.292024
-0.0629309
0.319632
-0.635469
-0.116148
1.01628
-0.317146
-0.282217
0.2885
-0.460904
0.250935
0.666794
-0.00615325
-0.348134
-0.380427
-0.334919
-0.333089
-0.461009
0.477897
0.300671
0.213661
-0.051
-0.143478
0.341841
-0.0772933
-0.519851
0.17489
-0.362083
-0.00764901
0.273151
0.229116
-0.309089
-0.347306
-0.21831
-0.811801
-0.211028
0.254016
0.131446
-0.716387
0.183289
0.823553
0.0950497
-0.317998
-0.62169
0.0581722
0.0159091
-0.236368
0.784777
-0.472343
-0.607777
-0.0934972
-0.590763
-0.306109
-0.525643
0.313588
0.282471
-0.00517531
0.21331
0.0682043
0.0588228
-0.326488
0.228982
0.358327
0.0317446
0.0651847
-0.101231
0.151543
-0.4931
-0.429635
0.0275483
0.394607
-0.265808
0.195879
-0.222196
-0.264178
-0.363184
-0.368576
