0.603645
-0.277101
-0.113181
-0.138413
0.541869
-0.0263604
0.214085
0.233431
-0.215599
-0.0256374
0.15322
-0.0802182
-0.0984389
-0.341593
0.16589
-0.166562
0.533349
-0.016219
-0.255315
0.204287
-0.826553
0.222082
-0.207901
-0.400474
-0.169429
0.402103
0.105213
-0.0243318
-0.0366882
-0.391056
-0.422671
-0.193523
-0.0845677
-0.433045
0.544431
-0.0885349
0.268311
-0.224347
0.419275
-0.0571015
-0.0631522
-0.110198
0.581483
-0.238896
0.383535
0.223739
0.22543
-0.134432
0.407647
0.532472
0.119664
0.254778
0.20815
-0.12423
0.171315
0.293656
-0.431489
0.308696
0.314632
-0.069295
-0.72915
0.104511
-0.0833979
-0.0235344
-0.394696
-0.200989
-0.0028684
-0.0533536
-0.725885
-0.315372
-0.291484
-0.3355
0.210165
-0.194293
-0.00346559
0.733937
0.102552
0.554523
-0.490152
0.025736
0.153254
0.507031
0.0112
-0.21582
-0.227426
0.222898
0.096039
0.00546516
0.121695
0.0174617
0.707848
-0.731716
-0.512741
0.048479
-0.462255
0.166707
-0.269605
-0.506058
0.0989417
0.174482
-0.205778
0.397605
0.921911
-0.162908
0.819288
-0.344967
-0.0403886
0.649098
0.103802
-0.541225
-0.552218
-0.0964988
-0.419624
0.589314
-6.129e-06
0.334769
0.691002
0.050631
0.228608
0.140726
0.103854
-0.457744
0.030181
-0.11698
-0.0839525
0.404002
-0.156957
-0.081139
0.206457
0.323689
-0.695414
-0.669525
-0.62168
-0.20004
0.0614295
0.351038
0.310052
-0.140428
-0.325797
0.410745
-0.213263
-0.204361
-0.350378
-0.430097
-0.112047
-0.333184
0.0764126
0.246253
-0.586145
-0.975464
-0.384115
-0.256742
-0.233145
-0.256059
-0.390714
0.593168
-0.254365
-0.184036
-0.774142
-0.214192
0.785691
-1.10028
-0.827664
-0.646771
-0.711017
-0.335402
-0.112665
-0.249393
-0.0770822
-0.151394
0.137227
-0.150067
0.512873
-0.0623207
-0.501871
-0.103663
-0.046272
-0.0977511
-0.42479
0.194075
0.370706
0.795819
-0.313557
-0.223284
-0.817479
0.320777
0.696146
-0.090365
-0.152536
0.793368
0.378652
-0.873086
0.101925
0.469717
0.808325
0.31805
-0.0567909
-0.181499
0.177344
-0.0673979
-0.702492
-0.273035
-0.312879
-0.372939
-1.21178
-0.488548
-0.250878
-0.191867
0.152411
-0.898193
-0.495024
-0.142684
0.341989
0.0180168
0.0422382
0.141263
-0.014031
0.267677
-0.625902
0.095063
0.893789
-0.664828
0.0994753
0.217044
0.141912
0.11866
0.118809
-0.526117
0.0427182
-0.123921
-0.469945
-0.0594654
-0.620136
-0.753027
-0.466719
-0.2657
0.248286
-0.346531
0.229508
0.0351749
0.64561
0.408572
0.830683
-0.00664738
0.644179
0.64131
0.193145
0.195613
0.977448
0.165139
-0.67256
-0.148675
-0.0653986
0.232073
0.196223
0.129226
0.170182
0.361662
0.33236
-0.377754
-0.0113797
0.0767366
0.262382
-0.272867
-0.417651
1.50651
0.305385
0.662456
0.00872793
1.14401
0.752336
0.772163
0.44301
0.726927
0.673467
0.99891
1.77991
0.118244
0.0663731
-0.187426
0.0325291
-0.284954
0.559238
0.834277
-0.00291552
0.114517
0.377734
-0.47302
-0.426663
-0.588499
-0.428352
-0.194613
-0.0659166
1.06905
1.3983
1.77226
1.29595
0.948654
0.277961
0.469643
0.43231
2.12652
0.796327
0.94808
1.19067
1.26796
0.422046
0.151982
-0.160476
-0.0036598
0.425283
0.00903954
-0.247073
-0.473959
-0.71064
0.133949
0.154076
-1.16088
0.0844519
-0.601097
-0.594493
0.831628
0.468297
0.577869
0.200011
-0.23352
-0.0821521
0.426779
-0.426366
0.370621
-0.0817974
0.120069
0.923375
0.601202
0.592108
0.271367
-0.274286
-0.39971
0.312003
0.511816
-0.625555
-0.146016
-0.342971
0.685586
0.812398
0.540163
0.083712
-0.515311
0.356663
-0.02792
1.63483
-0.674161
-0.116582
-0.777038
-0.364904
-1.07612
-0.589354
-0.800672
0.123753
-0.0571054
-0.135155
-0.238083
0.472408
-0.0286395
0.15024
-0.239281
-0.676037
-0.631842
-0.200355
-0.122208
-0.323256
-0.456146
0.23892
-0.176226
0.877006
-0.612713
0.524118
-0.043761
-0.340642
-0.67659
-0.180342
-1.06524
-0.468645
-0.592206
-1.05272
-0.277599
1.06237
0.210691
-0.0934249
-0.525054
-0.589311
0.276831
-0.116032
0.142227
-0.443464
-0.204144
-0.690147
0.250834
-0.329471
-0.439744
-0.614356
0.211333
-0.288252
-0.414931
0.146903
0.112162
-0.565833
0.0662535
-0.0843958
-0.202841
-0.973263
-0.661036
0.659092
-0.141377
0.132666
-0.00953361
0.774067
0.506123
-0.0659872
0.064109
-0.138828
-0.651305
-0.266007
-0.923117
-0.335425
0.413267
0.135469
0.740543
-0.871693
0.0904555
0.318216
0.194395
0.338147
-1.12509
-0.135
-0.475219
-0.838217
0.279589
0.675778
-0.853034
0.237251
-0.0252384
-0.353978
0.188005
0.715567
-0.307769
-0.248163
-0.192467
-0.402589
0.181792
0.637241
-0.151792
-0.634644
0.700101
-0.846428
0.146963
0.636728
-0.0510377
-0.321177
-0.231461
-0.769942
-0.375285
-0.468652
-0.319612
-0.3233
-0.839251
0.0995279
0.0738741
-0.41741
-0.241917
1.04561
-0.266774
-0.0597646
-0.613294
-0.540575
0.150773
0.230535
-0.01214
0.588747
-0.803628
-0.658831
1.08914
-0.121461
0.595905
0.282502
-0.340307
0.245868
-0.431595
-0.477852
-1.02065
-0.0732667
-0.628935
0.0271718
0.654481
0.265304
0.143024
0.354
-0.69971
0.152752
0.0563497
0.0433333
-0.685607
0.225747
0.697768
0.0743846
-0.322948
0.116065
-0.24526
-0.185332
-0.13692
0.204656
-0.563179
1.0116
-0.147469
-0.160281
-0.277178
-0.534018
-0.345387
0.551529
0.974651
0.271885
0.934304
0.285215
-0.370065
0.329707
-0.730219
-0.385405
-0.059679
-0.548606
-0.443038
0.263182
-0.13444
-0.479164
-0.179928
0.19212
-0.761284
-0.032057
-0.0912874
0.232005
0.550803
0.364836
0.302752
0.621518
0.0607506
0.600026
-0.483148
-0.241726
-0.496933
-0.216513
0.430748
0.176851
0.43694
-0.385609
-0.377598
0.493659
-0.946539
-0.848816
-0.107768
0.232985
-0.0891961
-0.00539796
0.321033
-0.113651
-1.0657
-0.941821
-0.834823
0.0529541
-0.29786
0.740165
0.236413
0.372274
0.522636
0.855506
0.703493
-0.110894
-0.204358
-0.895374
0.563843
0.0270768
-0.129814
-0.0495294
-0.110679
-0.908324
-1.17652
-0.590973
-0.0676884
-0.277886
-0.250912
0.375951
-0.543643
-0.274086
0.18835
-0.891688
0.520915
0.151147
0.192789
-0.0969493
-0.0469409
0.25006
0.341299
-0.261033
0.511895
0.931273
0.733247
-0.629677
-0.583133
-0.0544401
0.305935
0.00409141
-0.379134
-0.768977
-0.558729
0.00840924
0.252261
0.206884
-0.0653157
-0.219496
-0.417009
-0.25942
-0.347575
-1.07867
-0.222219
0.206336
-1.09696
-0.150716
-0.0714562
0.301407
0.481074
-0.358221
0.419926
0.594816
0.158148
0.72527
0.553958
-0.677677
-0.135343
-0.824022
-0.329139
0.0543406
-0.154995
0.373126
-0.0894426
0.406788
0.575959
0.122676
0.304678
-0.118596
-0.534982
-0.752409
-0.190564
-0.178297
0.377297
1.14656
0.22152
-0.212186
0.288693
0.597767
0.051974
0.111778
0.0186225
-0.170372
-0.253271
-0.6256
0.0222951
-0.24765
0.328136
-0.725024
-0.37275
0.17435
0.083694
-0.107367
0.194202
0.247594
0.0165907
0.422425
0.0329921
0.0117627
0.41874
-0.601512
0.777154
1.22364
-0.093336
0.354577
-0.384443
-0.237743
0.93432
-0.482616
0.365111
0.409985
0.0862091
0.435384
-0.531287
-0.649932
0.133017
-0.494787
-0.0612186
-0.0201743
0.0148729
-0.406904
0.104031
0.0673922
-0.11419
-0.141912
0.480687
0.0502686
0.437286
-0.747125
-0.793851
-0.376234
0.753137
-0.262452
0.586801
0.782383
-0.0768533
-0.52396
-0.213005
-0.0171381
-0.170489
0.135817
0.284319
-0.445371
0.0659562
-0.306677
-0.818855
-0.227385
-0.126316
0.0785619
-0.130503
0.111871
-0.0180826
0.213996
0.099846
0.219206
-0.100462
-0.707332
-0.273893
0.402131
0.317286
-0.5154
0.417343
0.806768
-0.092281
-0.456597
0.735362
0.689423
0.339768
-0.368974
0.70698
-0.339681
0.254728
0.592582
0.0593493
0.240905
-0.467794
-0.691965
0.15282
0.196864
-0.146437
-0.166029
0.317872
0.372665
-0.247885
0.623114
-0.689461
0.411201
0.0402252
-0.04196
0.0510594
-0.109773
0.147224
0.375885
-0.156076
-0.470181
0.0184023
-0.0172075
-0.27984
-0.145606
0.0279042
0.277781
0.271226
0.299931
0.651258
0.402346
-0.408959
