-0.55574
0.245746
-0.166815
-0.822759
-0.351713
-0.185414
-0.337801
-0.0659941
0.104458
-0.397765
-0.151044
-0.187717
-0.134142
-0.081625
-0.439586
-0.322291
0.268746
0.464849
0.473859
-0.0650529
0.717311
0.0974199
-0.262415
0.173564
-0.271902
0.326436
-0.17484
0.304519
0.150568
-0.224964
-0.0800242
-0.0927108
-0.13701
-0.152998
-0.320168
0.0563475
0.153773
-0.222119
-0.316674
0.275847
-0.310345
0.100155
0.349224
-0.190506
-0.302861
0.322865
-0.414011
0.0475015
-0.21041
-0.458523
-0.0783032
0.040403
0.229774
-0.360969
0.432694
-0.0757403
-0.214226
0.104348
0.452691
-0.692669
0.207944
0.420403
-0.160901
0.0117323
-0.160849
0.297982
-0.00544917
0.0461913
0.249709
-0.320845
0.280745
0.0257165
0.124728
-0.400487
0.119606
-0.153383
-0.126037
-0.394978
-0.0212198
-0.0181222
-0.14306
0.0706326
-0.528528
-0.752005
0.0868166
-0.249613
0.962357
0.0432381
0.0212419
-0.40884
0.0265892
0.284255
-0.50158
-0.286194
-0.149155
-0.981466
-0.272366
0.47637
0.205457
-0.76416
-0.473217
0.15176
-0.350898
-0.386723
-0.15224
-0.465244
0.22032
0.258614
-0.195873
0.0814393
0.0039884
0.0613686
-0.0379448
0.375281
0.712839
0.0898038
0.159905
0.526328
0.00603667
0.408339
0.841689
-0.308144
0.504324
0.0681672
-0.292817
0.555467
0.310829
-0.47201
-0.669552
-0.0696886
-0.90135
-1.16213
-0.799838
-0.0808718
0.385747
-0.0099325
-0.1985
-0.569929
0.268585
-0.0338481
0.195338
0.293059
0.281017
0.33507
0.356355
-0.109165
0.54633
0.284535
-0.000670733
-0.0452724
-0.835545
-0.424263
0.607398
0.0899769
-0.423807
1.23829
-0.129998
-0.151192
-0.366905
-1.04464
-1.03344
-0.200692
-0.635441
0.155793
-0.0586918
-0.333776
0.188786
-0.126581
-0.354395
0.1939
-0.323348
-0.0830477
0.200986
-0.1327
0.207091
0.385078
-0.369721
0.632639
0.609084
0.433804
0.238972
0.372405
-0.0375647
-0.0713482
0.0200479
-0.492492
-0.552483
-1.11353
-1.72419
-0.0594418
-0.941019
-0.0994198
-0.429276
-0.0831574
0.294172
-0.176817
-0.0891072
-0.0679429
0.318333
0.403091
0.295491
-0.318039
-0.450609
0.178585
-0.514125
-0.570124
-0.242836
-0.203214
-0.32459
-0.283768
-0.342915
0.356759
0.248902
-0.505339
-0.226821
-1.45741
-0.973323
-0.474541
-0.840441
0.0310439
0.155988
-0.148458
0.0608784
-0.0159227
0.235656
0.280142
-0.251808
-0.477494
0.550118
0.224819
-0.0163395
0.457913
-0.463272
-0.73228
0.641399
-0.998002
0.30062
0.469661
1.01922
1.06631
0.386511
-0.178025
-0.641134
-1.03868
-0.737922
-0.321759
-0.558222
-0.0580243
-0.30326
-0.352767
-0.23682
-0.0497144
-0.559936
0.200749
-0.153229
-0.193898
-0.0594644
0.39319
1.20624
0.464837
-0.10147
-0.111832
-0.337918
-0.123691
0.334322
0.565872
1.86733
0.303167
-0.428951
0.43314
-0.910396
-0.952076
-1.30624
-0.597778
0.500288
0.20964
-0.11883
-0.299286
0.19649
-0.599785
-0.309977
-0.0892391
0.552751
-0.120503
0.194108
0.744036
-0.372234
0.545992
-0.12824
0.343898
1.08695
0.839694
0.661234
1.07668
2.19868
0.239643
0.113247
-0.630375
-1.77443
0.220096
-0.432424
-0.152527
-0.266822
-0.12247
0.715945
-0.28477
-0.254074
0.173181
0.965385
-0.0092161
0.134181
-0.289802
0.0860744
0.356201
0.107497
0.099726
0.554365
-0.862582
0.199985
0.296169
0.418556
0.0148201
1.11424
-0.153767
0.210656
-1.58675
-0.75029
-0.311312
-0.328626
-0.0206104
0.00778293
-0.345671
-0.337364
-0.0331468
-0.129237
-0.0779508
-0.332904
-0.0557298
-0.412616
-0.639693
-0.421237
0.416026
0.0908691
0.0964489
-0.610256
-0.212183
-0.277856
0.474536
0.431301
0.479322
0.360147
-0.499992
0.529619
-0.930871
-0.274769
0.0252644
0.0351054
-0.271441
0.066772
-0.415908
0.215474
0.278065
0.132462
0.286669
0.0394749
-0.0308472
-0.32671
0.261182
-0.778057
0.410722
-0.013529
0.0936692
0.335601
-0.133838
-0.367478
-0.22809
-0.705147
-0.178558
0.0676501
-0.356807
-0.0182969
-0.590189
-0.0875672
-0.627153
0.343906
-0.0369092
-0.321962
-0.201738
-0.305556
-0.217386
-0.284517
0.304702
0.690451
0.127996
0.42342
0.381655
-0.35006
-0.11242
-0.0965362
-0.367473
-0.0343305
0.593944
0.217179
-0.642894
0.0551195
-0.550944
0.647831
-0.707286
-0.668614
0.432452
0.186313
0.145292
-0.512258
0.374934
0.0982241
-0.234877
-0.191318
-0.203583
0.328781
-0.47779
-0.021072
0.0460757
-0.249893
-0.0326123
-0.170776
-0.753513
-0.332291
-0.0115581
0.113466
0.0754689
-0.407679
0.145851
0.102375
0.39452
0.442328
-0.934003
-0.226798
-0.595185
-0.317212
0.439121
0.305445
0.000467156
0.954633
0.574139
-0.174301
0.883375
0.660063
0.13537
-0.186633
-0.267826
-0.0295854
-0.183794
0.676903
-0.835459
-0.677265
-0.00251195
-0.314971
0.383388
-0.365928
0.511788
-0.280135
0.123818
0.502609
-0.420045
0.718343
-0.801916
0.063411
0.347995
0.414653
1.32216
0.205283
-0.123243
0.342478
0.230125
0.513968
0.171269
-0.46258
-0.138133
-0.298461
-0.263451
0.136065
0.274807
0.110104
0.0319406
-0.00994726
0.597602
0.0496033
-0.613233
-0.206416
0.316245
0.482057
-0.29693
-0.492667
-0.230692
-0.607136
0.0488263
0.698569
0.913287
1.07307
0.505774
0.433919
0.258427
0.569535
0.0250911
-0.0651149
-0.421742
0.509888
0.127696
0.301855
0.0813751
0.846869
-0.349701
-0.149828
-0.387117
-0.022384
-0.779332
-1.33753
0.605926
0.208829
0.285578
-0.92595
0.564935
0.276239
-0.0776674
-0.890288
0.316961
0.142666
0.107603
-0.376269
-0.0808709
-0.527264
0.146777
-0.499871
-0.285445
-0.241324
-0.282581
0.0210245
-0.433543
0.245328
0.137496
0.0999615
-1.00919
-0.991027
-0.345849
0.411499
0.233869
0.461511
0.750058
0.195162
-0.019772
0.0392365
0.223738
-0.336744
-0.871191
-0.314002
-0.203841
0.0885435
0.241203
1.21608
0.0408979
0.529243
-0.149133
0.238698
-0.163811
-0.0558398
-0.546922
0.103768
0.130107
0.206505
-0.501562
0.0128506
-0.653353
0.210324
-0.588396
0.168909
-0.214389
1.05829
0.0794629
0.605945
-0.144526
-0.261076
-0.639977
-0.128517
-1.05394
-0.535031
0.4067
0.190354
0.284042
0.267766
0.30565
0.0716634
0.0454722
0.0479124
0.0145722
-0.844893
-0.632298
0.637766
-0.126437
0.311063
0.152162
-0.499327
-0.971735
0.211156
0.191538
0.404377
-0.494932
0.398665
0.27155
0.128184
-0.702902
-1.20449
-0.582396
0.23915
0.644851
0.459449
-0.159306
-0.410504
0.0192645
0.552078
-0.270375
0.141979
-0.543381
-0.673175
-0.345106
-0.618079
-0.337171
0.33309
0.0130059
0.867238
-0.405335
-0.187271
-0.169032
-0.63636
0.277449
0.577755
0.697673
0.591393
0.0189839
-0.5268
-0.334814
0.576054
-0.167242
-0.101786
0.0542398
0.148323
-0.175588
0.341723
-0.30211
0.0849396
-0.0637496
-0.313122
-0.295777
-0.115782
-0.565379
0.0608001
-0.169933
0.292003
-0.964111
0.312803
-0.172419
0.0344542
0.282606
-0.596162
-0.115861
0.210127
-0.691798
-0.792431
-0.648855
0.0578062
0.146087
-0.333364
-0.146711
0.183217
-0.528236
-0.107683
-0.00988533
0.215767
0.129675
-0.278748
0.837757
0.231897
-0.124281
0.222592
0.194173
-0.591305
-0.33271
-0.130216
0.0141056
-0.325905
-0.0827748
-1.03918
0.539882
-0.78154
-0.338902
-0.439823
-0.143781
0.219608
-0.168295
0.436811
0.184324
0.514533
-0.456425
-0.0746861
0.262132
-0.1033
0.0102023
0.101093
-0.109703
-0.226788
0.113385
0.0103632
0.030616
-0.52246
-0.40673
-0.332674
-0.20468
0.0722938
-0.128861
-0.149748
-0.582703
-0.14342
-0.329014
0.0801932
0.389267
0.0784953
-0.0970037
0.441015
0.0276317
0.181584
-0.419186
-0.032113
0.0665072
-0.046732
0.016433
-0.00240305
-0.21552
-0.0646601
0.31779
-0.306651
0.11507
-0.102197
-0.206087
-0.350877
-0.433641
-0.417468
-0.381586
0.281473
-0.0649667
-0.203589
-0.396784
-0.551687
-0.0301965
-0.240279
-0.167367
0.177703
-0.338718
-0.108868
-0.0569735
0.199892
0.233889
-0.454533
-0.591428
-0.208523
-0.0422062
-0.689231
-0.111577
0.0796829
-0.114126
-0.3987
0.0980484
-0.451735
-0.211183
0.195247
-0.14053
0.246846
0.491222
-0.392012
-0.643844
-0.482295
0.45746
-0.167976
0.426085
0.429505
-0.461394
