0.603645
-0.277101
-0.113181
-0.138413
0.541869
-0.0263604
0.214085
0.233431
-0.215599
-0.0256374
0.15322
-0.0802182
-0.0984389
-0.341593
0.16589
-0.166562
0.533349
-0.016219
-0.255315
0.204287
-0.826553
0.222082
-0.207901
-0.400474
-0.169429
0.402103
0.105213
-0.0243318
-0.0366882
-0.391056
-0.422671
-0.193523
-0.0845677
-0.433045
0.544431
-0.0885349
0.268311
-0.224347
0.419275
-0.0571015
-0.0631522
-0.110198
0.581483
-0.238896
0.383535
0.223739
0.22543
-0.134432
0.407647
0.532472
0.119664
0.254778
0.20815
-0.12423
0.171315
0.293656
-0.431489
0.308696
0.314632
-0.069295
-0.72915
0.104511
-0.0833979
-0.0235344
-0.394696
-0.200989
-0.0028684
-0.0533536
-0.725885
-0.315356
-0.291231
-0.334585
0.210988
-0.194047
-0.00344908
0.733937
0.102552
0.554523
-0.490152
0.025736
0.153254
0.507031
0.0112
-0.21582
-0.227426
0.222898
0.096039
0.00546516
0.121695
0.0174617
0.707848
-0.731484
-0.512141
0.0492715
-0.462012
0.167425
-0.268789
-0.502923
0.103018
0.175341
-0.206992
0.396936
0.922722
-0.162785
0.819487
-0.344943
-0.0403886
0.649098
0.103802
-0.541225
-0.552218
-0.0964988
-0.419624
0.589314
-6.129e-06
0.334769
0.690999
0.0504852
0.228427
0.141115
0.10539
-0.455487
0.0335796
-0.111054
-0.0759637
0.415056
-0.144588
-0.0650706
0.219198
0.332119
-0.684989
-0.656757
-0.612555
-0.19891
0.0618564
0.351226
0.308005
-0.141186
-0.325797
0.410745
-0.213263
-0.204361
-0.350378
-0.430097
-0.112177
-0.333722
0.0762236
0.247186
-0.584305
-0.973245
-0.37914
-0.245971
-0.217451
-0.236581
-0.370824
0.612696
-0.23775
-0.168022
-0.758873
-0.201021
0.791846
-1.10037
-0.829016
-0.649815
-0.713865
-0.339069
-0.112665
-0.249393
-0.0770822
-0.151394
0.136873
-0.150067
0.512666
-0.0625173
-0.501657
-0.103239
-0.0440671
-0.0892062
-0.414862
0.206237
0.377821
0.801364
-0.30573
-0.220977
-0.814684
0.323902
0.705014
-0.0857723
-0.147663
0.794695
0.376277
-0.877962
0.0991305
0.465731
0.808249
0.31805
-0.0567909
-0.181499
0.177344
-0.0673906
-0.702395
-0.272247
-0.312486
-0.371919
-1.20815
-0.478397
-0.24531
-0.188116
0.157618
-0.898061
-0.499993
-0.151473
0.336136
0.0154425
0.046368
0.147706
-0.00816705
0.270082
-0.631862
0.0915779
0.89059
-0.667934
0.0993047
0.217043
0.141912
0.11866
0.118809
-0.526093
0.0432005
-0.12309
-0.470606
-0.0596174
-0.617118
-0.747288
-0.465075
-0.266904
0.247139
-0.347024
0.225526
0.0202858
0.632958
0.406114
0.835062
0.00762938
0.657363
0.651263
0.199031
0.198961
0.981195
0.164902
-0.672566
-0.148678
-0.0653986
0.232073
0.196224
0.129223
0.170351
0.361771
0.33052
-0.376554
-0.00837667
0.0796405
0.263231
-0.273345
-0.416295
1.504
0.295132
0.651503
-0.00102455
1.14792
0.764536
0.79605
0.46285
0.74416
0.681747
1.00388
1.78347
0.119847
0.0663712
-0.187426
0.0325291
-0.284954
0.559245
0.834274
-0.00289874
0.113186
0.37516
-0.471563
-0.420688
-0.585239
-0.431615
-0.198899
-0.0670023
1.06234
1.39176
1.76471
1.2947
0.953124
0.278765
0.482072
0.449397
2.14108
0.806873
0.949197
1.19311
1.26818
0.422046
0.151982
-0.160476
-0.0036598
0.425283
0.00904364
-0.247079
-0.475887
-0.712298
0.137288
0.161106
-1.16016
0.0749079
-0.618591
-0.60669
0.830469
0.468476
0.571755
0.190846
-0.239579
-0.0898092
0.437154
-0.412938
0.383132
-0.0757472
0.119267
0.923877
0.601148
0.592108
0.271367
-0.274286
-0.39971
0.312003
0.51187
-0.625552
-0.144335
-0.341687
0.690579
0.817458
0.535758
0.0716835
-0.531054
0.346504
-0.0202016
1.64274
-0.679019
-0.131976
-0.79557
-0.375672
-1.06331
-0.575401
-0.789864
0.128566
-0.0586247
-0.134883
-0.238095
0.4724
-0.0286395
0.15024
-0.239281
-0.676037
-0.631758
-0.199988
-0.119724
-0.320816
-0.454781
0.238375
-0.176021
0.877784
-0.612521
0.536998
-0.0260674
-0.331559
-0.687327
-0.20113
-1.08325
-0.475527
-0.584991
-1.0395
-0.267376
1.06965
0.211096
-0.093205
-0.525001
-0.589319
0.276831
-0.116032
0.142227
-0.443464
-0.204101
-0.689759
0.254265
-0.325419
-0.437304
-0.607883
0.213943
-0.286223
-0.400258
0.168932
0.131649
-0.566384
0.057133
-0.0965395
-0.213758
-0.981467
-0.65489
0.672262
-0.12873
0.136293
-0.00684855
0.775103
0.506241
-0.0659797
0.064109
-0.138828
-0.651305
-0.266007
-0.923268
-0.333861
0.417516
0.140691
0.748936
-0.863582
0.0949349
0.322975
0.211862
0.357802
-1.12266
-0.135756
-0.479942
-0.846809
0.272312
0.670222
-0.850081
0.254691
-0.0132555
-0.349065
0.192635
0.716938
-0.307651
-0.248163
-0.192467
-0.402589
0.181792
0.637241
-0.152222
-0.632272
0.706276
-0.837844
0.160306
0.648121
-0.0447651
-0.31268
-0.211693
-0.762845
-0.374471
-0.472868
-0.319016
-0.320668
-0.841123
0.0912188
0.0767514
-0.401579
-0.23123
1.0505
-0.26254
-0.0579215
-0.613179
-0.540575
0.150773
0.230535
-0.01214
0.588747
-0.804159
-0.654887
1.10009
-0.108861
0.611463
0.29152
-0.33288
0.259466
-0.413768
-0.468161
-1.0208
-0.0735428
-0.62479
0.0302106
0.65499
0.258237
0.148169
0.369421
-0.690262
0.159213
0.0597908
0.0455707
-0.685493
0.225747
0.697768
0.0743846
-0.322948
0.116065
-0.246904
-0.180937
-0.125619
0.216387
-0.548021
1.02175
-0.141195
-0.149821
-0.257047
-0.514567
-0.332679
0.557192
0.975395
0.273684
0.935473
0.281191
-0.364109
0.34289
-0.720702
-0.380816
-0.0576571
-0.546783
-0.442876
0.263182
-0.134441
-0.479164
-0.179928
0.192043
-0.757867
-0.0243
-0.0804814
0.247205
0.567286
0.37382
0.312709
0.63541
0.076781
0.611854
-0.476069
-0.238927
-0.495627
-0.210444
0.432702
0.177578
0.444106
-0.37588
-0.371671
0.495549
-0.945967
-0.848624
-0.107681
0.232985
-0.0891964
-0.00539796
0.321033
-0.113694
-1.06554
-0.933698
-0.824099
0.0656652
-0.28521
0.745806
0.243578
0.384497
0.527274
0.856821
0.700835
-0.108186
-0.205551
-0.897043
0.566171
0.0356765
-0.119966
-0.0423187
-0.109126
-0.90786
-1.17653
-0.59097
-0.067616
-0.277886
-0.250912
0.375951
-0.543643
-0.274081
0.192808
-0.88591
0.528784
0.160802
0.203552
-0.0902963
-0.0375779
0.259921
0.344297
-0.259901
0.513372
0.933379
0.731116
-0.628946
-0.58041
-0.0494832
0.311122
0.00504714
-0.378806
-0.768936
-0.55857
0.00897259
0.252326
0.206986
-0.0653157
-0.219496
-0.417009
-0.25942
-0.341666
-1.07574
-0.220695
0.212135
-1.0874
-0.136719
-0.0627129
0.312211
0.492569
-0.354245
0.423568
0.596877
0.153448
0.719265
0.553263
-0.67337
-0.135527
-0.825179
-0.328779
0.0545898
-0.154806
0.374153
-0.0893293
0.406799
0.575959
0.122676
0.304678
-0.118596
-0.534981
-0.752191
-0.192657
-0.18314
0.375164
1.15167
0.232521
-0.203079
0.294021
0.60275
0.053458
0.104812
0.00972603
-0.176772
-0.251229
-0.625586
0.0215847
-0.248834
0.327652
-0.725065
-0.372928
0.174934
0.0837709
-0.107367
0.194202
0.247594
0.0165907
0.422418
0.0329831
0.0120791
0.418548
-0.605564
0.768392
1.21373
-0.0986691
0.350473
-0.38923
-0.242861
0.92577
-0.491655
0.359456
0.409283
0.0877345
0.43617
-0.531014
-0.650023
0.13328
-0.49458
-0.0612617
-0.020153
0.0148729
-0.406904
0.104031
0.0673922
-0.11419
-0.141912
0.480687
0.050231
0.436767
-0.747648
-0.794686
-0.379948
0.747096
-0.267272
0.584235
0.781428
-0.0771703
-0.52681
-0.2153
-0.0163279
-0.169087
0.135718
0.284452
-0.445352
0.0662173
-0.306469
-0.818857
-0.227385
-0.126316
0.0785619
-0.130503
0.111871
-0.0180826
0.213996
0.099846
0.219206
-0.100462
-0.70733
-0.27317
0.403165
0.317841
-0.515403
0.417426
0.807812
-0.0905394
-0.457769
0.733384
0.690167
0.339708
-0.369255
0.706882
-0.33974
0.254731
0.592583
0.0593493
0.240905
-0.467794
-0.691965
0.15282
0.196864
-0.146437
-0.166029
0.317872
0.372665
-0.247885
0.623139
-0.688501
0.411736
0.0402252
-0.04196
0.0510594
-0.109773
0.147224
0.375868
-0.156095
-0.470181
0.0184023
-0.0172075
-0.27984
-0.145606
0.0279042
0.277781
0.271226
0.299931
0.651258
0.402346
-0.408959
