0.20022
-0.162918
-0.66467
-0.0564248
-0.151198
-0.267012
0.356399
0.0992524
0.117296
-0.412318
-0.141939
-0.254374
-0.106114
-0.0290552
-0.248536
0.142234
0.5427
0.187978
-0.368897
-0.0448947
0.585312
0.49121
0.0251167
0.530043
0.756212
-0.223938
-0.26357
0.384127
-0.346728
-0.0933504
0.288548
-0.14414
-0.203365
-0.0268807
-0.344515
0.192568
-0.198684
0.460921
0.0625936
-0.057122
0.518318
0.0994584
0.619638
0.445817
0.758155
0.514786
-0.231784
0.211228
0.589692
-0.0758668
-0.369408
0.00152367
0.0491431
-0.472081
0.380463
-0.35095
0.363279
0.109501
-0.152405
-0.0853293
0.193954
0.184625
0.0169598
0.0228455
-0.0988783
0.159651
0.609102
0.448601
0.273014
0.30247
0.530616
0.382118
0.86672
-0.208476
-0.099162
0.507927
-0.356857
0.60826
-0.0164416
-0.0894407
-0.091007
0.0583744
-0.172166
-0.206305
-0.165519
-0.326823
0.165118
0.0705822
0.184692
0.415944
-0.00915046
0.172432
0.90716
0.38269
0.937706
0.764647
0.616358
0.553029
0.957101
-0.060864
0.576127
0.247725
-0.108925
-0.0443898
-0.0601691
0.363274
-0.224758
0.190606
0.979868
0.110571
-0.109056
0.297402
-0.125939
-0.050601
0.0218979
-0.412933
0.699299
0.352028
0.273484
0.621975
0.457951
0.164698
0.911544
0.288416
0.610908
-0.216623
0.620759
0.0870772
0.230626
0.35744
-0.518483
-0.140756
0.215795
0.157476
-0.293378
1.08314
0.376857
0.441618
-0.197177
-0.0059387
0.186048
0.498646
-0.0517013
-0.207863
0.221607
-0.413618
-0.20885
0.653559
0.661128
0.10629
-0.41946
-0.544017
-0.0514242
-0.914009
-0.743681
0.416025
-1.04523
-0.717162
0.528184
0.473528
0.65445
0.208592
-1.02385
1.47201
-0.0289186
0.649745
0.510555
-0.267709
-0.314783
0.269104
-0.293495
-0.353363
-0.549448
-0.2009
0.181204
-0.0876929
-0.548783
-0.421629
-0.107995
-0.157479
-0.821269
-0.0420528
-0.675978
-0.152354
-0.306552
-0.109596
-0.727757
-0.69202
-1.25779
-0.922565
-0.775499
0.042919
0.00220719
0.586807
0.276084
0.0368877
0.414814
-0.246464
0.149472
-0.0849813
0.369043
-1.05806
-0.547892
-0.17717
-0.611734
0.106716
-0.062236
-0.396464
0.255706
-0.386128
0.395308
0.512438
-0.465182
-0.0429806
-0.786463
-1.53487
-0.653101
-1.68
-1.25811
-1.11512
-0.437253
0.124965
-0.318142
-0.0530336
0.00696676
0.264725
-1.12134
-0.022518
-0.414084
-0.459022
-0.590495
-0.429874
-0.729984
-0.329924
-1.18724
0.648337
-1.23149
-0.308443
0.0468709
-1.09698
-0.555596
-0.674435
-1.45442
-0.833895
-0.965316
-0.47866
-1.04704
-0.901669
-1.15731
-0.536927
-0.318661
-0.202907
-0.165936
-0.230236
-0.431731
0.111103
0.443556
0.0437347
-0.802728
-0.604113
-0.917983
0.152917
-0.559406
-0.721333
1.50391
-0.268481
-0.858696
0.482444
-0.855253
-1.41969
-0.647198
-0.872167
0.333986
0.130489
-1.08061
-0.333054
-2.04551
-0.502664
-0.567976
-0.109556
0.338095
0.0188772
-0.411252
0.196092
0.608738
0.318922
0.963555
0.172075
0.28721
0.411461
-1.08158
-0.324088
-1.68451
0.0706409
-0.235981
0.135402
-0.217016
0.18795
-0.265758
-0.495945
-0.241285
-0.668307
-0.741769
-0.813232
-1.29721
-0.967762
-1.04104
-0.0320878
-0.112056
-0.51976
0.214444
-0.478102
-0.744467
-0.287965
0.424693
-0.426784
-0.684577
-0.03185
-0.649906
-0.447779
-0.615955
-0.75329
0.19756
-1.6965
-0.103836
-0.967355
0.0130632
0.0573958
-1.01851
1.02734
-0.640017
0.00653028
0.0529739
-0.951787
-1.41715
0.112864
0.125497
0.22832
-0.279856
-0.556466
-0.316026
-0.00990598
-0.587762
-0.718852
-0.195594
-0.470014
-0.193409
-0.455435
-0.330389
-1.00433
0.242561
0.130612
-0.0316006
-0.0326137
0.266136
-1.15674
0.370317
0.0965827
0.358007
0.441862
1.26928
-1.11878
-0.103063
-0.329972
-0.469342
-0.0637077
0.108234
-0.316904
0.419333
-0.372016
0.305462
-0.465444
-0.256169
0.00780443
-0.1326
-0.14218
0.642518
0.909201
0.341383
0.259734
-0.321246
-0.591266
-0.0902565
-0.213783
-0.367345
-0.604345
-0.739329
1.22724
0.748838
-0.196127
0.752607
-0.320496
-0.339676
0.0837729
-0.219703
0.351798
-0.13303
-0.0916577
-0.12413
0.272402
-0.196162
0.542817
0.463652
0.553173
0.348143
-0.558431
-0.0591379
0.207687
0.869038
-0.701769
0.781595
-0.607763
0.478019
0.62084
0.23557
0.839122
0.348427
-0.365305
-0.15565
0.468006
-0.00470954
-0.0533557
0.556331
-0.396833
-0.746383
0.690032
-0.167065
0.560198
0.577349
0.523793
0.24222
-0.260334
0.260383
0.763082
-0.315645
-0.372225
0.297839
-0.261323
-0.354723
0.196131
0.45092
0.160496
1.09604
1.21408
-0.716738
1.05139
0.0248388
-0.901672
-0.110996
-0.000203833
0.215222
0.251173
1.0311
-0.338697
0.419486
0.612076
-0.661579
0.52674
0.938888
0.633096
0.491395
0.417553
0.654118
0.782314
-0.153412
-0.165915
0.822056
0.52473
-0.183555
0.280648
-0.128285
0.255006
-0.723158
1.44902
-0.248754
-0.0275694
0.0680462
0.214388
0.0123944
0.420619
1.05261
0.0511615
0.672679
-0.391257
0.581012
-0.32952
0.721519
0.352995
-1.08227
0.959532
0.0104839
-0.0764923
0.205783
0.149964
0.371745
0.375531
1.22261
0.962689
-0.0381445
0.474186
0.23558
0.507371
0.122201
-0.104876
-0.0749075
-0.294649
-0.597026
0.185393
0.219071
0.26639
-0.308723
0.49995
0.50374
-0.0767182
1.47286
-0.357864
0.395958
0.0498016
0.690534
0.266529
0.968723
0.123556
0.105745
1.18821
-0.494784
0.392281
1.04795
0.731356
0.915202
0.798215
0.0776377
0.127244
-0.126184
-0.422863
0.149157
0.236291
0.623143
0.352272
-0.551963
0.286956
0.47529
0.2488
0.371372
1.48332
1.1845
0.31809
0.303627
0.291345
0.67481
1.34366
0.130328
0.8463
0.705803
0.0215465
0.979021
0.324561
0.292675
0.635035
-0.250374
0.160831
-0.0889428
0.183599
0.0189075
-0.249436
1.32864
0.0292775
0.532184
0.788328
0.236911
0.438788
0.31772
1.04327
0.877599
0.29621
1.57382
-1.2131
1.16544
0.0496935
0.438796
1.04948
-0.363811
0.466108
0.301062
0.0612733
-0.352554
0.344527
-0.0134077
-0.0123387
0.0992933
-0.125798
-0.354658
0.134346
1.00454
0.183051
-0.178767
0.413137
1.47678
0.452864
0.930743
0.274877
0.426149
0.240165
0.797565
-0.13257
-0.261182
0.621612
1.16058
-0.181253
-0.0313981
-0.879314
-0.332402
-0.0579471
-0.578333
0.407438
0.3054
0.0738724
-0.163527
0.567749
0.13173
-0.222163
-0.139763
-0.511235
-0.524559
0.297827
0.642698
-0.416954
-0.288857
-0.293357
-0.43793
0.70559
0.037325
1.01591
-0.0264889
-1.01421
-0.804305
0.0506399
-0.587536
-0.692708
0.283654
-0.0956593
0.211903
-0.489422
-0.0906084
0.450714
-0.521754
0.169977
0.0171335
-0.187089
0.131374
0.333209
-0.346903
-0.784337
-0.668885
-0.520515
-0.0760851
-0.381978
-0.653503
-0.429732
-0.420355
0.0650107
-1.34064
-0.871301
-0.907454
-0.914949
-0.204004
-0.0532616
-0.416336
-0.126105
-0.176235
-0.0417362
0.231844
-0.126075
-0.0204929
-0.25536
-0.000640932
0.129825
-0.275564
0.497815
-0.0492952
-0.497074
-0.775526
-0.394086
-0.0130058
-0.253597
-0.261866
-2.01673
-1.69916
-1.12572
-0.420457
-0.665737
0.144512
-0.32015
-0.214503
-0.273545
-0.0992952
-0.191624
-0.190735
0.501336
-0.0362492
0.14322
0.128065
-0.292709
0.515947
-0.113047
-0.0618098
-0.533831
0.484708
0.472949
-0.0163785
-0.387667
0.125179
-0.0284742
-0.484807
0.0721444
-0.75485
-0.492971
-0.349124
-0.858866
-0.548985
-0.180591
-0.189416
-0.419744
-0.0669922
-0.275237
-0.12619
0.367889
0.585882
-0.477779
0.10343
-0.123538
0.117124
-0.355551
0.0965613
0.180996
0.0452948
-0.0914473
-0.0530769
0.150273
-0.494522
-0.561717
-0.0236868
-0.207651
0.0470162
-0.230698
-0.278155
0.41905
0.239836
0.556582
0.531619
-0.0641828
-0.0577505
-0.0353315
-0.412065
-0.370844
-0.457725
-0.0507356
0.333842
-0.228715
0.0724153
0.467739
0.126691
-0.467575
0.217323
-0.402594
-0.389719
-0.0264986
0.168073
0.263362
-0.327656
0.0721834
0.154421
-0.0353532
-0.303365
-0.400608
0.189313
0.315407
-0.247576
0.246747
0.19815
0.00671139
-0.147665
0.0359735
0.178759
0.260879
