0.00791613
-0.0519521
0.360013
0.379869
-0.168545
0.0331332
0.239391
-0.287852
0.130408
-0.166477
0.204077
-0.031214
-0.0774196
-0.18364
0.404223
-0.461805
0.123283
-0.366842
-0.00800071
0.119161
0.486268
0.0904851
-0.0468166
-0.139518
0.00536738
0.108638
0.216865
0.0239302
-0.241477
0.214229
-0.10933
0.435167
-0.0368098
-0.129713
-0.311937
-0.266058
-0.0515497
0.401718
0.0711508
0.153936
0.136844
-0.0122802
-0.325168
-0.622195
-0.02135
-0.218753
-0.348818
-0.122545
0.0870756
-0.0620184
-0.176386
0.575509
0.257051
0.44572
-5.92065e-05
0.352044
-0.527671
0.559083
-0.336799
-0.0999265
0.403004
-0.235224
0.12608
-0.546097
-0.1727
-0.139284
-0.306666
-0.00787782
0.266375
-0.0637104
0.102258
-0.612567
0.0109329
0.647939
0.142715
0.47549
-0.00477939
0.810986
0.564118
0.253456
0.167531
-0.19349
-0.00473147
0.266167
-0.41145
-0.52264
0.022936
0.661615
0.224795
0.112183
0.110088
-0.302973
0.0522464
0.162138
0.438395
0.13112
0.290622
-0.560269
0.0239218
0.0625628
0.510259
0.687118
0.0829105
0.0847305
-0.206753
0.232286
-0.286679
-0.169717
0.0462704
-0.420831
0.253084
-0.0738747
-0.663555
0.508524
-0.507424
0.141667
0.143795
0.020631
-0.00205531
-0.445799
-0.57419
-0.353786
-0.553765
-0.825352
-0.664347
-0.0562746
-0.607019
-0.00799363
-0.0272037
-0.335347
-0.0347307
0.339115
-0.389971
0.0186194
-0.709235
0.253647
0.450458
-0.189526
0.1664
-0.277392
-0.20739
-0.325031
0.0986298
0.113696
0.00958215
-0.217617
-0.57991
-0.0678129
-0.370221
-0.0679151
-0.720464
0.774312
0.799385
0.1423
-0.36355
-0.0817163
0.250068
0.264038
-0.0797269
0.725084
-0.997233
-0.528386
0.629048
0.456145
0.262659
0.362762
0.0846304
0.473512
-0.312933
-0.0712337
-0.299356
0.0604577
0.0470561
0.21694
-0.556493
-0.716798
0.0913398
-0.196442
-0.755326
0.700727
0.67267
-0.575603
0.305694
0.111001
0.0991785
0.137212
-0.376712
0.376358
0.52393
-0.117585
0.372524
0.378393
0.856006
0.498626
0.535832
0.100766
-0.374795
0.190183
-0.3165
-0.188792
0.427944
-0.800092
-0.20233
-0.221642
0.422149
0.45132
0.785825
0.0903243
0.476854
0.672082
0.138196
1.09346
-0.181716
-0.488715
-0.0077619
0.24985
-0.319042
-0.345362
0.287424
0.4577
-0.363242
0.185252
-0.571623
-0.114135
0.0868812
0.0736801
0.199371
-0.0438843
-0.349114
-0.323176
0.464757
0.0196898
-0.172873
0.391199
-0.366699
-0.0496413
-0.976646
0.521692
0.363907
-0.179773
0.397968
0.221749
-0.0650916
-0.70067
-0.141676
-0.332177
-0.811578
-0.017743
0.36756
0.550819
-0.169412
0.0454665
0.083352
-0.184012
0.624443
0.396673
-0.664013
-0.360848
-0.14686
0.966995
0.252102
-0.77743
-0.210452
0.730406
0.515795
-1.86175
-0.19926
0.124904
-0.75859
0.401948
-1.0531
-0.486638
-0.216668
-0.771748
0.345743
-0.650086
-0.609309
-0.60753
-0.309492
0.431504
-0.238753
0.0413046
0.221934
0.620861
0.109843
-0.560275
-0.686663
0.349085
0.0353152
0.688167
0.26373
0.799739
0.829953
-1.03957
-1.13883
-1.85098
-1.26452
-1.33463
0.121389
-0.57205
-0.424687
-0.517629
-0.656939
-0.915142
-0.0827772
0.824199
0.238566
-0.0440549
0.0322638
0.00661877
-0.275942
-0.135033
0.359658
0.140435
0.141904
0.0201364
0.042959
0.0935453
0.927519
0.417566
1.03518
-0.255806
-0.365762
-0.0950238
-0.699637
-0.510689
-0.745299
-0.968132
-0.722678
0.165382
0.34689
-0.258095
-0.794166
0.0734423
0.694674
0.291516
-0.287919
-0.578026
-0.423773
0.306284
0.545949
0.438161
-0.0462936
0.885566
0.559756
-0.255873
1.03848
1.16162
0.648093
0.335413
-0.644702
1.01828
0.89607
0.102138
0.629614
0.665634
-0.108454
0.217648
0.28779
-0.751367
-0.724944
-0.481696
-0.127126
0.0761406
-0.134479
-0.230306
0.129795
-0.295069
0.73364
-0.127508
0.93078
0.709376
0.410289
0.0328376
0.755844
0.827667
1.01502
-0.305129
-0.0268612
0.823261
-0.224371
0.842761
-0.614929
0.718739
0.2064
-0.484413
1.12582
-0.459269
-0.417365
-0.721812
-0.360268
-0.129251
0.0757099
0.172151
0.517063
0.275768
0.0650767
0.411652
-0.390081
0.073137
0.514686
0.389478
0.676614
0.543228
0.0515886
0.106269
0.0606417
0.543394
-0.707504
0.684639
0.519739
0.396802
0.238621
0.170193
0.867132
-0.217399
-0.365789
-0.116211
-0.00130284
-0.468622
0.0420069
-0.181559
-0.376955
0.0353359
-0.256109
-0.596462
-0.673273
0.206231
-0.351453
0.556886
0.345247
-0.00898931
0.398088
-0.2525
-0.481803
-0.00577155
0.883651
0.0121954
0.217261
0.454058
0.828145
0.719911
0.44555
0.755514
0.590561
-0.413116
-0.376102
0.0406477
-0.490467
0.212183
-0.0576727
-0.0114561
-0.00718651
-0.547702
-0.684166
0.563651
0.912215
-0.180384
0.542289
0.918915
0.631504
-0.0755998
0.431491
0.67064
0.663923
0.116909
-0.321131
-0.18956
-0.0678102
-0.499752
-0.15308
0.41711
-0.774513
-0.47387
-0.475764
-0.0935612
0.342983
0.00629998
0.132592
-0.259565
-0.577407
-0.224432
-0.32955
0.310775
0.234719
-0.0667963
-0.0838615
0.353191
0.295421
0.709671
-0.103466
0.0415965
-0.487436
0.0488862
0.953475
-0.380834
-0.11777
-0.461041
-0.238797
-0.28769
0.150907
-0.500785
-0.0808391
0.135757
0.275591
0.0259497
-0.244507
-0.592659
-0.76761
0.53353
0.0453645
-0.973772
-0.0951351
-0.212644
-0.64245
0.216703
-0.350983
0.206086
-0.258229
-0.154705
0.0330684
-0.37041
-0.288847
0.0673686
-0.318552
0.0765292
-0.919517
-0.656728
-0.758589
-0.96482
-0.472192
-0.106667
0.00607392
0.104212
-0.161477
-0.210923
-0.302896
0.0238724
-0.781505
0.520185
-0.751169
-0.801545
-0.64
-0.706613
-0.196562
-0.0716473
-0.239397
-0.108342
-0.150232
0.257444
0.302085
0.141342
-0.55122
-0.0205869
-1.44769
-1.18348
-0.166847
-0.040503
-0.107187
0.0553185
0.197729
-0.179331
-0.42771
0.131841
0.322697
0.225257
-0.799343
-0.700662
-0.602344
-0.882719
-0.274537
-1.26541
-0.627656
-0.137414
0.505958
0.904938
0.135865
-0.556287
0.0398656
0.251337
-0.495906
-0.220367
0.0750989
0.629551
-0.784301
-0.455037
-0.0556112
0.115984
-0.235945
0.321611
-0.125035
0.162309
0.16731
0.744642
-0.493431
0.131725
0.149056
0.0626243
0.713149
-0.231742
-0.112508
-0.529547
0.0475702
0.512195
0.822867
-0.0778107
0.905396
-0.535812
0.443312
0.142061
0.12214
0.355182
-0.0658125
-0.18862
0.312842
-0.128494
-0.0812205
0.743324
0.0862406
0.591438
0.249476
0.624483
-0.109823
0.10425
-0.41144
-1.22932
0.132651
-0.161388
-0.227032
-0.200673
-0.299093
-0.488742
0.442809
-0.946377
-0.693447
0.131257
-0.738227
-1.47785
-0.506155
-0.259376
-0.705338
-1.02174
-0.373962
0.0736293
-0.272287
-0.0455463
-0.163474
0.263387
-0.248048
0.660712
-0.00869825
0.154446
1.33334
0.410936
0.698979
0.211179
-0.218356
-0.466683
0.31375
0.440447
-0.287616
-0.0490006
0.548338
-0.137198
-0.971308
-0.579089
-0.318191
-0.363902
0.294131
-0.523068
0.39553
0.24767
0.0872319
-0.00764122
0.246848
0.0615112
0.293697
0.579125
0.334712
-0.301653
0.534146
0.373615
0.203669
0.172286
0.273725
-0.652818
0.333959
0.191402
-0.0257542
0.048076
-0.134171
-0.192648
-0.212664
0.419983
0.178322
0.216559
-0.224023
-0.511082
-0.663896
-0.326976
-0.214234
-0.307668
0.185158
0.182499
0.109835
0.347791
-0.200009
-0.111199
0.539522
0.669831
0.378003
0.409794
0.0160669
-0.0992732
1.00236
0.13188
-0.0392594
0.426503
0.599838
0.213688
-0.0144806
0.133676
0.31898
0.478546
-0.075893
0.0279966
-0.174166
0.21542
-0.270047
0.518531
-0.328698
-0.0682204
-0.134291
0.283178
0.099324
0.0243186
0.381347
0.205657
0.983441
-0.266324
1.04286
1.23787
1.32818
1.2022
0.195291
0.476204
0.481674
-0.073033
0.338712
-0.0479812
-0.274663
-0.171341
-0.358054
-0.445964
0.152022
0.0939937
0.591473
-0.121841
0.309547
-0.190618
-0.153602
-0.0340465
0.22179
-0.108272
0.112456
0.143254
-0.445865
-0.0073231
-0.0849625
0.155647
-0.0443446
0.0990184
-0.226672
-0.147624
-0.102542
0.256285
0.386931
-0.150196
-0.282915
0.342472
-0.136265
0.347267
-0.122852
-0.18833
