-0.00568557
0.482696
-0.0593815
-0.254275
0.202025
0.266758
0.23449
-0.222794
0.26973
0.238157
0.161927
-0.0718787
0.270637
0.231422
-0.291566
-0.475014
-0.0519768
0.125243
0.0318352
0.0422939
0.280179
0.142034
-0.0471383
-0.285738
-0.422712
0.487994
-0.291362
0.143909
-0.115066
-0.104326
0.1265
-0.111164
-0.181519
0.205979
-0.5421
-0.202
0.162088
-0.365053
0.232977
0.189768
0.157257
-0.390692
-0.26805
0.0683169
-0.101392
-0.114107
-0.0606882
-0.218924
-0.465695
0.189043
0.0919082
-0.113807
-0.469404
0.445834
-0.335498
-0.329549
-0.40043
0.0319669
0.110128
-0.0397474
-0.374572
-0.708462
-0.591477
0.161958
-0.0925964
-0.0157622
-0.163618
-0.371708
0.340295
-0.389008
-0.0942173
0.504171
0.0398779
0.386125
0.0772358
0.00157654
-0.511059
0.323409
0.0145527
0.0141104
-0.180835
0.904744
-0.360613
-0.0195763
0.0323015
-0.166818
0.0898621
-0.298697
0.448797
0.140142
-0.69842
-0.437473
-0.352515
0.245752
-0.901872
-0.997677
-0.455357
-0.414069
-0.504915
-0.189917
-0.300817
-0.499587
0.0103471
-0.161516
0.859503
0.581145
-0.331964
-0.547634
-0.191493
0.536075
-0.29462
-0.125577
0.459055
0.100236
0.154047
-0.227831
0.155398
-0.527725
0.56992
0.573979
0.298126
0.178036
-0.64365
0.91723
0.384186
0.0657723
-0.180632
1.53169
-0.0283827
0.00436953
0.700615
-0.557855
-0.0168424
0.873306
0.111986
0.372043
1.3334
0.0908444
0.387131
0.342334
-0.22458
-0.393944
-0.0546165
-0.312923
-0.544839
0.182118
0.509142
0.409966
0.00577176
-0.488919
-0.0719077
-0.0315351
-0.629232
0.309482
0.306372
1.06079
0.344972
0.121577
0.690095
0.150189
0.0771754
0.338016
0.597509
0.154523
0.750345
0.126433
-0.216771
-0.155851
0.227066
0.045255
0.531386
0.425514
0.978725
0.538273
0.652788
-0.189015
-0.77048
0.402411
0.195216
-0.0103526
0.210204
0.0481458
-0.375286
-0.0798229
0.505853
-0.505655
-0.0799851
-0.578174
-0.191018
-0.0824548
0.631381
0.595518
0.508099
0.394056
-0.0487643
-0.411361
0.200743
-0.223559
0.816387
0.665468
0.532902
0.98606
0.0293011
-0.32181
0.258873
-0.430754
0.243683
-0.327853
0.992333
-0.176332
0.997518
-0.14409
-0.451407
0.342042
0.394453
0.565887
0.633791
0.232202
-0.0783661
0.481284
0.646905
0.570533
0.233029
-0.716749
-0.173184
-0.233348
0.445068
-0.0174313
-0.179194
-0.1013
0.232079
0.0782765
-0.486807
-0.124791
-0.294416
0.482266
-0.346844
-0.0229666
0.0666013
0.249007
-0.144337
-0.232003
0.299229
0.78019
0.122222
1.06673
0.255855
0.0805975
1.44637
0.940234
-0.451306
0.229375
-0.147334
0.413982
0.143929
0.550465
-0.546079
-0.547314
-0.149213
0.473213
-0.0346603
0.149916
0.0566147
0.27922
0.118526
0.320608
0.0757516
0.30268
0.145075
-0.980416
-0.58995
-1.07767
-0.627316
-0.556819
0.684789
0.845659
1.20034
1.36579
0.437952
0.0947273
-0.13033
-0.0813844
0.212931
0.18391
-0.327235
0.168851
0.223418
0.834041
-0.000999439
0.222423
-0.0727137
-0.327815
0.129263
-0.0542327
1.02569
-0.855946
-0.068781
-0.225077
0.105842
-1.06973
-0.239284
0.117541
-0.58854
-0.724915
-0.0541332
0.371936
-0.161245
0.036344
-0.0910077
0.195907
0.126998
-0.0956696
0.76259
0.83314
-0.310675
-0.0759014
-0.472699
-0.233458
-0.354193
0.104682
0.232812
-0.726491
0.615693
-0.520781
0.0377482
-0.0288352
0.0333727
0.215049
-0.541342
-1.70311
-2.02753
-1.92731
-1.08406
-0.296506
-0.303268
-0.230413
0.0744369
-0.00937588
0.0216845
-0.202396
0.0503707
-0.17355
-1.18548
-0.201583
-0.180276
-0.890594
0.049762
-0.638607
0.226799
0.729654
0.763872
0.213768
0.289871
-0.131077
-0.086174
-0.74011
0.0654444
-0.63673
-1.79687
-1.41804
-0.924846
-0.052382
-0.451608
0.298474
0.451054
-0.0145601
0.026767
0.420213
0.0581058
0.234847
-0.0650256
0.24417
0.405952
0.649206
-0.180547
0.528663
0.242123
0.831856
-0.33395
-0.113004
0.56679
-0.493145
0.00111006
-0.230035
-0.741819
-0.76298
-1.04455
-0.461143
-1.05653
0.255934
0.0642616
-0.0792301
0.0799975
-0.136979
-0.278035
0.264446
-0.400328
-0.608771
-0.688488
-0.57278
0.0268716
-0.288099
-0.199117
-0.210558
0.0772723
-0.108085
0.932335
0.150296
-0.374075
-0.344189
-0.144039
-0.237291
-0.466614
0.98328
-1.03285
-0.183413
-0.419153
0.503769
0.374854
-0.381294
-0.262697
0.130624
-0.303619
0.180643
-0.460905
-0.940882
-2.58094
-1.27764
-1.54259
0.934329
0.902126
-0.268661
1.16796
-0.117104
0.022842
0.0819045
0.226597
-0.303445
-0.362989
0.440196
0.0116409
0.847796
0.265079
0.193967
-0.578097
-0.218626
0.362979
-0.251303
-0.135126
0.307706
-0.116978
-0.183403
-0.163793
-0.72033
-1.52229
-2.50676
-2.83377
-2.32816
-0.819332
-0.178458
0.364823
1.64878
0.13283
-0.664347
-1.16698
0.588056
-0.48131
1.05527
0.135465
0.533108
0.891123
-0.806279
-0.190019
-0.0120579
0.416471
0.343635
0.565662
0.34392
-0.359717
-0.0876512
0.199914
0.521693
-0.73091
-1.27869
-1.927
-3.92996
-3.8553
-3.44073
-2.26607
-1.89166
-1.09006
-0.806284
-1.00603
-0.733636
-0.514132
-0.0399922
-0.229968
-0.268855
0.153894
-0.468895
-0.80792
-0.141872
-0.306198
0.0602148
0.0253661
-0.31884
0.117146
0.947069
1.60196
0.679122
0.47723
0.328326
0.546143
-0.599587
-1.24386
-2.82579
-3.40889
-1.86155
-0.954457
0.716573
0.732
0.490383
0.97298
0.67624
-0.0797901
1.00512
0.725537
-0.600342
0.125711
-0.341767
-0.16136
0.040387
0.20367
-0.379333
-0.490595
1.67466
1.25544
-0.127352
1.11615
-0.0257673
1.02657
-0.191815
0.708386
0.721779
0.213384
0.64973
-0.0722344
-0.187107
0.707849
-0.934325
-0.116362
0.111681
0.386671
-0.0908835
0.651764
0.056235
-0.0866612
0.296316
-0.00680631
-0.62923
-0.102772
-0.232146
-0.514899
-0.277131
0.774011
-0.0605576
1.25868
0.435085
0.645714
1.08786
0.382115
0.77758
-0.0813811
0.175235
-0.194916
-0.637096
0.0276045
1.05504
0.159478
-0.391596
0.642632
-0.225359
0.628742
0.538711
-0.158133
0.0922658
0.198618
0.277048
-0.468926
-0.293301
-0.46516
0.319202
0.372121
1.39151
0.350109
1.57944
1.24057
0.455482
1.00563
0.439615
0.791377
0.853738
0.398401
0.0367623
0.0283196
-0.413488
0.097472
0.658913
0.311781
0.496032
-0.179112
-0.279845
0.14087
0.30346
-0.130291
-0.0188157
-0.343696
0.139515
-0.506575
0.142093
0.0504745
0.767687
0.181529
-1.17694
-0.227922
-0.162095
-0.18769
-0.280685
1.49015
-0.68609
0.957859
-0.165798
-0.492347
0.366479
0.0909273
-0.23063
-0.315462
-0.122551
0.0279431
0.136455
0.0169436
-0.29014
0.336156
-0.131483
0.356331
0.0348226
0.0992977
0.429711
0.524219
0.314739
-0.366557
-0.978995
-0.103079
0.423727
0.34638
0.30541
-0.565987
-0.546972
0.626257
0.403307
-0.117626
0.956023
-0.463762
-0.415471
0.865575
0.591661
-0.277419
-0.816394
-0.196949
0.0654196
0.127013
0.331043
-0.0438465
0.501944
-0.055543
0.507737
0.153201
-0.130113
0.727036
0.713469
0.951897
0.318837
0.835958
0.453738
0.0550601
1.61354
-0.408086
-0.849202
0.873989
0.0966045
-0.623186
-0.290536
0.311262
0.474538
-0.670857
-0.307099
-0.332154
-0.65081
0.0877221
-0.0541895
0.198478
0.493407
0.102829
0.255629
-0.0865991
-0.144901
0.799688
1.4682
0.739623
0.406958
0.232538
1.04043
-0.1118
0.915089
-0.241554
0.637777
0.645063
-0.453793
0.262535
0.638272
-0.635032
-0.13301
0.224761
-0.198437
0.338403
-0.274149
-0.367737
-0.56523
0.174925
-0.204117
-0.108312
-0.078977
-0.442555
0.492339
-0.339478
-0.476764
0.306849
-0.00539661
-0.927505
0.26495
-0.157701
0.149155
-0.599443
0.113411
0.402913
-0.183007
-0.842773
0.356638
0.0527969
0.123233
0.316656
0.219799
-0.410089
0.710253
-0.22406
-0.797142
0.353675
-0.180365
-0.483954
-0.364791
0.166256
0.337618
-0.22619
-0.620819
-0.38073
-0.146276
-0.533179
0.0326013
-0.289177
-0.431239
0.205563
-0.313457
-0.0393104
0.262631
-0.115505
-0.868066
-0.0756676
-0.234661
-0.0325459
0.12754
0.158718
0.162434
-0.0314659
0.50183
