0.00236613
-0.22222
0.0190523
0.110725
0.116133
0.0876122
0.147311
0.363737
0.00813277
-0.21782
-0.17151
0.122749
0.145253
0.0973585
-0.583443
-0.716264
0.214519
0.284814
0.130623
-0.0274652
-0.199968
0.0426646
0.283058
0.0466616
-0.318708
0.0685481
-0.110019
-0.373559
-0.0816957
-0.560871
0.0796472
-0.8313
0.0527626
0.130955
0.304061
-0.137286
-0.172262
-0.127492
0.21656
-0.0949535
-0.045218
0.37423
-0.0798708
-0.175167
0.203426
-0.0348205
-0.278309
0.185733
0.108683
0.255295
0.124126
0.122306
-0.0745603
-0.441434
-0.484313
-0.31356
-0.00373388
-0.465303
-0.101389
-0.526773
-0.213494
0.526733
0.0880807
0.0271153
-0.247892
-0.151748
0.103514
0.39403
0.269218
0.143194
0.864855
-0.250958
-0.365702
-0.454625
-0.58357
-0.436679
0.533086
-0.45563
0.111483
0.206695
0.490906
0.12906
0.504413
0.111712
0.168017
-0.300533
-0.614816
0.525384
0.104265
-0.11534
-0.455551
0.344146
-0.191203
-0.11678
0.481204
1.65347
1.13147
1.40144
0.663136
0.564522
0.565849
1.34645
0.703798
-0.42162
-0.235187
-0.112765
-0.866489
-0.581213
-0.278122
-0.282369
-0.461002
-0.147121
0.325176
-0.448387
0.136458
0.382412
0.100755
0.213503
-0.154279
0.334832
0.599026
0.975816
1.34855
0.614081
1.00669
0.809819
0.463822
0.567871
0.28673
0.0499565
-0.0602787
-0.0419748
0.0269881
0.539916
0.455858
-0.0227942
-1.0061
0.0257097
0.173447
-0.581566
-0.608792
-0.218127
-0.157425
0.172269
-0.44708
0.209761
0.227661
0.531974
0.696838
0.327526
0.205093
0.508315
0.911278
-0.241362
-0.204901
0.494514
-0.282345
-0.159059
0.456885
-0.127817
0.298188
-0.159773
-0.195007
0.208274
0.287481
-0.731465
0.294194
-0.17019
0.141465
0.0221741
-0.203248
0.586149
-0.153051
0.631131
0.713779
0.154927
0.374935
-0.439416
-0.216871
0.4374
0.337895
0.573285
0.556876
-0.452791
-0.194617
-0.0370971
0.368887
-0.118047
-0.225315
-0.272746
-0.199161
-0.378117
-0.407224
-0.413581
-0.00410594
-0.522412
-0.102823
0.371483
-0.0215525
-0.0269569
-0.204904
-0.365279
0.293988
0.547243
-0.123738
0.386851
-0.708449
0.0614562
-0.0371363
-0.231856
-0.155231
0.507868
0.08691
0.0952562
-0.0514782
0.690216
-0.24039
-0.0133563
-0.606984
-0.256622
-0.435223
-0.412296
-0.451951
-0.224935
0.270441
0.00592333
-0.537033
-0.200213
-0.769838
-0.0919586
-0.1004
-0.555598
-0.259775
-0.72176
-0.897275
-1.43716
-0.630394
-0.740904
-1.00975
0.0317742
-0.46105
0.446299
0.246348
0.131882
0.173797
-0.365724
-0.494847
-0.950449
0.17942
-0.353632
-0.0898172
0.520776
-0.00303519
-0.0962336
-0.0698623
-0.478337
0.376898
-0.734432
-1.08411
-1.48792
-1.00591
-1.2589
-1.33824
-1.47828
-1.04146
-1.22983
-0.380347
0.872084
0.344748
0.075405
0.472338
0.743265
0.20376
-0.457291
-0.232923
-0.791939
-0.321225
-0.140896
-0.398037
0.00756743
0.219943
0.200574
-0.145957
0.128788
-0.475806
-0.172203
-0.900029
-1.35128
-1.144
-1.03874
-0.260263
-0.625984
0.736273
-0.368617
0.523995
0.0163752
1.04707
0.868891
0.453201
-0.85435
-0.835173
-1.04658
-0.376493
-0.264612
-0.647726
-0.0516317
0.0714138
-0.068177
0.155476
0.419078
0.0785192
0.608655
-0.587718
-0.580028
-0.73844
-0.573516
-0.192721
-0.500564
0.224169
0.561412
0.908965
0.125174
1.22414
-0.0670469
0.0822439
0.340906
0.229827
-0.700133
-0.66253
0.0522843
-0.209898
-0.166598
-0.677449
-0.0590626
0.0983418
0.335595
0.0420987
-0.0158663
-0.160041
-0.0332602
-0.017529
0.853611
0.378979
0.575557
0.484052
0.490152
0.407342
-0.0412948
0.202485
0.643643
0.821806
0.0380346
0.282299
-0.567234
-0.338464
-0.94448
-0.760371
0.346555
0.701355
0.427076
-0.560504
0.0129574
0.0779628
-0.0929349
0.370863
-0.813183
-0.0272627
-0.457932
-0.355043
0.431789
-0.0247363
0.954834
0.0974988
0.509139
0.462154
0.272778
0.330915
0.252587
-0.195716
-0.0538547
-0.212423
-0.822151
-0.490143
-0.479096
0.0862585
0.134173
0.672985
0.324023
-0.702047
0.00674845
-0.337783
-0.0152408
0.431075
0.299185
-0.17127
0.136
-0.0144952
0.15101
0.676603
0.214648
0.468812
0.0700526
0.10407
0.442115
0.2053
-1.15246
0.0964929
-0.220096
-0.934531
0.0221518
0.00692223
-0.378107
0.0353146
0.40403
-0.562356
-0.155808
0.031061
-0.382733
-0.00423139
-0.0552027
0.20016
-0.185473
0.166271
-0.062363
0.107529
-0.111932
0.0147124
0.313071
-0.855305
-0.235083
-0.168206
-0.478428
-0.664189
0.703174
-0.645059
-0.297747
0.598091
-0.017858
0.160391
-0.734103
-0.0280842
0.327941
-0.122542
0.270587
0.0344798
-0.418179
0.134711
-0.2078
-0.0459286
0.22658
0.413405
-0.406193
-0.487494
-0.206095
-0.0930637
1.11875
0.927971
-0.512269
-0.376031
0.0793113
-0.130458
-0.194352
-0.194423
-0.782496
-0.452972
-0.118809
0.612504
-0.346581
-0.674631
-0.339101
-0.0816797
-0.582869
0.216288
-0.0448192
0.148169
0.0690562
-0.128355
-0.0841905
0.0268516
-0.111505
-0.704351
-0.0928073
-1.05799
0.170741
-0.117829
0.157021
-1.13604
-0.435489
-0.954885
-0.29157
-0.514017
0.179043
0.218063
-0.811744
0.161725
0.0461859
0.161059
0.268599
0.447429
0.288471
-0.551184
0.321644
0.360879
0.21751
0.217393
0.410352
-0.334328
-0.20996
-0.523165
0.0554606
0.050317
0.00179989
0.310342
-0.318877
0.177554
-0.398354
-0.291293
0.268417
-0.672674
0.741997
0.823016
0.57706
0.0709537
-0.5159
0.43076
-0.196
0.183298
-0.609663
-0.433006
0.417943
0.46378
-0.375756
0.024687
0.131108
0.263096
-0.44715
-0.601389
0.282932
-0.203876
0.219528
0.131699
0.265339
1.03496
-0.402235
0.100287
-0.59824
0.164305
-0.588888
-0.096559
-0.364965
0.361787
-0.0349629
-0.0581435
0.184092
-0.0137967
-0.302123
0.106786
-0.414458
-0.387461
-0.246535
0.273605
0.0756674
0.0822563
0.184724
-0.940317
-0.172689
0.0984778
0.13586
-0.395644
0.360481
0.231583
-0.38572
0.143582
0.711373
0.73356
-0.0725324
0.428498
0.380999
0.198626
0.666994
-0.110541
0.125782
-0.0684506
-0.0479066
-0.319757
0.239899
0.121304
0.426564
-0.215061
-0.483061
-0.170328
-0.171556
0.336599
0.40634
0.0236711
-1.15243
0.187817
0.029859
-0.247439
-0.281674
0.503061
-0.106419
0.937482
-0.489194
-0.117984
0.0502605
-0.0549934
-0.19389
-0.256968
-0.594295
-0.594698
0.150359
-0.335887
0.116268
-0.401615
0.286926
-0.0573993
0.0275207
0.0338005
-0.495792
-0.321781
-0.203469
-0.325929
0.0171172
0.209356
0.103684
-0.0541485
-0.11402
-0.287202
-0.491328
0.592634
0.733117
-0.530605
-0.499861
-0.0868785
-0.287141
0.515579
0.286663
-0.00965229
0.0201143
-0.208234
0.310992
0.204702
0.189177
-0.0595862
0.496562
-0.151337
0.400983
0.294837
0.285913
0.331029
-0.108127
0.103048
0.752541
0.455947
0.176375
-0.0726281
0.546324
0.120165
0.0545933
-0.166123
-0.226781
0.347242
0.414658
0.054034
-0.0489844
0.617907
-0.254875
0.0129188
0.0137422
0.478972
0.0510905
0.206746
-0.0933104
-0.219127
0.151197
-0.469939
-0.327947
0.203054
0.120614
-0.197932
-0.0995008
0.290761
-0.618677
0.212049
0.0641059
-0.817471
-0.370238
0.708923
-0.533198
0.599114
0.164628
0.314044
0.436884
0.495213
0.873426
0.146197
-0.391571
0.275971
-0.061233
-0.379559
0.208205
-0.0518782
0.466543
-0.0708278
0.685895
0.306626
0.741634
0.446562
0.521683
0.368897
0.199308
-0.54839
0.329912
-0.230697
0.0981929
-0.0764303
-0.331693
-0.275809
-0.524075
-0.351085
-0.0114693
-0.385839
0.0862084
-0.37331
0.356939
0.0400136
0.109271
0.22773
-0.511162
0.123257
0.132298
-0.19994
0.385192
-0.386692
-0.288207
0.482059
0.238292
0.155192
0.0243658
-0.177362
-0.403593
0.458852
0.316683
0.0796798
-0.0320283
-0.326863
-0.178765
0.333631
0.404371
0.226899
-0.0566539
0.00118901
-0.220428
-0.722163
-0.391084
-0.518717
-0.196622
0.196982
-0.369913
-0.0328967
0.108367
0.403202
-0.081512
0.0452988
0.0747348
0.599868
-0.452271
0.022508
0.175783
0.33612
0.355669
0.415441
-0.230073
0.0631123
0.270923
-0.00805098
-0.45559
0.250482
-0.285189
0.78388
0.182866
-0.4222
-0.459683
