-0.0365897
-0.326045
0.205287
-0.322557
0.00998084
0.223451
0.0100818
-0.157991
0.13876
0.0602098
0.637403
0.111516
0.306338
0.235213
-0.0382602
-0.10104
-0.206146
0.392526
-0.280753
-0.80171
-0.231822
-0.15647
-0.604586
0.0151104
-0.268387
-0.00394994
-0.0554041
-0.203836
-0.0221215
0.257474
0.113074
-0.224782
0.420692
0.24177
-0.104371
0.196093
0.331158
0.00492786
-0.0864983
0.322139
-0.393706
-0.0395696
0.144159
0.452247
0.644035
-0.0345814
-0.150691
-0.109886
-0.286359
-0.83149
-0.327697
0.236347
0.33141
-0.397671
-0.291525
0.470871
0.0476216
-0.0485713
0.425452
-0.598092
0.170385
-0.00424655
0.152337
-0.435253
0.167383
0.156947
-0.279136
0.282206
0.41748
0.099988
0.188709
0.196177
0.26813
-0.0611933
0.411463
-0.215304
0.0852509
-0.420141
-0.258668
0.33511
-0.0460168
0.396459
0.330648
0.135171
0.0397826
0.0177026
0.038075
-0.555897
0.297043
-0.0731002
0.267475
0.342516
-0.152999
0.0688288
0.67535
0.552119
1.20313
-0.266806
1.09881
0.849454
1.18885
0.246321
-0.35929
0.257049
-0.488851
-0.286447
-0.689786
-0.421233
-0.35593
-0.0626578
-0.315738
-0.29669
-0.21129
0.275327
-0.115016
0.375884
-0.0709351
0.016007
-0.0663255
-0.0780275
0.0181148
0.3389
-0.145279
0.0674843
-0.622013
0.0149227
0.60571
0.0971259
0.707036
0.533222
0.246788
0.425772
-0.0867428
-0.52484
0.613624
-0.130266
-1.29882
-0.574603
-0.636973
-0.294762
-0.0465723
-0.0798173
0.355164
0.282727
0.632766
0.244875
-0.247653
-0.286957
-0.628334
-0.124339
0.289441
-1.04497
0.771338
-1.45317
-0.121545
-0.164865
0.42717
-0.770601
-0.368521
0.250946
-0.543836
-1.12801
0.230147
0.714705
0.0443097
-0.59746
-0.216532
-0.0807642
-0.148814
-0.249071
0.664504
-0.779835
0.123632
0.0816008
0.149923
0.995461
0.171435
0.192352
0.457247
0.637117
-0.109941
-0.469158
-0.254323
0.590367
0.256869
-0.00315218
0.47789
0.112432
0.378473
-0.743079
0.141741
0.00301007
-0.464642
-0.665626
0.0243318
-0.0290954
-0.226412
0.245882
0.23427
0.387581
0.0996244
0.177651
0.195812
0.275819
0.549404
0.486643
0.203344
-0.0836363
0.75371
0.682943
-0.129855
-0.25443
-0.0436721
0.783201
-0.0916738
0.926256
-0.0133578
0.279573
0.982223
-0.254296
-0.468921
-0.873553
-0.00806637
0.193384
-0.0545977
0.175973
-0.514501
0.0652942
-0.0921056
0.146953
-0.240172
0.434955
0.722216
0.712852
0.273233
0.513565
-1.12255
-0.171038
0.350301
0.893351
0.483618
0.921502
0.221694
-0.0855948
-0.902881
-0.560412
0.281656
-1.32963
-1.516
-0.831783
-0.116724
-0.469366
0.0248644
-0.118911
0.119183
-0.539366
0.522705
0.109452
0.0591806
0.413253
0.519268
0.45918
-0.27191
0.952753
0.532361
0.400695
-0.628518
0.483167
0.883582
0.187079
0.121279
-0.0355423
-0.501832
-0.0395045
0.712161
0.0492167
-0.803744
0.138551
-0.384565
0.0189703
0.315417
0.752418
0.176156
0.43029
0.354896
0.470734
0.0215705
-0.0845103
0.37578
0.463027
0.18936
-1.03653
-1.01496
-0.799354
-1.19818
0.980028
0.682662
0.335204
-0.13692
0.421229
0.597946
0.370723
0.150294
-0.543737
-0.181638
0.170744
0.138337
-0.203972
0.366143
-0.219435
0.209943
-0.67148
-0.20221
-0.725166
-0.209457
0.010551
-1.15383
-0.766784
-1.8265
-1.36413
-1.82268
-1.73193
-0.115093
0.810499
0.415463
0.110122
-0.13541
-0.275703
-0.108632
-0.472294
-0.313081
-0.49829
-0.143992
0.472273
0.0515598
0.232299
0.450086
-0.30372
-0.0312897
-0.554361
-1.07294
-0.745025
-1.39806
-2.44052
-2.2723
-2.49383
-1.20129
-1.11149
-0.599983
-0.342052
-0.889141
0.0999646
0.724018
-0.375841
0.487385
-0.535246
-1.34313
-0.780989
-0.638561
-0.0313316
-0.284638
0.608779
0.396819
-0.0129953
-0.517961
0.0132923
0.119353
-0.0312878
-1.41506
-1.76956
-1.95325
-1.60044
-1.21486
-1.15088
-0.479284
0.405355
-0.221817
-0.0507802
0.219254
0.134365
0.152866
-0.389996
-0.168272
-0.27528
0.0624159
0.187585
0.216388
-0.16708
0.452776
0.356568
0.514724
0.389793
-0.594994
0.106782
-0.522671
-0.51317
-0.422292
-1.37234
-1.04866
0.236301
-0.10107
0.518553
0.918718
0.17164
0.0962023
-0.431203
0.110881
0.242748
-0.537442
0.405878
0.891406
-0.457472
0.490472
0.836907
0.383521
0.664921
0.00302921
-0.276652
0.318813
-0.00890622
0.200871
-0.202859
0.00267508
0.155679
-0.188239
-0.0900113
-0.0383492
0.11238
-0.23633
0.558008
-0.242672
0.223231
-0.619968
0.392255
0.0894855
0.851052
-0.376173
0.430436
-1.06452
0.305172
0.86052
0.155831
0.441839
0.709153
0.0794296
0.347382
0.285305
0.45701
-0.0431232
0.0800692
-0.184038
0.71068
0.317426
0.816861
0.506334
0.614442
0.839637
0.067699
-0.339102
0.763324
0.635321
0.270523
0.0243214
-0.112004
0.284284
0.290785
0.494601
0.637027
-0.57797
-0.342939
0.160035
0.0513665
0.762297
0.788409
0.0873089
-0.108684
-0.0799426
0.487338
0.263908
0.00127788
0.469123
0.169057
-0.40041
0.0780893
-0.166493
-0.361934
0.464743
0.112672
0.522102
0.184931
-0.217703
-0.227858
0.239989
0.415076
0.00141544
0.540595
-0.139929
-0.351253
-0.518577
0.157771
0.29824
0.214757
0.707237
-0.165847
-0.716674
-0.231431
0.464696
-0.763479
0.0333678
0.798085
-0.383279
-0.359251
-0.466049
-0.0508298
-1.01794
0.0142125
0.0213768
0.0114996
-0.145123
0.198805
-0.437865
0.41667
0.299703
0.578551
0.219228
0.392781
0.227455
0.3902
0.653602
0.559144
0.409482
-0.156617
0.363708
-0.638486
0.917108
0.433731
0.436074
-0.0718667
0.195916
-0.027718
-0.0279619
-0.0340878
-0.142039
-0.263049
-0.233415
0.437213
-0.378705
0.746126
-0.36062
-0.289415
0.202382
-0.394106
0.315506
0.51058
0.245774
0.90537
0.719349
0.856905
-0.271527
-0.0503484
0.228907
0.341702
-0.0107255
0.44855
0.744243
-0.719438
-0.569815
0.436409
0.205903
-0.089085
0.681385
1.01832
0.495816
-0.0529333
0.470359
-1.04365
0.503048
0.0135158
0.437081
0.00300161
0.212036
-0.327749
-0.298739
0.718258
0.600037
0.501764
-0.238703
0.0172468
-0.208697
0.305322
-0.102132
0.799549
-0.325252
-0.176336
0.794925
0.433743
0.133274
-0.4687
-0.113036
-0.614062
0.391268
0.0159351
-0.182755
-0.355554
0.272667
-0.0357148
-0.186008
-0.204624
0.225706
-0.177552
0.192605
0.356679
0.211783
0.391452
0.188774
-0.205382
-0.0279109
-0.104723
0.129323
-0.0562506
0.751899
0.990647
0.340902
0.544076
-0.304901
0.205506
0.0740315
-0.348876
-0.726543
-0.370169
0.49758
0.157794
-0.666575
0.663298
-0.210054
-0.402625
-0.526192
-0.251596
0.398625
0.135279
0.474115
0.366019
-0.155847
0.436443
0.303568
0.380981
-0.352279
-0.394807
0.0753969
0.731939
0.574151
0.613007
0.133303
0.212979
0.423785
0.954456
0.140155
0.104704
-0.0658453
-0.0343928
0.0671927
-0.734657
0.112946
-0.50159
-0.716838
-0.184946
0.0685308
-0.0920582
0.196202
0.19787
-0.334052
0.0707265
-0.254952
-0.000100681
-0.0828629
-0.238835
-0.221743
-0.262839
-0.390111
0.0571131
0.156131
0.585581
-0.0939959
0.256462
-0.0760158
-0.155481
0.622125
-0.508543
-0.265728
-0.371004
-0.639669
-0.605182
-0.129639
-0.151592
-0.460295
-0.217412
0.0513378
0.0486836
0.388028
0.015366
0.0511133
0.0101551
0.162656
0.388078
-0.206147
0.544391
-0.345334
-0.431378
-0.375732
-0.256305
-0.109776
0.105354
-0.640256
-0.362215
0.142511
0.526915
0.00629258
-0.816587
-0.95539
-0.57912
-0.0155737
0.146348
-0.393273
-0.0196603
-0.103412
0.641537
0.439692
0.00723652
0.41395
-0.158337
0.635451
-0.212242
-0.242082
0.310184
0.226281
0.000660229
0.526972
0.0321328
0.408294
0.470461
-0.0473355
0.386576
-0.944818
-1.17543
-0.0362205
-0.703483
-0.491527
0.0177719
-0.330471
0.105913
-0.147568
0.00222753
-0.334881
0.226292
-0.255982
0.130696
-0.213441
0.0494586
0.196318
-0.250704
0.160375
-0.134414
-0.21442
-0.263338
0.119353
0.326635
0.524868
-0.090738
-0.259353
-0.0566142
-0.465191
-0.109984
0.227892
0.63785
-0.653613
-0.0956814
-0.134534
0.200408
0.0427231
0.118704
0.0388668
-0.399617
-0.275513
0.234519
