-0.08883
0.205078
0.464364
0.0412937
-0.151929
-0.793625
0.120408
0.33099
0.0642413
0.563785
-0.00109123
0.262148
0.425547
0.538674
-0.144256
-0.0672854
-0.276576
-0.112259
0.200365
-0.0610207
0.325544
-0.0183345
0.409152
0.0842892
0.0199702
0.265269
0.346706
-0.0220391
-0.0780704
0.142641
0.0666258
0.22957
0.298619
0.373233
-0.313633
0.261842
0.332993
0.413052
0.265122
-0.178354
-0.108026
0.927967
0.400935
-0.450761
-0.175458
0.0904766
-0.165908
0.116955
0.0987644
-0.717041
0.500487
-0.718301
0.393717
-0.0707211
0.126108
-0.0481966
0.142126
-0.139285
0.00455226
-0.22045
0.132738
0.0653409
-0.231458
0.0500321
0.0972831
0.0144904
-0.00243405
0.239245
0.0811707
0.390859
-0.204739
-0.149873
0.115565
-0.000506503
-0.074551
0.175455
-0.253173
-0.132109
0.0615576
0.254711
0.729158
0.0291203
-0.157705
-0.110252
-0.0131607
-0.293691
-0.00634515
-0.0203096
-0.459453
0.117078
-0.335171
0.23079
0.477333
0.517028
0.295374
0.567745
0.840718
0.515174
-0.266384
-0.180702
-0.765833
0.00746412
0.287081
0.221929
0.0150184
-0.0427371
0.0516404
-0.249313
-0.822444
-0.54292
0.0317559
0.188619
-0.274456
-0.142319
0.046639
0.269749
-0.0308377
0.418371
0.0510234
0.202834
0.316353
-0.118158
-0.372148
0.355359
-1.00788
-1.06913
-0.148712
-1.43634
-1.08064
-0.125872
-0.306892
-0.245216
-0.223181
-0.105184
0.0940961
-0.297204
0.232431
-0.0779199
-0.0310026
-0.208226
-0.470408
0.0294966
-0.385993
0.0526943
-0.494034
0.240232
0.0513821
-0.320771
0.665507
0.484974
0.226578
-0.421694
-0.0734513
-0.0805013
-0.3678
0.311611
0.131116
-1.35252
-0.127515
-0.552933
-0.810238
-0.448328
-0.127416
-0.693147
-0.626231
-0.39363
-0.148992
-0.171168
-0.56131
0.497832
-0.28086
-0.490525
-0.689029
-0.594949
-0.638715
-0.562332
-0.0504634
0.357676
0.337558
0.507773
0.162731
0.659125
1.05689
0.587052
0.633762
0.725687
0.0356458
0.773901
0.0953328
0.165062
0.0327905
-0.838661
-0.770073
-0.372857
-0.107052
-0.279772
-0.0668103
-0.155761
0.568772
0.268565
-0.999041
-0.805174
-0.328635
0.569507
0.314639
0.314397
0.566172
0.276433
1.24335
0.838363
0.528461
0.806984
1.71754
0.487654
1.32663
-0.761396
0.396986
0.196935
-0.206206
-0.471662
-1.2066
-1.30153
-0.282891
0.421206
-0.0296169
0.234281
0.0268946
0.165852
-0.246909
-0.705263
-0.154874
-0.585155
0.105046
-0.0823803
-0.0255963
0.946316
-0.493888
0.570222
1.94883
0.329395
0.247914
-0.0816873
-0.000297282
0.0682067
0.30925
-0.0666741
0.189366
-0.943406
-0.23367
-1.10766
-0.39154
-0.283816
0.017937
-0.0146193
0.225938
0.610563
0.165001
-0.546003
0.678549
0.76685
0.487153
0.381506
0.86202
1.40811
0.562654
1.53106
0.645765
1.44244
-0.43289
0.658333
0.408815
0.168875
-0.191744
-0.171547
0.0283891
-0.473147
-0.0571838
-0.297784
-0.2347
0.400792
-0.124084
-0.0921351
0.177048
0.111924
0.112547
-0.514636
-0.380759
-0.0575617
0.451311
0.190033
0.255894
-0.0764172
-0.559791
0.500838
0.362218
-0.110707
0.343631
-0.551918
-0.630738
0.801016
-0.0596322
0.0553236
-0.648705
0.226153
1.00949
-0.364471
0.0745367
-0.337091
0.197307
0.173783
0.0421617
-0.555821
0.345221
0.400863
1.13944
0.502928
0.466849
-0.600337
0.0949303
0.780702
0.0149301
1.09146
-0.163068
-0.000576981
0.00208654
0.4296
0.805777
-0.348122
0.974845
0.0958937
0.091256
0.190931
0.85229
0.476429
-0.468238
0.270931
-0.205426
0.368647
-0.27527
-0.36111
0.953515
0.540784
0.375021
1.17655
-0.0968182
0.431201
-1.00378
-1.42278
-1.4629
-1.40983
0.166404
0.129347
0.313135
0.882928
0.395337
0.31225
0.535933
0.704459
0.918948
0.650503
0.123905
-0.200932
0.376231
-0.114029
-0.168016
-0.126592
0.0201277
-0.446198
1.14139
0.461102
-0.571859
-0.474192
0.728217
-0.630001
-0.0955637
-0.308204
-1.04411
-0.291673
1.37754
0.0370647
0.262549
0.396291
0.301717
-0.152476
0.375534
-0.134371
-0.0815856
-1.17603
-0.290179
-0.0505446
-0.603398
0.0296895
0.403827
-0.136105
-0.0511374
-0.294511
0.18743
0.270101
0.494772
-0.236629
-0.125445
-1.15611
-0.397893
-0.471186
-1.82812
-0.151861
0.0767613
0.826734
0.557651
-0.602002
0.0591773
-0.0847479
0.268895
-0.0497412
0.649048
-0.941864
-0.0621864
0.107888
0.172255
0.119372
-0.417174
0.109242
0.0612471
-0.327494
0.356535
-0.337433
-0.0403659
-0.582879
-0.573724
-0.603512
0.744356
-0.203384
-0.114766
-0.28797
-0.275601
0.105045
0.0956887
0.894279
0.894279
0.329543
0.220155
0.335743
-0.34732
-0.60343
-0.0245656
-0.54122
-0.274007
0.0311717
0.271204
-0.181625
-0.255022
-0.0568666
0.261176
-0.621396
0.353933
-0.651624
-0.284787
-0.618405
0.0514237
0.184443
0.0416755
-0.26759
-0.33958
-0.0588361
0.468147
0.00870037
-1.03347
-0.800166
-0.0387326
-0.41602
-0.394654
-0.998451
-0.481781
-0.383023
-0.0303531
-0.0962539
0.412961
-0.178747
0.309712
0.234682
-0.428078
-0.160395
-0.636023
-0.499159
0.973667
0.144756
-0.804544
0.191629
0.222189
-0.380323
-0.0167299
0.607581
-0.131481
0.272271
0.231161
0.739071
-0.731926
-0.169808
-0.343672
0.276974
-0.519831
-0.0887865
0.0363512
0.0277102
-0.0449922
0.261481
-0.49212
-0.241507
-0.454429
-0.311928
0.227111
-0.7119
0.55808
-0.499352
1.72003
0.517878
-1.22538
0.102403
-0.0789472
0.548531
-0.376689
1.06557
0.0263226
-0.207137
0.275713
-0.323206
-0.846138
0.28339
-0.131772
-0.487448
0.10442
0.0138822
0.0829756
-0.35127
-0.896845
-0.112607
-0.795963
-0.243386
-0.392319
0.523933
0.515572
-0.895612
0.256679
-0.511407
0.854241
-0.803544
-0.211549
-0.952792
-0.0844981
-0.422994
-0.0130907
0.299981
-0.680525
0.14563
-0.74868
-0.264151
0.38793
0.38989
-0.0182927
0.326922
0.360921
-0.0206089
-0.120009
-0.101187
-0.539179
-0.782098
-0.285375
-0.732298
-0.50215
-0.821672
-0.474187
-0.141971
-0.739361
0.677833
-0.271325
-1.61156
-0.613324
-0.749134
-0.902551
0.140717
-0.653951
-0.684448
0.293883
-0.115794
0.985882
0.492957
0.00632733
0.426628
0.348986
0.640678
0.0632472
0.0227328
-1.05088
-1.4563
-0.799904
-0.478478
-0.866311
-0.44601
-0.558036
-1.43491
0.0539274
-1.01464
-0.320001
0.29624
-0.0188342
-0.999345
-0.634625
-0.714641
-0.428978
-0.679265
-0.460225
-0.143292
0.485075
0.338913
0.0737695
0.263233
0.183454
-0.236124
-0.383777
-0.237661
-0.279386
-0.235048
-0.143721
-0.370772
0.515238
-0.363541
-0.243464
-0.389741
0.464988
-0.731855
0.603221
-0.635514
-0.728091
-0.833503
-0.791793
-1.3176
-0.421006
-1.11969
-0.00542581
0.13188
0.0299259
0.0751281
-0.220111
0.273245
0.374555
0.15289
-0.407004
-0.565042
0.0976167
0.229319
-0.659303
0.348457
0.34553
-0.855741
-0.640382
-0.643316
-0.94388
0.473448
-1.17513
-0.287369
-0.507079
-0.230437
-0.401383
0.491606
-0.403792
0.0585529
0.430811
0.448582
0.400574
-0.225694
0.312071
-0.426431
-0.449873
0.198517
0.0176091
0.00633507
0.320636
0.304792
0.162816
-0.0676874
0.760634
-0.347463
0.584767
0.143111
-1.05436
-0.82667
-0.11952
0.574296
-0.568843
0.0601604
-0.365816
-0.10627
0.411877
1.03417
1.13717
0.22415
0.449796
-0.823374
0.250904
0.259587
0.0659072
0.316198
0.105874
0.26461
0.538209
0.786201
0.576332
0.678574
1.37202
0.30393
-0.249136
0.222057
0.604516
0.582002
1.10199
-0.0666124
0.0548841
0.542758
0.284731
0.927834
0.528612
0.797282
0.560131
-0.0225084
0.714308
-0.429465
-0.171783
0.384068
-0.151702
-0.108088
0.243264
-0.224857
-0.200744
0.353093
1.60889
0.640529
0.73248
0.782592
1.20937
0.903307
0.555888
0.269631
1.7784
0.822417
0.488502
1.14872
1.238
1.1376
0.461535
0.777417
0.0833984
-0.413021
0.172677
0.676916
-0.326416
-0.0503407
0.175086
-0.289645
0.0800569
0.506836
-0.25835
0.0332023
0.0593866
-0.202719
0.249817
-0.134413
0.551309
-0.356824
0.155015
0.195915
0.543461
0.2658
0.342346
0.275594
0.421823
-0.0898849
-0.575053
0.126067
0.136676
0.238961
0.383292
-0.25237
-0.191346
-0.569067
